1
1
1
1
3,46846570385579
1,27566865225545
-0,436142802664802
-0,734925841280171
-0,395669204601845
0,308801948492579
1,03533965116955
1,26057072570303
2,00971688969687
0,433486780216464
-2,25371293648218
-2,12173856500785
1,27948293019032
-0,0578035244430316
-1,70285318042021
-0,791504030348678
3,40231417314807
1,21119433804009
-3,70074021010278
-3,34582078944045
-2,99715101688674
-0,929591620867668
3,21206833829131
2,55835739726216
0,0305256169659102
-0,320399555108637
-1,22029886195549
-1,29760113252367
0,448992047913685
0,494497927485071
-1,99193070702438
-1,43817079786812
2,51102363272104
1,14253582836788
-1,60762322574182
-0,415917657808028
-3,58468972449141
-1,63442627778719
4,00807682600016
3,2521727979912
1,18950390046175
0,897205379534702
1,31584110315485
0,777965704858706
-4,05960282582082
-1,72236355777861
4,24699012109067
3,99136111956291
-2,50236373648727
-1,4918177366564
-1,54188182157804
-0,290406345408503
-2,55833838582848
-0,387652007434832
2,30692991911615
2,75751398972478
-0,739068173727396
-0,773427568938097
0,472299179587524
0,780652767591814
-0,642563301947273
0,0630523186752029
0,133751210006779
-0,269179120434208
0,760933353838132
-0,242751587469776
1,10356640633252
-0,0365850019545869
-0,831038959519606
-0,793545208798382
-1,01762536117812
-0,727540058077167
0,769516139354734
-0,515306748536572
-0,203420107226803
-1,37102885420185
-0,708549083389927
-0,328722397865235
-0,381990297813521
0,165273257939298
0,143951823143948
0,720694877777813
0,485604722808786
-1,11885559204684
0,67344293987839
-0,942741680008697
0,587866969200659
1,25723659220205
-0,00578027495443898
0,394101019171942
1,06256808898987
-0,539106032211335
1,08166779879863
1,00585895466375
1,85108059272825
-1,73898891059901
0,041754333908419
1,06890351288518
0,724522609641216
-0,951866134551823
-0,391954493693396
-1,39599494883494
-0,875472477723637
-1,2038259901876
-0,549403556441919
1,72067076960458
-0,873562301188431
1,73777210592764
0,894061828053268
2,58357432088191
-2,39324211781228
0,663559892645059
0,527853038797276
1,54601183908079
-2,94294122016519
0,0155588436229694
-3,66629540121515
-0,808645742939609
-2,00203875140687
-0,0604808738031851
1,7306851086555
0,324719069189586
-0,0720720710681296
0,115277547753317
-0,174321189731243
-0,520687358623677
-0,818095205599741
-0,692409648104028
1,28655355251137
0,271575828285205
1,16010561403261
-0,0855812810015011
-2,10827160288657
-0,726498508275491
-0,492492980795568
0,178499315164816
-0,69264918648039
0,738998496079028
0,338271671535927
0,840153324894934
-0,0465675671589598
0,776403105825936
0,357239656925127
-0,0647462721241809
-0,378293093486153
-0,739426576643563
-0,790479535917677
0,306718158849825
-0,315368189673111
-0,138440616085379
-0,760987664658814
0,22220770432321
-0,143834065109642
0,173897855820818
-0,0243218771348831
0,3593324495123
0,307014244229638
-0,0538683945613725
-0,750469567473556
0,761184026540343
-0,306967779331157
0,872194708849188
-0,0866161637366119
-0,0914112443633051
0,114394656619924
0,0752142989534509
-0,463204549333559
-0,0739980944267684
-0,0157739302094983
-0,144908057487387
0,649751201410775
0,579230696321377
0,0136837688929609
-0,8042400271414
0,280853803432743
-0,0505376449292685
0,0316479066937757
0,272539825757827
-0,0186633180124498
0,331376145521492
-1,29760663720429
0,878939867292358
-1,14079895543659
-1,08681563810735
-2,20865335501474
1,73528757242578
-0,569412570969222
-0,462601300902834
-1,10076746221808
2,50697753345339
-0,105933025079327
2,72090515276104
0,150476562273052
1,15789212555284
0,785270829829505
1,51886417407232
-0,451779950962952
1,11598395948342
0,7349391910675
2,13733703060106
-1,33468150412008
0,578911336660188
1,04232894908884
0,451001743693542
-2,36784084792464
0,270381716841197
-2,62080029436638
-0,55792060635858
-1,92391727901388
-0,86235582137993
-0,485206947986464
-0,655191684145854
0,623616646410293
0,442713689316962
0,477666750418516
-0,593700890130036
0,379383314583529
0,298013783301268
0,208905741186768
-1,01104991916008
-0,863802797313596
-1,20147301646796
0,533468635674202
-0,910150019185164
0,420639643174727
-0,640971295137673
-0,32989934445183
-0,0414895972911617
0,217117283854681
-0,435788171306008
0,564587491035198
0,401843836003868
0,25228000281613
-0,608188823126001
1,0115680795542
-0,102834066315361
0,935424238708171
0,208292131324664
-0,189483402560766
-0,0156294411027655
-0,314947579720354
0,0131895436823821
-0,356923593919547
-0,626010768185584
-0,754003824843073
0,242205728635976
-0,220841190091834
-0,218718212987937
0,343504427078112
0,278938929566377
0,157417627923215
0,461841504364082
0,0899940392105176
0,256304390583183
0,205890442266118
1,50063088950167
-0,299269501085632
2,04925557549687
0,689618271153492
3,05303863812782
-2,81682671912446
0,831044955961594
1,16115886924699
1,47310733575254
-3,18853741089094
0,413575362885042
-3,16257947433466
-1,05112076064545
-2,28107460743464
-0,599416554240259
-0,622359283268271
-0,665668522251407
1,13819984677658
0,754934568248471
2,7219921385486
-1,50398159431817
1,11515796348609
1,99450198928265
0,356735516323713
-2,40834129227569
-1,35566121665398
-2,46630202046335
1,57519290749317
-1,1258659593736
0,119603355713643
-0,448418119135648
-0,285696313657034
0,125850635432598
-0,330995708345662
-0,0880886928651052
0,273651497365257
-0,0544258511417303
-0,403117489883455
-0,116194919019735
-0,219636997111429
-0,464518540013895
-0,475131333153044
0,258622839934796
0,52019497219674
0,629561430244003
-0,744704174986331
-0,255425162779055
-0,113189796453858
-0,216465184159708
0,808126724068243
-0,0521826739425894
0,0904282917654043
0,15627626345948
0,762854717151627
-0,880032289437548
-0,11847009868558
0,502618831988519
0,370986232673034
-0,0806291600606007
0,375129536153008
-0,401315206650192
-1,02184408342229
-0,031953944851741
-0,226278768712492
1,19844770840442
-0,189179005213642
-0,168074062020175
-0,270417534568866
0,0648571677080135
-0,539909704873117
-0,251702915999956
-0,142250310195024
0,129347286995697
-0,75022155241556
0,845415229211556
-1,809006864531
0,854234919825199
-0,657476421696931
-3,72405434118992
0,0440894637936846
-0,534309022300252
0,127011549648465
0,339305327595781
3,36115750051047
-2,77802112539429
-0,873949848143717
1,10606137096139
0,0591578208826204
-2,67013606578147
-3,07761428055727
0,172393027135787
0,010229601849901
1,60386893515024
1,99125208323544
-0,0837267304950351
0,737040677404681
-0,316622318685644
0,609140533612593
-1,85545796569664
1,39110214142664
0,653843323329498
0,151060996082569
-0,650465031071238
2,26886873533583
1,03348995100879
0,548123335052611
-0,562422584386543
0,886778657217609
0,252027373921036
-0,425662649853481
0,414930959785509
-0,448414168470028
-0,226852632294301
-0,509259674524195
0,241024302497995
-0,347678822143393
-0,343129112570793
-0,128749287918762
0,737379980008
1,02966696551413
-0,660789909950903
0,322269718169665
-3,21334696465011
-5,15165013931931
-1,07861070091967
-0,983924275550728
0,773995395568869
0,495123718118551
3,68764589120985
-3,96485981845512
-1,58625248593445
1,00361581233036
0,947713493828708
-5,74527608661987
-0,872804619706487
2,10533448259678
1,63123042361245
-0,147464138083661
1,48477184286824
-2,55343862695596
1,14350205068391
0,234557449924058
-0,0898282972400041
-2,12496523098201
1,27380825086457
2,1889305701284
0,466861492756054
-0,167100438905202
1,11995975934512
4,57137623215884
-1,5156384728728
-1,60644603788789
1,32877646274476
-0,0421091299079495
2,2029669163137
0,0538579391726801
-0,426919558174437
-0,467022917719593
-0,0164594886277653
-0,196128015010804
-0,288483249680775
-0,575863420101373
-0,265138735769891
0,0311820095501066
-0,559738577436958
0,841022863361532
0,757463910825583
-0,520125279752584
0,539656057476121
-0,47628641505308
0,438050335123149
0,739355973389641
0,657826008833519
-0,349893104983587
0,483600429091018
-0,0785722906387576
0,52495025339738
-0,0403165695636935
0,48010091439959
-0,943186221405465
0,322698612152342
0,771350509364039
0,0236675022452583
0,634849777568568
-1,07339382991914
-0,120334592977937
0,934719743241474
0,0870898878118648
-0,400476486890392
0,406364889230886
0,567650205484945
0,190962602606828
0,574737625522236
0,0443685352022525
-1,15906951425889
-0,413438290847968
0,223064634604705
-0,589443757680947
-1,00583631098632
-0,426308435649387
-0,376699746423505
0,0461272605679115
-0,330797831774096
0,549999397436238
-0,649739307859721
-0,209712026197189
-0,143902297659466
-0,277333181324223
-1,05634172977456
-0,363950024683026
0,0667876274300262
-0,0195917703304401
-0,194193812845258
-0,727077498622218
-0,130781109341554
-0,669108637417164
0,285941776449879
-0,479547090196615
0,98772959260026
-0,580515807330162
-0,611047557481693
-0,0288370422423436
0,189835249360996
-0,913894738326307
-0,307157730406085
0,930428127781845
0,658705566223862
-0,818638125119008
0,433088418264785
-0,912285467737195
0,531990055743222
0,119158367796331
0,375237772196499
0,0908033454440229
0,146883691081515
0,133445976908963
-0,0545251800175516
-0,278178296719918
0,371705929116277
-0,824302773524491
0,388157359334972
-0,711693516734835
1,09123212412871
1,2548502675389
0,286763304921769
-0,266786468812005
-0,138787968560112
-0,315431373959551
-0,800267310162297
1,24281885924807
0,517716344430161
-0,155949294707505
0,0444691822071075
1,61715859964017
-0,358736837407178
0,251666148035313
1,11578120864184
2,38725928025937
-5,18248985110447
-1,50930795500493
-1,32908585330632
2,58095722159637
0,709228279013572
2,0658106673176
-2,48877246336233
-2,57621230794237
1,61961457452456
1,66213387725076
-2,20114642052178
-2,90848215476586
-0,229970255559941
1,12214935959828
-0,103602227489723
3,56727619891753
1,65734123244074
-0,428302689036665
-6,38841175006447
-2,98571086637126
0,749385071016342
0,289425324543111
0,568155376068679
0,118221007272657
-0,135526099092638
0,510020150149684
-1,2838975163172
0,75316534746009
0,488138810393803
1,02176411985232
0,69804753575268
0,180087262870869
1,4349639664849
-0,185820553515832
4,15285602402895
3,02597492163555
-1,23340948913708
-1,27897647157681
-0,436997512437229
-0,00608025577667603
-1,31426637716504
-0,0739655671311598
