0,05 0,5 -0,5 0,5 3750 10 5
-0,3095298298684512
-0,49994612713490943
0,10185790536069876
-0,25661832945029184
0,15082439365278263
-0,38259908029585804
0,43700657633340406
-0,006303711948659873
0,09006663303385616
-0,24322883684297733
0,3031788951189162
-0,14484603512371005
0,08417185472106274
0,3114470738204491
0,05318965011966132
-0,16649806958224034
-0,2124308099032955
-0,3241161325564112
0,3343566824087173
0,05764760180036257
0,4130768673774669
0,20835795467831641
0,2709711332314096
-0,269477712599565
0,3275259788440857
0,13569452455608746
0,046578929156224295
0,428924260137986
0,23964653743621547
-0,11860222133669823
0,40395097939315033
0,08833811557156915
0,32570452251613885
0,48148476415953706
0,49687152081151537
-0,3565384209639879
-0,16467946251074495
-0,15557212382319452
-0,059130609637405365
0,4222931076060363
-0,4480346751306665
0,27898661863753593
-0,36889290279772124
-0,10778694252804831
-0,07441262402155491
0,31756749866630823
-0,21749855378139837
-0,047849778540284396
0,47787428544149163
0,2539265554815449
0,39876792776872894
0,1879349024589099
-0,15382264313196728
-0,49931869667629636
0,1401267361631409
0,47518980222513285
-0,11368465511801189
-0,18622572348761557
-0,22802809966100596
0,20524369949294055
0,0856376106298092
-0,4681687021903687
-0,13760114473031357
0,5365990521420243
0,12654904163363265
0,23715023832600504
-0,14053696018370304
0,16461842111314112
-0,40564026197948416
-0,19089056121169437
-0,22435632473144018
0,23413593820309755
-5,4454984175315684E-05
-0,009828993213669373
0,2928996870596833
-0,12401697644663796
0,361711794564735
-0,009731525005170475
0,04751110813169725
0,1934550492914289
-0,27438225966209595
0,46281877786778786
-0,14241692962174912
0,10823623000576475
0,26306360060352324
0,3145648237096981
0,32462453275267705
-0,05285495570528008
-0,48526745768703805
-0,1665685987812365
-0,22317458224040232
-0,3110470248488959
-0,12760548724095575
-0,17277812942534307
0,4995309584440716
-0,26696788870878974
-0,04950333950816489
-0,20887931292365547
0,27371939491836367
0,002354249128693376
-0,3263694121496711
-0,5212168055903151
0,405851742998554
0,06446270764896843
-0,05197043766927751
-0,2043561933117617
0,20845701844289066
0,2637405677364988
0,501808074472885
-0,3778150165976181
-0,10970372603855148
-0,34179435433301486
0,47438785343100737
0,4287446144957825
0,4162842080029022
0,3758746424130818
-0,18486371931152687
0,35342257200505567
0,07387523015710777
-0,35670539181699296
0,13081867493292887
0,29346005739662245
-0,45461826644413483
-0,27558294280883117
0,46796871813265156
0,166931158922179
-0,4002108641332115
-0,36787784851452104
0,2247295419039673
0,4872145643636707
-0,3480599758843018
0,4779092446487921
0,2923759896272583
-0,07883695477263125
0,22281600728866302
0,23795747692845634
-0,017742753809424645
-0,036612366046944435
-0,3384811921016638
-0,011370392233692926
-0,12517229770437704
0,23112442820240975
-0,2926347253209187
0,36820625106788946
0,23960767521682547
-0,06245666581253314
-0,2476283079449513
-0,19986080322823743
-0,1420650982086163
-0,26305195094950296
0,014825233186049796
0,03281421090215672
-0,048237412764484615
0,04533395016764284
0,3874855043076628
-0,17304815774854293
0,16149561297030188
0,12652911631582844
-0,25104677788940055
0,07608156337889571
-0,23393314958686326
-0,27280800798783506
-0,39365656066107535
-0,30871564533784746
0,1514030970238683
0,4862732599384336
0,24072415200548028
0,3254439521655583
-0,1793350348016475
0,19052691342321662
0,23249112763293214
0,21421235520235424
0,47930657385438385
0,16352819540076577
-0,18180371191569994
-0,306713234366461
0,3492391390467207
0,21711378697072223
0,4037520400616992
-0,19289757370201657
-0,11540114422450191
0,3861328370871201
-0,44268281830371775
-0,1102762439785884
-0,042778901585832946
0,30476052906054996
-0,04293053196916422
-0,15095298558365589
0,22614905566267432
0,1017514260269095
0,10109507750603017
-0,42808851107278567
-0,07057379086120583
0,1537064272928637
-0,19852252580963667
-0,055768795894664366
-0,15898046568270713
0,2441083927092847
0,3976675767876357
-0,23502534552606064
-0,4294373732121778
-0,17507485322517238
0,34022618852321956
-0,29496579034484705
0,14541247452163794
-0,3047612431173183
-0,049901756315070704
0,4289015598020686
0,5614617235109647
-0,3614079654501094
-0,34563165622541214
0,3384419221725385
0,24538401691668144
-0,35898497736829266
-0,11828779063218024
-0,1438493547443421
-0,05141465517647522
0,5577775919967475
0,4504579386312726
0,4734732330667195
-0,1073686605764941
0,028364569911762824
-0,254369491795092
0,2241726453348789
0,4650023809428858
-0,4270716173456997
-0,003932020709203555
-0,35015215024178725
-0,22802816884450886
0,455582206029701
-0,18791388571557152
-0,41489773312214373
0,48270768379538964
-0,5216862340949514
0,3969333219884685
0,2676776686850635
-0,2477215339539197
0,05369076437427805
0,22469160707452018
0,22702055863008966
0,07278761672788425
0,4546885169661198
0,45264231536268995
0,0614594918869537
-0,4174761305805912
0,023954717481837882
0,4624221488317701
-0,2890204522619812
0,14427815997585064
-0,23857080523077168
-0,11617416348582403
-0,4617163420766799
0,38163213237621957
0,3520401237620102
0,46369253728805593
0,01746809002562667
-0,4185690967073995
0,16965801210964182
-0,1864030928419948
-0,4644814339206249
0,30820301597360683
-0,008318240063037734
0,4571773853618275
0,1610575471411357
-0,009458915384744727
0,008070517025876535
0,3128449760439436
0,024740429864716928
0,2049052247549092
-0,38416665102345593
0,07267915915956887
0,3224442886486422
-0,2576285207523576
0,13813452296142584
-0,22214045790855727
-0,10648470177044163
0,12799306938953484
-0,2527745428695636
0,00868617098321881
0,15596236511577447
0,03671776369381626
0,1723262980161722
0,0028959474715000368
0,30193863660471465
-0,3186627405950361
-0,3315733424864206
-0,2109233446614738
0,4005623889221564
-0,46112925107120356
-0,027756044395245073
-0,32120871575853
-0,25113234063787676
0,21031978135180354
-0,3060608880206665
-0,24815913389606428
0,41530913428463323
0,33334871177219455
-0,18423656731059143
0,5561884443281838
-0,375353222322272
-0,4041062848437036
-0,44375422736557957
-0,12486738311070116
-0,10563107650948093
0,4687992485545195
-0,18727006008650848
0,04488122825629643
-0,06152062339878403
0,4090576601109073
0,18718842222466653
0,5100675676336994
-0,4219674967794666
-0,1515227835736147
0,19575636079942232
0,15251209508714333
-0,3894626404871885
-0,19830156998732482
0,37467775358115957
0,060232915800553274
-0,10450271706297794
0,32613039387383386
0,08865318561681576
-0,2503571619796516
-0,0053088479924502455
-0,5161751910159652
0,4772247826121529
0,4389349897856055
-0,40914156654927636
0,05278873693403931
-0,34504438346599137
0,03069854318811103
0,07022928327863329
-0,4314633790207911
-0,3891593486999842
0,2929828656952231
0,053185148202946106
0,487838027607246
-0,4949561552069615
-0,012566176202985321
0,2132805886876147
0,449564313508752
0,19518306071287306
-0,5023577103071016
0,12764296095805813
-0,2641174413213906
-0,0003916479692410919
-0,296638334525054
-0,1745764752329022
0,35483616048717637
-0,09969537710317665
0,042826627079723706
0,44462669975763763
-0,1654806624766557
0,4346892944587189
0,230523798639672
0,3877615452455524
0,30164387977152146
-0,2519662291380508
-0,3306595823613841
0,5162422124430475
-0,100239243507703
-0,11076834300134125
-0,3309000179497537
0,38271171734113996
0,2872163360116651
-0,14351709246204164
-0,3177516084602174
0,16808880616896846
0,4290689753175598
0,3714751979487545
-0,37842405761887493
0,04640664837059062
-0,2983026251191137
0,03570330262092403
-0,09197043258921263
0,1933625144710157
-0,4121910248238009
-0,3371218052819324
0,005917637561139471
0,4469236554176468
0,07554346691035695
0,2636419202643427
0,45214694145935563
0,17529548813203705
-0,28486198514295735
0,3690280000395196
-0,1886244823129208
0,22696611396530997
-0,05117841743503677
-0,004290031321008358
-0,25876023366808387
0,2789894323934765
0,18842316817807933
-0,16005353472278755
-0,43625980888478033
0,27193191993710536
-0,22695373727051993
-0,11635665097233026
0,2216459764231656
-0,14791990124813376
-0,38883466240102293
-0,09968691366444969
-0,26580488142298236
0,13754170737711124
0,05721786574390848
0,15614857000845203
0,19481830262497934
0,2060292646644698
0,44348291256035205
-0,47427235427962033
-0,22410143377281844
0,3758849611744232
0,5070418211152985
-0,16926314078938523
0,18821815067979017
-0,21165752727249218
0,06152728157060985
-0,06521491932653942
0,018141393038876037
-0,04521543846014861
0,36693053712599033
-0,14651451590880565
0,37899493637477966
-0,13449661350367087
-0,4416055270198339
-0,13660677569491034
-0,004371871156609328
0,18585526621013815
-0,4864702772693457
-0,3989982805906611
0,3229084866631489
-0,40327038291830536
-0,45408951728230845
-0,05966494487642271
-0,19529893802925008
-0,465999953640116
0,2623593696299724
-0,12205651980192427
-0,5511181607746898
0,01791037350388327
-0,23752558849255517
-0,3621150796118524
0,06321668107822824
-0,3680911688618941
-0,3414946844044473
-0,29460455796264673
-0,004994259068278654
-0,3242568191052325
-0,06899807244089867
0,03287986763681708
-0,22407709691974423
-0,3783866019280858
-0,4108649698897756
0,025315302419438024
0,41222000635525474
0,5390377502078975
0,04777949546217449
0,3272741475111045
0,3056585200045613
0,32921734667366
-0,2327557508470658
0,37691739455273837
0,36574982210151374
-0,2789750808417923
-0,3283771895441133
0,24935008247181464
0,37576571975999395
0,15444895970537179
-0,2374227727098356
0,309328689546167
0,2783476757100002
-0,19359218503480152
-0,012018555164432851
-0,20496465343179568
0,3002608519239839
-0,380280761613748
-0,03494257254274139
-0,19749480423302865
-0,05963794919171619
-0,14000027206605012
0,37850067478822325
0,43767404539317756
0,24833045349375157
0,45145599032385325
-0,03842064345103172
0,18454771798264719
0,3443832125420023
-0,39536765601799106
0,04816572501954934
0,24584017155198043
-0,15420145369871865
0,3002080669541433
-0,26348459408531405
0,3852592455563247
-0,18110987550413557
0,1383146058176696
-0,1977365737626295
0,08740241364529164
0,014261538955139097
-0,2679977782527347
0,13218037845601122
-0,09944568376725282
-0,17736661860701108
0,004493244481744381
-0,2842509123649604
-0,2699296743934467
-0,3303380110585416
0,43584906052004
0,01980770187322518
-0,10291363133106093
-0,37679400794556556
-0,33829625136689295
-0,3145568075783428
0,07797851684743873
0,04443059466406562
-0,3193522172233312
0,3199548962175884
0,2229580250253714
-0,07260373769512511
-0,2395929789823599
0,3295551043120034
-0,2631957225411158
0,43687238850269156
-0,16142131964552772
-0,5471806174066197
0,4524175219407203
0,5027091221113
0,14953466230267498
-0,460220033303679
-0,04257105511963919
-0,22294131697422223
-0,44812431942914405
0,4903359672281517
0,11681250023087553
0,3435833526015215
-0,3708773857234894
-0,27222992207730773
-0,3992629009759014
-0,23620883506270235
-0,42284575245502914
0,1527650457442522
0,4384710000467133
0,2663020614036348
-0,18199026151569517
0,06131176946272918
0,14448682128796342
0,16622539717676232
0,12205446733511041
0,26757281257633714
-0,43274395832849094
0,4990339602760089
-0,19594479251358463
0,015016356066668084
0,15047507379332295
-0,19170018801186606
-0,18983535005813493
0,36992086747505004
-0,19986872122886437
-0,13521320566706335
0,3028594458322515
-0,45686981678559735
-0,06971731557686274
0,04085257295079609
0,2123357589414479
0,12468048343497791
0,2999487655211176
-0,5173453147855892
0,26196815939010054
-0,3071578476645197
0,29915412204391706
-0,1847822474178001
-0,01980463803926809
0,10623711384478067
-0,44644468469865206
0,382475568572261
-0,3638829144229404
-0,2792907759044499
-0,38372145012446296
0,4142248507256298
0,43287962228361376
-0,2038731835866493
-0,4944302050828912
0,40808566660508316
0,36471145375160235
0,2787231465628882
-0,09305380374514782
0,44619983478337893
-0,33066581365031406
-0,5228082722568919
0,164785397766206
0,42419392377674425
-0,06080878646028943
0,21291264088702364
-0,4934198839282289
-0,3685091508217802
-0,23904653004883594
-0,343603831357901
0,0671420678702625
-0,26109148560807344
-0,1540108582981361
-0,2382226631617753
0,09148940184612576
-0,0639298207638544
0,5035167025214086
0,08066091495918433
-0,05234425049914688
0,30933256401811626
-0,30076837054662975
0,11247340657471937
-0,38960469807415704
-0,027540750403558155
0,24261930690630032
0,31732736542190587
-0,25825248696498465
0,5086455933773534
0,08434968624017755
0,24059193718508756
0,21933602245911976
0,25408330871476836
0,47747350873855526
-0,04492264908025706
-0,38741320560518555
-0,3762804040907327
-0,19823417365203003
0,16010501817058845
-0,02533155448215402
0,09415861804013902
0,11672260225613047
0,4541793715651044
-0,48400393432267635
-0,146011376358169
0,1682945777492434
0,2868588808763096
-0,04835160584668783
-0,33091594563688687
0,05943237754365739
0,14805492358431804
-0,14770386114321415
0,4777745675096837
-0,11817634147461265
-0,11283871899034323
-0,3895549878958651
-0,08802384391745699
-0,4491928786768341
0,4203350935891003
0,4295023905884941
0,362782017206489
-0,25767991432221676
0,3126647072625683
0,3228295366500353
-0,37995827206671345
0,30913856120714084
-0,37015085299038686
-0,13654894500384274
0,4651290586883418
0,06715734985269622
-0,27110298937174265
0,4243035776446593
-0,4640557043956808
-0,32756990420320825
0,15229792805940034
-0,001012148412792118
-0,30501534066544034
0,030060769334568693
-0,3036379503212357
0,42396886862915006
0,4491667080262934
0,39694694773755956
-0,3722522099126295
0,5189425189662791
0,468676847611584
-0,4692165243589731
-0,4380169569699356
-0,10062120622477594
-0,02352022082665924
0,5367733938201359
0,16042505076351202
0,3082757072420853
0,27941390492668744
-0,22217430555328468
-0,269789481349323
0,45256160413490953
0,43446237662340964
-0,27747114015157315
-0,45387549679333244
0,46543274273716084
0,19224190975696018
0,4108151562180764
-0,27336439479538016
0,07188086638663102
0,10290195432018782
-0,13293448133793662
0,015445178262120954
-0,12972006755885118
0,49080155324394903
0,15047498674764617
0,11750406339704028
-0,01836896827482073
0,3022025545767386
-0,23918544080925996
0,04763396361128331
0,028887270365907616
-0,24237737681540514
0,3801733086764641
0,47457442401528044
0,17220767543707022
0,3380942790390109
-0,46774151559061483
-0,08339314157247218
0,5218210564536695
0,17916593769079117
0,2588369134559316
-0,2992345283278458
0,046557323724347156
0,0598176128186593
-0,10929306554601355
0,0543002151478913
-0,33806013372930893
0,16897358719460134
-0,22863851337753638
-0,012392189496681898
-0,29143264065294866
-0,3364061599747589
0,22656059276653492
0,20046654106530795
-0,28884177851829446
-0,36381698314476746
0,3697159907811002
0,22421644022704673
0,03267172292660975
-0,20269128326357433
-0,21080357983684853
0,4318438225295625
0,5068877332179017
0,10902652427007202
-0,241236552353201
0,15877708508406016
-0,06767145173494625
0,29160295985237805
-0,4819810265449916
0,11763513367378359
0,3722824639697812
0,2478178359958481
0,33770378786386535
0,0023016654435304915
0,23449736799440427
-0,2749773718411363
0,4342296046411302
-0,05613340159642259
0,23176286673639074
0,35971266079943165
-0,3765355543771076
-0,29170652422518917
-0,3917602408370155
0,23747739013508148
0,27043746685862735
-0,304361693265175
0,20714464612719274
0,507686854171742
-0,023544944331539093
-0,2631665347552881
-0,3573728104636096
0,22916190183346918
-0,15917113725596327
-0,3294288186162704
-0,11571626771623014
0,06179466245023343
-0,2742418138778836
0,031938505407921244
-0,13416893568700264
0,03665752358236821
-0,10020797395896712
0,2703508627568533
0,06921485745543718
0,26787096132342747
-0,09931449209745759
0,5012203918701198
-0,40610221954707915
-0,3627951625995228
-0,2017654930678529
0,47146492240412485
0,36738080693605396
-0,33239872634999273
-0,1105266070916783
-0,30214829710977037
0,5580393690254124
0,18051780637180317
-0,25900005965839745
0,18995576975346545
0,41699454544207326
0,4776095372180298
0,03976647729685817
0,26139554660484754
-0,4042456117212965
0,3291279634557302
0,17982308713473583
0,15256071889581566
0,15679979444294204
0,2111818793263244
-0,14796807711575058
0,4428428629838571
-0,3962404548543885
0,08354716431861657
-0,4434657278124303
0,4083812963626607
0,015685531460886557
-0,22887878729017594
-0,3571543330438368
-0,18275422166379957
-0,206750727662587
0,40751374431474136
0,5006469254656107
0,30066812992386904
0,0358671115012407
-0,06932611811779729
0,16382224662977166
-0,0029439596334539897
0,2865834540673989
-0,4139982607219532
-0,07437650973338358
0,03535139572830246
-0,1742240584121875
-0,07230206999489006
-0,24168860124702146
-0,20609546934464573
0,009331010156695725
-0,14543193804138618
-0,4406862200053265
0,39699889379733655
-0,32267405701902935
0,34799005752079204
0,19658114811031613
-0,22999260424982076
0,2755818257642544
-0,15619930710637545
0,1879364645040695
-0,41220860833510226
-0,3397920172210048
0,2106469242340339
0,31048107909189443
-0,10975753489066271
0,4780164575387147
0,11876005965374205
0,19576059529578532
0,3165504201879924
-0,15267811826998529
-0,368051587473999
-0,279609697594239
0,3348588752970253
-0,3471690791848058
-0,3683083912604384
-0,25507666703899196
0,5021695401719285
-0,23142083246615747
0,23083172053831882
-0,4103635922429876
-0,1326739925454722
0,35557760546190786
0,19820006832512727
0,16007423491437517
0,429889506312663
0,292568897022349
-0,3066376672286943
-0,3743065373642879
-0,31664276868018454
-0,40455105073395425
-0,39239443567761473
0,2913597272082425
0,28837828884252104
-0,4328004096207556
0,24099183544974737
0,257467116616267
0,024953898577345715
-0,018178431344996138
0,16494327366940784
0,3962288365271513
-0,3167763800322311
-0,15908531027186285
-0,3544754244912828
0,20554587052974627
-0,35058431509813004
-0,4125650586586609
-0,30400887530538334
-0,34632763747816525
-0,01969062586734048
-0,28959624899375147
-0,19266717532916422
0,06974452600290304
0,038809035899685124
0,5435462210760529
-0,3266997574488852
0,13883694579657435
0,42761967358440206
-0,3051862427487581
-0,4232722726710469
0,28441211806161465
0,5290790958151746
0,2686570394709382
-0,0458609393410459
0,034569877539235225
0,15364310054504052
0,009403919582723836
0,10275882838276167
0,5406790878654639
-0,18720121833740375
-0,3585598315985992
0,011356345032703179
-0,421180899931536
-0,42383967506918585
0,1161516698788177
0,07394080675153777
-0,10636773717442741
0,2681879485917646
0,18951828901211093
0,3368822670596665
-0,022211810062799115
-0,15210007930583705
-0,24193513154371993
0,43814819454862014
-0,1901152656405942
-0,16037630908473055
0,00783794122986542
-0,3761347135869667
-0,438836352254404
0,03781180740400448
0,13767739960257497
0,23287289213208895
0,3272158884964151
0,2847337968329644
-0,3473891530765695
-0,16240039009636936
-0,3610900193019209
0,14949507071250812
0,1828183414754868
0,2357042374013784
-0,34205760048366224
0,09431821097842559
0,25916682269828334
-0,14871044469414335
-0,2543448569315077
0,21171609744146508
-0,08014875218598227
-0,33498274431263625
0,04470741368914465
-0,10369054202096499
-0,46889789979100316
-0,238214365426298
-0,4172796131582096
-0,1956300794228716
-0,2662315675862757
0,2979895103607893
-0,013725779795034265
0,06365169434795577
-0,3940556798725867
0,42297488783472814
0,095649866089766
-0,006118486347606478
0,4492051314287124
0,07933262302522028
-0,09406911247480135
-0,1973592721884284
-0,4317562078574815
-0,2559496655085398
0,02301628891808118
0,19885644920376933
-0,33090294251477215
-0,24306204882146865
0,4551791779844147
0,09241043468275607
-0,130129899757421
0,3458810569215924
-0,2829298173963999
-0,0989795696598874
0,48661910943557385
-0,45091490560751213
-0,12006794376953851
0,38480048132872735
-0,3387176039764429
-0,43875177216983524
0,3303001041028358
-0,18933391428463187
0,05711201878266463
0,5100030996597077
-0,09073844526662314
0,3533031686064995
-0,46643607531084097
0,36433490795406553
-0,4033292748214436
-0,20804329683099917
-0,4588158436380684
0,3525701172242777
0,15078025209802776
-0,12050589484191561
-0,531051186614964
0,15394697548635827
0,3668494538813328
-0,11066505035264182
0,2576712837866275
0,1252310800265271
0,2956756656117484
0,06101657927890922
-0,11494622430374381
-0,07852696967335018
0,24113423555882357
0,23328188390583887
-0,3738019287441435
-0,00925343677456693
0,39566523322387703
0,45111531899796675
0,24970578213237857
0,3556813548788301
0,46159392447339154
0,24203183862331407
0,05667172420765759
0,4160691390596636
-0,06874885613759105
-0,08773277132126941
0,03526483489026684
0,22771568454178162
-0,36685017578871243
0,42521669101743986
0,23236599228033492
-0,24208514795119895
-0,12012038340964275
0,10891419102347227
0,25307894365178474
0,43120710161893316
0,35418981627808993
-0,35191884451086985
0,32450905070565783
-0,14092270367285514
0,43501924052050556
-0,47039242478687426
0,5008059041858822
-0,17904083276709667
-0,0334626358902165
-0,18655945654127384
-0,21040697987220303
-0,07735369552774979
-0,394520983198229
0,013181174566371754
0,3321776410484001
0,5134707515235154
-0,1806634168538076
0,18521864326709422
0,4782579822642319
0,45376023278860667
0,146000294277769
-0,37918211618690256
0,5682882008594099
0,011140061880154765
-0,3981716384075658
0,1032563106151803
-0,16360245475758922
-0,19208224693578513
0,49737034593721985
-0,44975587915530957
0,4218045006835848
-0,013442961598569494
-0,39122578214463755
0,42810119441442257
0,45362740730502166
0,010817723825951022
-0,3391262303780779
-0,24398264748908555
-0,042398645130962254
-0,43241586579858704
0,3799456235504629
-0,19290491345675756
-0,4481231577964647
0,40986180226649455
0,15597168850837576
0,2925066575268061
0,08426001897841837
-0,11714435413394551
0,10689175468410489
-0,11105313710370329
-0,3534045622783887
-0,28995568892902496
-0,36343599844494173
0,321216305723908
-0,47849523311647163
0,10391812740583536
0,1248383449761922
-0,40724668733850017
0,09673653974162041
-0,188762561538432
-0,3687734042729824
0,4688950661410709
0,3307239985365778
0,19256091257382804
0,0404794314380074
-0,4745770212889095
-0,4480465750229875
-0,2666807398089942
-0,4335496136049762
-0,3567707661436915
-0,28198668661439724
-0,2834333765731943
-0,2149189312318065
-0,2657413882711714
0,31303050365238644
-0,32773122723932085
-0,16476226014637035
-0,1704754250605561
-0,017685472245702674
-0,34259362973769397
0,2541940044805472
-0,19429796661213383
-0,09218007766256422
-0,24286708148496122
-0,21967386141763007
-0,09797080781152014
0,18546788000709527
-0,11211877285556256
-0,5230643621583196
-0,16865428577220126
-0,13939666387117938
0,4325320029580611
-0,019110411364528932
0,16013048336073654
-0,14829218359500013
0,22757248853742615
0,2922912015564796
-0,2647141187918094
0,29416423327979657
0,5426962868412595
-0,0179285496364621
-0,43806204541099936
-0,23419240620792786
-0,029005691407485164
-0,24258682765007542
-0,029306630476156267
-0,43870046217686676
-0,3264812815020293
0,265114488173758
0,21362077153717213
-0,01950125996125222
-0,3936394222819872
-0,16637161257339517
0,42694096395993825
-0,27430679625139504
0,1166713712025772
0,17780749528579812
0,3427866582736386
-0,4006916785645312
-0,2573796590116692
-0,04734904155483624
0,4382060999523096
-0,16681685108852662
0,3932512907789191
-0,47017968354834816
-0,2241480191112946
0,2978316009441635
-0,0034007470642723227
0,43803241480081684
0,20344085801875092
-0,26914869079369713
0,03643603733513366
0,04396557727998858
-0,13237753173640746
0,2595105114636875
0,2701905722897347
0,24690312720805707
-0,4124661987024925
-0,1999482748460077
0,06873701343548522
-0,00974569758637463
0,0072111660505850715
-0,4941861601615125
-0,21805861333021645
0,1502871038804629
-0,5281325514738647
0,04230385881025141
0,38002320794130034
0,292383561012654
0,472785737523521
-0,22213532453036766
-0,11000509399915084
-0,03423712747531577
0,3701602638453773
-0,0945035336824331
0,17196774218011118
0,5500274910739912
0,17790981009291412
-0,1428325629938136
-0,2715774533720876
0,3715946210648627
-0,3355279235259932
-0,023975414172604292
0,33418154813388157
0,4132047849896402
0,3910112375157621
0,3258318177838063
0,07474405270332253
0,570502935380501
0,01151995414618137
-0,004470185326435521
-0,1799094896168394
0,30892083175934554
-0,5003440476042295
0,23580735667091027
0,16342081453314009
-0,4054449740253393
0,23285842670866597
0,21768926228295055
0,15970798673989053
0,28855680535754014
-0,3870419650068953
-0,1891591067880051
0,07857797948916603
0,20122523068991835
-0,14586820166744216
-0,4810723849266396
-0,05108447927151234
0,35232460869005505
0,18052239078418028
-0,17449200559637632
-0,2975793156042889
-0,40196887144776916
-0,27694366673511234
0,3445578221288086
-0,1602083362158487
-0,40144768907727324
-0,15501256449182366
0,40579067490490245
-0,10986190547494783
-0,3291281242151786
-0,3024330931070926
0,11042878905750207
0,39921564262757886
0,4204751110183953
0,3153677463973621
-0,34516729352269343
0,05820164679813441
0,29959314111688096
0,14237574435504985
-0,08243223882509075
-0,31415655221604627
-0,11202011882273201
0,35236880295546685
0,1654210158275773
0,07371090263790092
-0,27262199013557903
0,007844728201527923
-0,04544742431993138
-0,36568411553305646
0,12144696251156697
0,4632912626656119
0,13610746966748485
-0,29668054364169777
0,12199161069895913
-0,4362171403340498
-0,3085949394043914
0,1694046208139517
-0,3283874482189741
-0,27285393737734537
0,5386688478987685
-0,11039466222911395
0,3765266687537628
-0,4010097744425377
0,004824483954274441
0,25284549673946044
0,5130589382548482
-0,4372225559240999
0,13710654215300896
-0,1870774980807852
-0,3673879442036768
-0,44585373251776383
-0,17599989825855367
0,4734911034962968
0,2715809989351605
0,22273928499723578
0,14273518300032093
-0,21856725146834913
0,3200458923223863
0,5330735878313709
0,13434839581516594
-0,06887586253358599
-0,07400141028782724
0,04438239563675848
0,30852996037725655
-0,4934023724653815
-0,14591614740708184
0,34915240850571116
-0,46407665603934006
-0,22510317258902834
0,08287599442818694
0,12453806360024187
-0,5265861014761712
-0,25337988214540663
0,46451088598831025
0,3681854814820386
-0,3996626762127202
-0,46130077093125654
0,3910553670617362
-0,3006132285648886
-0,34381999422344195
-0,12284920945974451
-0,1903606929289949
0,46904730421262225
0,13457583987191776
-0,006808680539991426
-0,36960553221222253
0,04893595367041783
0,18838756988540267
-0,31359329718146195
-0,5849770363581611
0,024699052105507168
-0,05929922482596265
0,11722410242742454
0,08481578728747637
-0,13450999445168316
-0,5769364508454998
-0,12183865668228368
0,11657867456573827
-0,14036673162018984
0,10408703314027458
0,31749416313550477
0,22655628140462136
0,19952193090404227
0,3612226315799906
-0,5469759385987116
0,0061191747198800425
-0,2588705117158979
0,36028384413439957
-0,37427329496768813
0,3348088710885426
-0,23308740809931336
-0,1078970413998704
-0,36040443396616184
0,30065416386097954
-0,31092973628130255
0,27459724430807314
-0,07378438448052846
-0,05324001451684937
-0,165605452311725
-0,3656174428085673
-0,1487009285760785
0,20215666275242694
0,14367955656350695
-0,1437004909767767
-0,3418591939132544
0,38332501879866154
-0,07541319651068758
-0,35243509683333035
-0,03804284532897666
0,3818912939413145
0,592811054608946
0,2848295285776654
0,23708536179467532
-0,3447646607874459
-0,40162094813556176
0,39216114093948906
0,155810015982793
-0,09425820100781736
0,35991411824729297
-0,000865311448848119
0,49223875893005076
-0,04814211508456766
-0,5100952177571685
-0,4837017734585387
-0,5429986139696691
0,3142542486594462
-0,12677541063717818
-0,28098855331080896
-0,3364047265295973
0,42703548736262364
-0,26309619273431
-0,3132766936650966
0,03667000871543401
0,26323204395643995
-0,3393095362963558
0,037771476430155215
-0,5014607780905966
-0,1576574105428996
-0,2830836350791981
-0,3992873748276267
-0,05397155873156156
0,07009529904526886
0,4832646781191332
0,1261953308511803
0,3853433896264997
0,28312666497169225
-0,005816674099452353
0,27086683359979347
-0,47317319551898757
-0,2732305374527873
0,36254772819957093
-0,046261262110010685
0,20392547520937074
-0,22886439641824619
0,3427303519079059
0,210368947556408
-0,025510056843802635
0,08081902462872417
-0,09414340424025433
0,28726726646297546
-0,1738157560704766
-0,08671761203666517
-0,05844849776679975
0,040922321816709045
0,1788924697041378
0,4211066593915028
-0,2405845578883741
0,30312892846681205
-0,1568769276584901
0,4938586605297925
-0,33360687009803613
-0,025197429998086503
0,20185168489432237
0,32259947938127825
0,3632608438947558
-0,3105228036759814
-0,25742543743094853
-7,346048288895985E-05
-0,022420811761845235
0,25875447359455533
0,05012407676411365
0,06088652174256582
0,3964533446793017
0,09428202888102193
-0,3596556131903006
-0,28715466574484144
-0,1566170695614187
-0,37123157853233524
0,15376145859583912
0,3549740684350303
-0,03876772109881974
0,31103543805686024
0,19089692753059959
-0,270706044330456
0,08934002584035503
-0,408390401654572
0,36576373250828076
-0,2239651335530062
-0,23735427211804233
-0,016939396417936212
0,10574651268803856
0,28022004304648834
-0,405281899919667
0,12592780929719943
-0,14758006356213804
0,10456006914812188
-0,14963246717257242
-0,24077557439617517
-0,33315904797065155
-0,3950961943088157
-0,2865095579625383
0,17777090235872373
-0,12032480534356264
-0,2767301253258209
-0,40985749731298055
-0,4627650722720849
0,074138209280079
0,34302171864462205
-0,34927316711087814
0,20623718210786174
0,15228999237106985
0,25992453458184195
-0,08749744491675093
-0,23584052877038034
-0,20101470225370677
0,0296462619311882
-0,23898307037017943
0,4730217575690164
-0,31657052144040815
-0,14299869832689746
0,27692012289981965
0,4465413486319228
0,4543801664146892
0,3033527142681991
-0,13209605111637304
-0,013986178450605905
0,24825227346924864
0,18188031439683522
-0,08744879096745113
0,42856631096088643
0,19219527685911283
-0,4438402673394425
0,4997094387817566
-0,479905677118858
-0,05393846708398602
0,4276962368099585
0,43795695727253225
0,2905708786197002
0,5362117150839647
0,3864566133541988
-0,3328763151619731
-0,18009517789501509
-0,21939408566970997
-0,18213959395254634
0,4160502400189985
0,0303046780270655
-0,40745133074865086
0,5171464636279162
-0,08660561867818309
0,3823994605788206
0,5246864410144149
0,06897434377196855
0,39398011835268526
-0,10831480336678577
0,5010513807555086
-0,10037203502135573
-0,01499622783320922
-0,15234474339171705
0,3743968022607905
-0,23281446860593819
-0,20007932061692843
-0,45463937938732446
0,387531377124874
-0,09542739219106683
-0,36967263308283765
-0,5507509553134575
0,07627785538768211
0,30272439894302405
0,3986855346813928
0,288059290989773
-0,1591159548168213
-0,20332319097295284
0,32622657991557164
0,15650475660695423
0,23324323279399248
-0,4333483752447868
-0,3358099956123112
0,16705761039610414
-0,33459345877669855
-0,2853893224504403
0,1373012536004881
0,2361006402911034
-0,1066948904862558
0,15341832318505808
0,486345750142797
0,4077665362488351
0,12412628154758097
0,09924504782593464
-0,10319227175717063
0,3786243788122661
-0,414473623827298
0,27809266883076744
0,3013751177337794
-0,3613024258236164
-0,2913099148326488
0,4017920836779085
0,3201190063648853
0,10847356146290982
0,22895949026678214
0,18177546878558737
0,4408639042848673
0,48186673854416107
0,4629448967097487
-0,3147737923447731
-0,16022518000473485
-0,013974611233220868
-0,30731715017061506
0,37408864016397814
0,5098483224685508
-0,23203211831354942
0,5584159418714177
0,43164715688049754
-0,31951299728726185
0,06945116536473556
-0,3790265595634604
0,4581897307485239
0,004067549145410818
0,41370994443334624
-0,10132204997855246
0,369162532582926
0,27401338425559424
-0,47680159170720005
0,48479182283509015
0,1529545550089282
-0,2608855919960736
-0,27480040310721443
0,2887446704396213
-0,25575885348803407
0,29690852211612945
-0,3606912119627679
0,25703246373141964
-0,4236581830097284
0,1707774767123688
-0,45220218729044803
0,4608690146325292
0,32188424474871863
0,15574874241632314
0,49286178596227603
-0,12671287047584895
0,3714831771159178
0,4156312803533383
0,2272290377683006
-0,4618317044204164
0,14240741213691072
0,16954232731493712
-0,530183804494212
0,005553943353234827
-0,09718780346754333
-0,05968855256975385
-0,024162515451864906
-0,07754241545106498
0,4013120475398009
-0,5115297758093277
-0,5400886928215458
-0,31890817863567616
-0,5164568847761487
-0,3131873158601699
0,1371845418750504
0,3429097258904755
0,33740621514628105
-0,00905100044342412
-0,06515739191713724
0,2730711157135697
-0,3039025227265556
-0,048987193676665354
-0,5678926442956062
0,4733753987465779
-0,14736890077296125
-0,2092399315651061
-0,292239124361137
0,5603189178114083
-0,37898058891166975
0,3776884084277543
0,5259751172457026
-0,20188590659160338
0,22978614941014744
0,44962893335527027
-0,09301489642089554
0,13418017152953807
0,31735452748183257
-0,11066902021366878
-0,40463358643961805
0,5309318854544065
-0,056054805875919295
-0,12034132645805988
-0,051326738644538315
-0,0722267825183562
0,4097707055710853
-0,26903881770374705
0,39727471714304957
-0,3673150167067061
0,03789432572319396
-0,10764971772679612
-0,40133446637991793
-0,4397326559589285
-0,3900969610511894
0,3619589461527657
-0,14608429737763914
-0,06227439393253945
0,41870125942894865
0,0164896411030356
-0,03252036854534072
-0,5023781224039419
0,18798133367688336
0,4161954589597957
-0,1831712513330502
-0,0008343968793439331
0,3716819769375339
-0,3558960558995944
-0,22095845294220684
0,2034953889670302
-0,29731777456433955
0,008883466080335854
0,2313502754063345
-0,16915135976887624
-0,2224030459062255
-0,009932892671014807
0,34893666727513734
-0,0643061084232032
0,12953206344750018
-0,2982511666524085
0,4037625548004903
0,5122129802487694
-0,12486784888498821
0,49570188782128205
-0,06387127348265746
-0,3890767697041552
-0,3378592095720379
0,1939737347084344
0,14239243355415998
-0,023963922436121624
-0,4151015523315019
0,2635717447262016
-0,516987977350838
0,3064439002830324
0,0372184091762563
0,043056634556300745
0,3125964328219319
-0,46871303249763546
0,06754331105417802
-0,008185163585899111
-0,4972123866737096
-0,02219024495520441
-0,23061420247862568
0,0761913713456887
0,22111090358789176
-0,2816546009753486
0,47532335695368183
-0,2586012484772604
-0,37509921302332944
0,1705938308253503
0,0923291348212306
-0,5024634266067076
-0,14147851688746288
0,05275358956378909
-0,20437807702047145
-0,0835324421277822
0,3224052543634975
0,41994665199913433
0,022362045500374066
0,5118134524814228
0,3028463234408838
0,34144202296513754
-0,10262348356298907
-0,33889973953310015
-0,46563151520122914
-0,3826275531770289
0,5857760360591172
-0,32319851516039183
0,03707855595901817
-0,251779815756187
-0,17600891700202262
-0,38169355220130624
0,2731085924995456
-0,2927812009728253
-0,3257612162765725
0,6050459053437156
0,347198368643372
0,17147905813316486
-0,10959434917871584
-0,35612185503391064
-0,25142346782855174
-0,3520771464909453
-0,4248681352725793
-0,007038551550670751
0,1490652891842017
-0,058890787497265014
0,5561625188359938
-0,23349763262405585
-0,14208702314916305
-0,09466499700081107
-0,35882824087666965
0,33023653748653764
-0,035824847001083564
0,013606677925777515
-0,2955812687532058
0,1334209766233272
0,3353690665583114
-0,3264634186056356
0,04181165272472593
-0,07249648781172156
0,11359645959766566
0,02998599877296062
0,08867920184622775
-0,030483136204428784
-0,5402331394592751
0,26733324559859534
-0,4956526988221537
-0,14868159114729135
0,3189085855045405
-0,29009556121133684
0,38813121422023783
-0,07004650308366447
0,202590305149698
-0,43642198265250404
-0,22157945462024561
0,04529149853692316
-0,28238222694807197
0,017931263760120362
-0,29942550371953347
0,42749654790920627
0,29279097777698876
0,09554851775958303
-0,046121854596613304
0,30712087619493866
-0,33545107448283573
0,3325296103980066
0,36576337010491883
-0,42723587733755736
0,5241682370919867
-0,21890028837129438
0,4541121813242421
-0,31143757185821824
-0,47251400142642325
-0,05327710265926278
-0,22600745851477663
0,14166405915780286
-0,04601727084431308
0,023818857797991505
0,2409917809486662
-0,12055352948947291
0,458366062602376
-0,25059934491044805
-0,32593738787557164
0,32924621393732845
0,20027701503339135
-0,04984270793771517
0,4666148152145345
-0,16237213068040415
0,3467176061035477
0,3364187982225567
0,41832126486662735
0,2405803789408873
-0,2984024692462774
-0,45603659059005663
-0,20708451200293304
0,4643452777207632
0,3437596922144839
-0,47344649084509316
0,2245434105028016
-0,45952595079712427
0,2877961999311808
0,11631871265769098
-0,23410510399673673
-0,09874879259524856
-0,44925491221591185
-0,0618057799719725
-0,4230002983299332
0,44554494303775344
-0,1106234694081856
0,5027326563760971
0,46299758065931945
-0,14072902327201003
0,4127302420687031
0,4426037099181319
0,04899292242815509
-0,43138829056876554
-0,12424767702587323
0,4249543018538317
-0,007111173506669948
-0,3784896415020653
-0,28090958586034454
0,45444606270359683
-0,27661437825738056
-0,3357375502113424
-0,4896840480187252
-0,4797113033558359
-0,22125037277942636
0,2342126946241814
-0,4870763298553859
-0,07528174229576277
-0,2030880805050232
0,061321190695888025
0,2102519726259355
0,36496985039411456
-0,23316824983821338
0,21034396068911063
-0,26085936135574794
0,22507623110091238
0,09574720679840071
0,3452858445178093
0,023886494871220493
-0,2574075362507066
0,31418574091942925
0,4204013266471231
0,08765960024474566
0,2710814805628129
0,4014660749914321
0,1467348295119165
-0,22457032050342085
0,20273100036302563
0,25410955994417217
0,2551153416688995
-0,07655741221536892
0,5582419853850824
-0,4660126069098256
0,3732290202966253
-0,26970139819357924
-0,019374381790499634
0,3811648216354061
0,28082729551981966
0,3775001812804569
-0,12783348631092165
0,5566170968590394
0,37247383445928955
0,43666862739233964
0,5764597919151564
0,08092295493589304
-0,49461538343372846
-0,19981545980677362
0,35487098928931826
0,43813865905411364
0,2612235296554838
-0,32770405126857494
-0,36073235685456423
0,45141522382380617
-0,3557882564030724
-0,3163057999094197
0,129557819849823
-0,05586086714534793
0,2691231311354974
0,02615370204168923
-0,18672984308688392
-0,010382499466726019
0,14347995498009175
-0,5238434073074871
0,119557605852352
-0,3064870138977552
0,10352884082315005
-0,3280040140433796
-0,2880088859597185
-0,06469462936956555
-0,44171062921260645
-0,031013088727535977
-0,24458952559889655
0,10349644902086885
-0,2530174513605843
0,38368152615035483
0,23180017827896404
-0,012558169187170724
-0,1296035019482149
0,3455663890990754
-0,026772161184074862
0,28507665048304587
0,3021905254828843
0,20692788118896493
-0,3780179833434478
-0,28392587809214787
0,11107050799984161
0,2076447585421199
-0,20364281687843427
-0,3085288717796438
-0,3609950485534069
-0,43824133779922775
0,3586819426856802
0,04147468924624391
-0,2856492667579325
-0,49927218942176776
-0,17295639861958825
0,10012301122232173
0,1325153951384432
-0,3995927568918274
0,34503169858993077
-0,018313586291429096
0,01833860826150774
-0,29456371133095294
0,13824524305516503
-0,1067012198456634
-0,44515475210446775
0,1834874097670163
0,3648130039242851
-0,027715069187683135
0,3470309200027545
0,4183412509591667
-0,11043158251698944
0,4507468776227708
-0,5419122983023097
-0,3119842076045719
-0,1949288144561039
-0,30205460478858215
0,43081721462891837
-0,2743675370469497
-0,22792530840735817
0,19186690695786496
0,4809703018279081
-0,4733443971331317
0,20827238613496768
-0,49781219619645195
-0,43895339599757854
-0,4065180369377689
-0,5699548583138522
0,041850824861185354
-0,13261186406840061
-0,062070766847755365
0,41002748138130996
-0,31708128573192224
-0,27896708649619695
-0,5099192544312238
-0,31544832043863186
-0,23969840760161112
0,06862749325572524
-0,33090092806586185
-0,038869141347978926
-0,41068656444294294
-0,37515858296538157
-0,29331045670615374
0,30976997038434145
-0,45885709615691944
-0,459675402250904
0,35598980803447805
-0,1666379227956885
0,229404151331502
-0,20721891624895988
-0,2585128407212237
-0,32925236202909475
0,18741992562987814
-0,339777527519874
-0,34280601858883947
0,04003235574012835
0,4391474724166806
0,0484987112620482
0,33541579076656314
0,09046545432912059
-0,2109963344589248
-0,042212162456672496
0,1487290907585923
0,1135990843157355
-0,3446592669689097
-0,05044039978200528
-0,47786474333012363
-0,17787518670713223
-0,154445810185152
0,4447187597224124
0,04207507987713646
0,4766353402445442
0,1831746814069665
-0,1533782544818283
0,1863442497341401
0,45630730451579604
-0,0876792803622939
-0,3378861411077978
0,3533161508597675
0,1266280290367503
-0,4320019234568378
-0,31403483833851514
0,46750496863243685
0,5321598688347967
-0,18875463504064233
0,3197023388223121
-0,3086872270369935
-0,13156344325016428
-0,2710990549727609
0,4660942770445984
-0,3445618688550743
-0,27527337902817167
-0,08098848476043596
0,24332659201958695
0,28465023984777765
0,1947073915561979
-0,33843242031877024
-0,09915621827698583
0,4013242072913
-0,30081961158154874
0,2961150518728184
0,2523643564531615
-0,4031429132211869
0,4290961212688049
0,42781066567011466
-0,5043820112821099
-0,18658540786165875
-0,22851486993762485
0,48302941664213367
-0,2799499981890703
0,2908898268241883
-0,4249861915955207
0,208055385897563
0,03765808237714538
-0,3889032290858264
0,06828217234648278
-0,354549894312994
-0,29665422048661466
-0,22711786746592888
0,4501652483577616
0,03890371164974143
0,11061506114886392
0,16635262234794737
0,2031742678279418
-0,1778389353935356
-0,32138058883283505
0,23614015484888431
0,05152544068314815
-0,06906398901815372
0,14458145828694918
-0,3931601016404905
0,36039398598908723
-0,2922150380182876
0,070237101210812
0,0168635959551252
-0,20564957945987122
-0,1497381495157063
-0,3647526851590446
0,32593552110559015
-0,09727679438291828
-0,30296059436643136
0,042508849465192365
0,27712463324029385
0,2913542587251919
-0,3139525484130111
-0,1728979433831527
-0,3522258387066856
0,026984334431101247
-0,419977442188918
0,04336515762856002
-0,07522016684157093
-0,3812144638819597
-0,2150379659776179
-0,5349698389285296
-0,2271271938816392
0,1743802584012417
0,3297816954653234
-0,09420990877070787
0,1552883515656524
0,29576596341695516
-0,028397750690749294
-0,32861677642823794
-0,1446088724883225
-0,06622893263553956
-0,13452594608108764
0,13581751846044163
-0,3447159085578005
0,1441224538322247
-0,36970999592624076
0,06104378164988189
0,2572811880214105
0,08326068631088358
0,02258536536195675
0,03260566416423996
-0,5219195579897359
-0,013073426879677785
0,38900939858508865
-0,552454522225378
-0,025429388344778345
-0,28818215163157324
-0,42371628562321995
-0,16290691344429448
0,24750777807005894
-0,4349975785988807
-0,27065881300562844
-0,10619555008468969
0,16161826399261586
-0,21555088134981376
-0,10449952622090566
-0,47481717090659786
0,33339801730765584
0,242092445198788
0,47721858722559835
-0,37654614553417476
-0,2351554237841408
-0,33046386541367045
-0,08299642277531534
-0,42060857053549294
0,2502381958540662
-0,2127539853782809
-0,1272702220848022
0,27374824185175983
-0,03417708054537801
0,4284224388351161
-0,217193569928017
-0,34521469293545004
-0,4224133101461929
0,0677035620137236
0,15787710591775278
0,16469575013494503
0,016312664885026966
-0,500344944186483
-0,012909731026930278
-0,14522155584189783
-0,10834055967381848
0,04144139990855981
0,17066863792853093
0,3967834936532814
0,2508612097950485
0,38031019082393125
-0,23175411622018482
-0,18307700650079967
-0,1822883209344131
0,12103554857767258
0,11128939625428774
0,31781030050378184
-0,11962652511889765
0,1131349098100237
-0,4145005485264405
-0,4329359759105775
-0,37314668647633514
0,3840807427172498
0,44415181141805266
0,12840487976774898
0,07021633393339119
0,26217502365179374
-0,1018208222264062
0,3951371380155715
0,1713894110633083
-0,1474067505039634
0,46502914956070635
-0,4450800796231573
0,37158508733043805
0,414267356430695
-0,4241925863780037
-0,32635456889086095
-0,4285915083824773
-0,20020028223540273
0,2240200292277247
0,381599353042095
0,26880777564305286
0,001107443731455496
-0,34057383906912053
-0,2902272374286819
-0,4613924028037216
-0,09294728110219669
-0,2098941629688095
-0,11104641480602215
-0,3265943912927658
-0,3689384716277346
-0,029193254544281483
-0,45109840846816474
-0,17187787352264694
0,3343148901985152
-0,004859125371873616
0,48803921432398895
0,036104612052793604
-0,4371136828688233
0,2711112966140681
0,1418086198201749
0,3145719263167449
-0,11397456612786402
-0,38946359248382656
0,2589266620334557
-0,32304202601676707
0,20514864957442883
0,07913845144184754
0,21518962386008048
0,09987698353874752
0,05108165869556647
0,4883694472626756
-0,2697976243220811
-0,1521744323608439
0,2005985664196339
0,2533871562404381
0,09911814641133788
-0,4475105625893599
0,4154900087484109
0,25211396875937486
-0,4713482714275469
-0,07288734419897132
-0,4236676164771176
0,12410550156000066
0,021118305756691644
-0,20563068733000298
-0,11072227218883811
0,4690980898474271
0,16023603276501172
-0,13114125879599084
0,29394858204655694
-0,3623816787728656
0,32862224992256656
-0,35330966146353404
-0,5202971397685295
-0,37094423821020267
-0,006639282929482373
0,17406493192224748
0,23251064227283544
0,4433767099120173
0,05910912451682493
-0,43692160541167857
-0,324469758714986
0,1340570923599944
-0,36151832433634934
0,0015748965991304702
-0,07988521013311221
-0,37110243825412165
0,13762074232951677
-0,12950753751370425
-0,14539325283097926
0,04569428998138359
-0,38085203223080905
-0,1293657486428103
0,09268101892109705
-0,17960877131185798
0,04310244768084253
-0,4166883515651841
-0,2755736825813977
-0,13364635241341324
-0,17245339974353682
0,030497091442445265
-0,36975660498493396
0,3061462669745771
0,27838996224056045
-0,38364046439827953
-0,47792395921794806
-0,4492281197039326
0,32297149993130325
-0,3345827601827125
-0,5184362632199653
0,07052298343634034
0,23562917153236207
0,2630019224128198
-0,36231476621818504
0,36053534491114764
-0,4109008824077684
0,27476817428367173
-0,19703396323444466
-0,36601498290552215
-0,475261682304995
0,29287068619639944
-0,03473255973429664
-0,5067478968643526
0,07550819427491462
0,1351471924200328
0,2597812964131493
0,42118981360158675
-0,40840243855249003
-0,4919662510416053
0,03894271236073514
0,24159319399947232
0,07975136184849876
0,11391078726953241
0,18675037429657917
-0,23580127458907482
-0,032474866505548865
-0,26752417222563435
0,4452240661564304
-0,3864475148778832
-0,4594075413303703
-0,43962608068887915
-0,18568871526395392
-0,07971283241001276
0,1158580134174076
-0,11518488163008485
-0,4838436375728897
0,2374337932543059
0,15446724852894503
-0,1373070711292184
-0,17694949959361994
-0,1977786031216665
0,45285986978395304
-0,44349928452132015
-0,32330158655921576
0,15322576645069172
0,38174254034069893
-0,22590808139392962
0,5427618038376696
0,40013066978602874
0,19641945857749163
-0,20125815061412555
0,043091462809237195
0,00247546982609239
0,14126299026076305
-0,08556510007840497
-0,3925907663656352
-0,16198167898590615
-0,48303315129897695
0,24204320857099612
-0,29915747361290385
0,05273970107899588
-0,3399283719488003
-0,010761989977241355
-0,5420087295614013
-0,42993091502268926
-0,06054402408856316
-0,21806308275437383
0,3714380384773088
-0,49022747156373786
-0,23465665221971446
0,2770108061665104
0,2214323004809358
-0,43080213139182433
0,3780504719988996
-0,4192834807902937
0,4888749290511358
-0,1306645402319694
0,15510361224736066
0,1819859247623275
-0,25826023671395265
0,49199372139015324
-0,2813515770942531
-0,1374569483623977
0,37045698535948
0,05817591622765543
0,1405352288301915
-0,3335923818100598
-0,26630484918086744
0,19009461842567388
-0,4094045827150126
-0,0829756530325333
-0,07595506625195567
-0,46211197748590105
0,4225478537907803
-0,3925070089718434
0,23867942778747486
0,3015402536227204
-0,31993486364877516
0,11194961506769968
0,13741254894750746
0,4247982080726556
-0,29704514060006665
-0,3723778028585329
0,19015953089793863
0,4111082131490815
-0,4642983560614747
0,46577393317875604
0,18624048861265588
-0,4565978228480995
0,02390023252423245
-0,17343378843923074
-0,35726446912934845
0,08905259609859673
-0,17260181516511408
-0,08440343427106524
-0,03893880772475286
-0,27899067012976925
-0,1286849228994517
0,030268143445890315
-0,18090537752951355
0,4172227092926645
0,07467746417307228
-0,4691120624123482
-0,0049699154686740354
0,15643240277268558
-0,4739177314763905
0,049509671599316074
0,4348766814011857
0,4555669323446225
-0,5375647600248974
-0,3827687917254129
0,3307710039416401
-0,07307393026321228
0,3750369188305998
-0,2032169567566687
0,3846822704600608
0,2749158633937635
-0,5353708500712376
-0,09437296381056774
0,00601996553594609
0,3505185981455228
-0,24384415403924312
0,26129459183088183
-0,11874725583406769
-0,21376608922851742
0,23114779527757806
0,35332461482340133
0,35626446089807995
-0,5342513623007186
0,07682376611644483
-0,21091539098312598
-0,44756361922724036
-0,246106013072865
-0,6069463618059967
-0,39511565074556104
-0,24311704120077557
0,1427813507199317
-0,09198278561426582
-0,1933845966508537
-0,3026442261212287
0,1388102537287552
-0,06116092435384496
0,3240695561536162
-0,45683027438970975
0,09598343984926873
-0,30485851760450267
0,034995603378777565
0,3833558814515904
-0,457153293816833
-0,4108153662458865
0,2455808782956063
-0,15938055594924863
-0,021336865753573405
-0,4008485202509512
0,19125883205790506
-0,25535693889345107
-0,168056801232516
-0,1249739005905682
0,030247159776954295
0,12472553059371812
0,15190063384887725
-0,43699521069376857
-0,049514778683324955
0,0194042097795697
0,3252378964335485
0,19029551794171354
0,19895958044057838
-0,43192526080332316
0,2679216883556514
-0,0030042945706657957
0,06678370441667934
0,31050788426358006
0,15390892229937608
-0,4050825695396186
0,03594135421387323
-0,16373996547069125
-0,02241753388732515
0,2869651814048936
-0,2498500280036222
-0,35883307333519165
-0,36146937495165443
0,24331193826330974
-0,14436829144278426
0,379045633803334
0,3051950401606519
0,11821459610428932
0,2688890012913769
-0,020851288465523643
-0,10073131167809245
-0,558862502948038
0,05648517010637236
0,2371531118925428
-0,1141277747104032
0,068026672564371
-0,0074697912301331226
-0,26826636936157977
-0,07213613073009802
0,3459317083166116
0,47253063970135156
-0,0706028163854824
-0,017712603501115608
0,08443269419878753
-0,5897337557989121
-0,26810987853804186
-0,10100472599581142
-0,05919545554489477
0,34893322873993704
0,12249293638104446
0,3716938399490791
0,21995790028228507
-0,37660722951880143
-0,051558901645031754
0,3410562142823585
-0,32907108206305763
-0,0451975022748028
-0,5218317707422958
-0,5457213392098911
0,4674009094210115
-0,33288061499567534
-0,1844277464950193
0,39535552690924985
-0,270017607577357
0,05468284288721121
-0,09281049500777447
-0,23456566570086476
0,2802771919068214
0,3193856711557956
-0,14303698806048729
0,09603412413789401
0,27294192499616027
0,03553481139084038
-0,18715658760135667
0,2692572257441857
-0,0974354571916671
0,07182286476487568
-0,22134196256398112
0,3608301364805194
0,299934936753211
0,2012589539749305
0,17056708708100718
-0,024364998699851773
-0,13749759858547633
0,34154261535906577
0,005485866029274921
-0,46039705694221583
0,35020614167632264
0,21828014322005837
-0,17100207449812907
-0,2737804039411424
-0,1576127984590833
-0,0741713957602977
-0,04438628557693314
0,3426013617407689
-0,18982616688805568
0,03377602453765253
0,36782813435379097
0,09854369273916255
0,0994425690889216
-0,2513492692533097
-0,2239536382844458
0,32444946302447786
-0,271290839576528
0,04781691692188517
0,38022397890752724
-0,20777768618042539
0,05554142742362931
-0,25321809629462005
0,10792844634570885
-0,527036529522403
0,39818897211871074
-0,3441935697355885
-0,223673513372598
-0,5007915017935342
-0,05822240522404217
-0,2714376841126769
-0,0023663408522079615
-0,36681425993440814
0,16100783141255906
0,5174019674458787
-0,326564331252686
-0,1661571259588607
0,2530933909019091
0,21530287695088696
0,05410936970416297
0,44594404585517206
-0,3813984050024682
-0,10179188245648517
-0,4230395789358704
0,13189047948980998
0,3409758564087985
0,24407866781975268
-0,3673783684953571
0,16119743809247924
0,3562998796438306
-0,257395199866036
0,3296868504503568
-0,07930807231131064
-0,25044362641952256
-0,57650791189237
0,04219340771556178
0,19092582711520387
-0,2240709765519001
-0,15008071814770174
0,4238824160994946
-0,35743091486993855
-0,058077865684193535
0,06089168841789877
-0,5016601931010537
0,5044529883089872
0,4468226167075246
-0,44822029379693057
0,11823866917387514
-0,311656716480282
-0,2721115408877047
0,39067011833770304
0,3877315329142129
0,15221107525250405
-0,5130850773315525
-0,0900542677910011
-0,39044144500364236
-0,12252192909784278
0,1044821826270567
0,2676110985254164
0,030537806611499296
-0,4347607894544689
-0,20249780643417306
-0,0014021475111983016
-0,30970169928416186
0,3072162885998361
-0,47212463715914427
-0,42270591213933134
1,1593411132872493E-05
-0,24936041948386778
0,38158766642580116
-0,10149349514298375
-0,10158610892252726
0,049733504534988496
0,283289422878432
-0,00930560863766354
0,1559109328188712
-0,49816256346189874
0,15035960501695206
-0,2370672131018907
-0,4047722445920867
0,3420226627094211
-0,462650308768729
-0,5136361384444914
-0,15629982017365693
0,06367090634842033
-0,4629496990741193
0,38913212870975505
0,35754557983690216
-0,09539967585122221
-0,24376926896540987
-0,1621777173236459
0,18392360605759922
0,021961004867752106
0,10415835597488846
0,03991233485354743
0,25418132792511383
0,33527598367554656
0,4706532030705743
-0,023118029489128892
0,24530808929780307
-0,4558367548959319
-0,00453398282187543
0,4423626929102586
-0,2926428785503275
0,3780448024346611
-0,099308967020828
0,028502073328732398
0,31719120390122907
-0,32075761152748195
0,07544557586543467
-0,4759811981357854
0,45303493598541295
-0,14671782824533952
-0,2125264707612736
-0,09319549813622591
-0,4295224318397723
-0,05152246513206193
0,1690372215125915
0,44984404617234697
-0,2306590038412557
-0,17287847094176392
-0,447911051628189
0,3566574166153687
0,029780424106315696
-0,17520022715649264
-0,3157574873768256
0,3760892464039044
-0,4186898231905979
-0,15623366979965897
-0,4960811321359979
0,11146068689409937
-0,49427726607783523
0,2491513514805904
-0,06085130312754849
-0,11660283665270992
-0,4847281921458464
-0,3425974598595804
-0,17175411881816102
0,28400003769198756
0,29449157235440276
-0,22664051210897207
-0,3611481270913738
-0,12238121061467612
0,5312747115232014
0,15962612417310143
0,157478321558287
-0,009236737403150298
-0,009010252818378237
-0,3203349617624565
-0,016552587501583598
0,31765816701592775
0,017651321412837498
-0,4225438938512045
0,037256187898296184
0,44363180425854937
0,23376944021461488
0,2774095482796532
0,22863049442835107
-0,24476842345072095
-0,04891776794808932
0,12237815270765372
-0,4507236966680914
0,28919700990542396
-0,24243773993161719
0,336146875921988
0,07091537481890725
0,1354194297022209
0,3210403528664553
0,1593428048575804
-0,2507346381777506
-0,37232846377480705
0,474047516581221
-0,19247861325912122
-0,1653305215304215
0,4229343173705799
-0,33119465103393464
0,0039686975130227235
0,10116085848827344
-0,23943942064248608
-0,3720079798512574
0,17246091088048274
-0,3741509964535876
0,24785214529368635
-0,040112419595977424
-0,4990701382496054
-0,37730927065198067
0,2557332403387679
-0,3909023565687294
-0,33255509247682535
0,03649321888496668
-0,11215486031582488
-0,05779224597314727
-0,35447917675025
0,31521081138023616
-0,3087470384607929
0,015504280179582853
0,26461150907828
0,33668820990067305
-0,09821231671198602
-0,30970969546182087
-0,056116181181563515
-0,3420140122729784
0,24621865063487244
0,0718957708284532
0,25047031700809413
0,19049088401789288
-0,396302446814639
-0,2170202403693537
-0,530622160818791
-0,013445125057867864
0,022776784094110845
0,025718291674020892
-0,3256604448120719
0,32613566074113254
0,3296177565445718
-0,22167521382056532
-0,14996920323706078
0,25203325560278456
-0,24887549595665592
-0,3086497369213709
-0,3523284644301202
-0,14595199054950342
-0,1302619990985059
0,042635066974840465
0,3477747478792933
-0,2992704690975795
-0,5257280868372395
0,025463095054603965
0,18380135637425116
-0,5035391315278223
0,32347790465851095
0,34626404354270923
-0,45019439593585
0,05119635308075397
-0,1464537263750125
-0,40487813462432715
0,08518577721504692
0,17827586477152418
-0,23612878389345696
-0,23194242655310648
0,34440518552122046
-0,2621127309492368
-0,3137298064157728
-0,11214830686075966
-0,353661168562625
-0,23359546798010752
0,01461743926033686
-0,30360745028658936
0,3381609112780399
0,3278312596746271
-0,5091691394591176
-0,5104938436311418
0,3302296187392307
0,030600147326792528
-0,09720629117119893
-0,24296306724055228
-0,49574391856484207
0,017300754883538445
0,22085293261349181
-0,10012953030783796
-0,1431340720684524
-0,32849340288301476
-0,5119714659542504
-0,19095556214830692
-0,07913091229843018
0,4184432487126687
-0,12239187000921295
-0,1563241649286249
0,29814795464896265
-0,2927886333174281
0,15063822769019283
0,07904254114499601
0,007765738863816686
0,18059668027132242
-0,4717734932589111
0,431201877461229
0,3479887074244233
-0,006466611098207783
-0,4108368331631744
-0,5330627726492774
-0,49181193694883807
0,12765731601165742
-0,43707299826959356
0,25176298866773367
-0,5673856854089678
-0,10189698413732569
0,18739831878969945
0,2684377503278806
-0,5002588657632027
-0,4938856041643401
0,46409332331187575
-0,3708386156398809
0,21349389819876227
0,2447766220915073
-0,3256526177769373
0,2644327394501656
0,2915364969874568
-0,13111856273853084
-0,031849070555146616
-0,5204178620487444
-0,1878189749055983
-0,010569043651520409
0,16435261144780264
-0,032327726459329464
0,01420937479533395
-0,3464679997660692
0,11315994419669977
-0,4353993311379101
-0,2030512379318018
-0,12788411660646132
-0,3015298201551911
0,2357061401399264
-0,15334341433280313
0,08349039512999247
-0,37149068723382417
-0,043495991714005554
-0,5331906599936828
-0,3171747910718082
0,03589845084346743
-0,17663309356828635
-0,2024744627652098
-0,05954396178028224
0,23995169932178353
-0,00010600001744877077
-0,47012471466107536
0,12904159336353235
-0,10685314810674072
-0,15414982790032322
-0,01552699548715984
-0,14489712564486046
-0,48671620304311564
0,308392714441926
0,1566578688508125
0,45718980955901106
-0,10234450733650212
0,22826062628606902
0,31425384922829963
-0,10262771098134317
-0,4142577388338512
0,0874398153158589
-0,34707613195449427
-0,32893135435328885
0,3276888561592992
0,03967520101582684
-0,3039071915270601
0,23913903787738852
0,10927722134291513
-0,1115283981783535
-0,3057472774172609
-0,5001212702763156
0,34302999157253117
-0,1610852746856432
-0,3961994599659186
-0,003938323761754236
-0,0008287426803372118
-0,15859139522925608
0,2874561786003167
0,034066193715582956
0,09859521001493657
-0,4929414562440667
-0,08434449444423167
0,3092087948585408
-0,2533981430974102
0,3736688386522331
0,3373345715227007
0,10762179221378307
0,2750190898553941
-0,05867806709500672
-0,3789992180010825
-0,3674719796499097
0,3924703527296867
-0,16308749800340544
0,28872520352423187
-0,1978033814260409
-0,16858246412955413
0,2547394058209929
0,15089941629978343
-0,04823172543769099
-0,5043608860840704
0,18048873520092515
-0,13532817440679315
0,008427894540396002
-0,23969065500080303
-0,012177445733757685
0,07119436748368303
-0,05409304477844708
0,16282670477240732
0,1820266143280329
-0,11995055263241768
0,07126343380351469
0,374319966532892
-0,06067579229823579
-0,2979144732362312
-0,46939000125031216
-0,4721457034362776
0,4088448350236891
0,0341068993324488
-0,3253710871869634
-0,27998599498155397
0,08409844507273487
-0,32769315127834564
0,19884894270141235
0,12383391556279039
-0,029105825244210116
-0,4286149035875939
-0,11960507595340791
-0,6046936550765436
-0,34439232142489395
0,3515517057529813
-0,009933308971335365
-0,39460150338599825
0,16329659127268645
-0,06556214046356713
-0,30158972705886
-0,5348373645394014
0,35247327411869467
0,3129484017314463
-0,10702579631428065
-0,391736927360517
-0,000558263711243323
-0,10504120651848486
-0,4429280721210579
0,39414162091265714
0,13505957203771143
0,05914136676885348
0,07856012033664102
-0,26139186620326776
-0,1126969898347531
0,003140574914943889
-0,35032012362307063
-0,31850564865559877
0,1341847435904862
0,1800711666368658
0,026460438384659155
-0,39685594312728706
0,11168366507757908
0,2284425589950903
0,08527993617127544
0,23250026018775183
-0,5088840884163506
0,41851151371870426
-0,19800486071743642
-0,5529221988138014
-0,11380055756504097
0,14776312764469235
-0,5789440404129977
-0,3106420739126013
0,3893138807081067
-0,25285694021965177
-0,4095569615306716
-0,3069401910890934
0,3316107379752209
-0,4995178176021407
0,15883230933487621
-0,3400661738422495
-0,3570979019883628
0,28374255415176736
0,3830032150826455
0,22487843518756157
-0,43456058823361493
0,368579640874887
0,5296592250639923
-0,13694637876117477
-0,32197818911747034
0,3080136701615343
-0,14168472173726168
-0,31703144521895893
0,014579201642970519
-0,17572285950841782
0,16276496637721036
-0,19136098590428255
0,0007484594721396524
-0,03610932758009874
-0,5092614074237932
-0,04827178203141586
-0,09899584314361028
-0,04387386097500356
0,47054101608323323
-0,5052156016769338
-0,5046705571699831
-0,30910503316513915
-0,31997249386059945
0,12895027964122277
0,31071050675278405
0,19872317586285945
-0,0644236378126356
0,030003055464929335
-0,2745398101068619
0,26964951761028666
0,34951991630146423
0,20792134613313346
0,0668753448127549
0,022680005905643074
-0,1401549360981042
-0,26213373319051125
0,37501320632262836
-0,0431179502139441
-0,2752705467289967
0,23065782963825882
0,15913990150104398
0,26565126184811816
0,1321434488657931
0,21418781773564458
0,36114356353993965
-0,09033798677853497
-0,4359336482019341
-0,44177998632231763
0,1745486038725345
-0,3155229308972823
0,38756497615242225
-0,2162533468814212
-0,298696604456393
-0,19776038132521606
0,3950818217043437
-0,2200626811128415
0,0871423271957867
0,13157003053331062
0,03680587508170115
-0,03178321786837222
0,2935201141115006
0,2929333850932961
-0,3917540150097383
0,10841818887742015
0,07420056191819772
-0,15596352147731982
0,5034385273973891
-0,326020129621551
0,24315543060148728
-0,10576763203328202
-0,43519593576952886
-0,02870716381390204
0,40330844259498
-0,027952847190492423
0,16268427265238355
-0,0151914474633192
0,12748366129236186
-0,35715820385005187
-0,19116586616290598
0,11583739877793506
-0,096347336119534
-0,3080759479328203
-0,12356796879461523
0,5115917560732057
0,16532350418279995
-0,3954917161090987
0,20747984686555485
0,4126366915893863
0,2740153681181775
0,26162279384661596
0,3513290285634427
-0,44322186285972215
0,38269624785736556
-0,4760631733412781
0,2218751901557609
0,23184385742735428
-0,024696000246510644
0,266647425749254
-0,4507034402886979
-0,24632235305945943
-0,01960674951721308
0,14759048648082604
0,21123798848072634
-0,06479531399286768
-0,12673234797935076
0,2885285472661214
0,333653816980841
-0,22638351649028815
0,2962531490062497
-0,2715370719114182
-0,04581692807328316
-0,17750201845011265
-0,08921041504579376
-0,4338697620424567
0,2950071314046796
-0,09522040486106209
0,24653765949652345
-0,10171879264686307
-0,05418922233500945
0,3583574893712572
0,26099966446042655
-0,5123489394758151
-0,49452216138416694
0,23748665860925952
-0,1483377263659906
-0,4986489395686236
-0,41856698855779445
-0,23815177540207555
-0,15589631795572564
0,23699158066741605
0,30839193216276223
-0,4454093546027879
-0,21050972108344254
-0,12140899163203066
0,476898095620173
0,4246681303632014
-0,5732708558050833
-0,17981956200611018
-0,3011479427413083
-0,09422925893611159
-0,23169824995474475
0,08145288893524598
-0,5154973724058773
0,36365277106269533
-0,05429357286839978
-0,033652483185160835
-0,19246703167432191
-0,29501753817459897
-0,2404017200982224
-0,00761753280207687
-0,036357132259001786
-0,3841683193239758
0,4679131593654666
-0,24624228918924213
-0,40338755777297775
-0,2932089378599716
0,16385999580306831
0,36422066539788506
0,37678998314337797
-0,042582046041152774
-0,31969697263238933
-0,21129633938528944
0,043372908331309246
0,2388237859289382
0,036331407147807235
0,4917161078948032
-0,3084436392124408
0,3165029230499295
0,4092787983277568
-0,44162241502163035
0,12857564513011874
-0,4350987810432575
-0,5173274507060064
-0,38209046454004636
0,40589018477375155
-0,22089872034444724
-0,44280657953538655
-0,47306345311190356
-0,2441075529777898
-0,28069898486742184
-0,519219852557048
-0,061695150645274394
0,41407422611338507
0,16970835055692676
-0,2605251318008908
0,25587930125142944
0,13804498401496448
0,20871502691041754
0,4449750497426495
-0,31812141879498806
0,14883740009022584
-0,14005201137337348
0,443524656984516
0,31403412228992206
-0,4203495056965925
-0,32868374697790537
0,24643913438493673
0,1935278990697474
-0,417370608590308
-0,20515846659864637
-0,3228210944069916
-0,18904437479755398
-0,11254433300005674
0,45064985421447673
-0,05784113094900439
0,18081114544386329
0,5269035478425264
-0,4138356009571111
-0,287269318221284
-0,11802831149758818
0,2633476296591267
0,11154826299370339
-0,10177108180285305
-0,02659677128497008
0,19733504302893953
0,43675550410578473
0,35693078521730304
-0,4614949217800678
0,3628254555659847
-0,0836762449717257
0,019649244498214542
-0,4748801006130146
0,3724625791854115
-0,09992477377986529
-0,3866208171857861
-0,09054589243006601
0,38333627933153935
-0,19127332990635487
0,06798238700508902
-0,32493893276503916
0,3233935721661565
0,05820560945013701
-0,0490328537152555
0,16411625971303073
-0,25768300149909834
0,20699957931011526
0,09416603539622805
0,39054143831741694
-0,21448822366757928
0,2346244410756842
0,38183830425358034
-0,5129053529181617
0,009235202853996627
-0,4002370071523563
0,15269944874870167
-0,21522029284163843
0,3495356752983485
-0,06487859990242519
-0,17590936605569904
-0,4283476397077104
0,3001515927211784
0,0213308112722004
-0,35281678131263733
-0,03754971511651509
-0,32771336453994726
-0,15936219704490606
0,1285178666523848
-0,380967000531677
-0,19282644767540855
-0,4641195013576766
0,22282454419077413
0,41305691815130274
-0,14539523741925703
-0,04902684855277443
-0,25361809497807275
-0,4543371019475565
-0,44602921925993694
0,44223850092662415
0,4170706558102789
0,15858620104540966
-0,4495802294091603
-0,3020192093639605
0,3613274012893394
0,33435894557818746
-0,09917009332671119
0,44654353650928436
0,31973987514053387
0,06833823179786792
0,07161773847828828
-0,34526555517793933
-0,5766296265128408
-0,15319111772033694
-0,16160725417060254
-0,45483277433424585
-0,3544514542147451
-0,3871172175353626
0,08986846777372463
0,20352468726372425
-0,07906565275414583
0,4225406746649176
0,36261644892268396
-0,09474675787110881
0,04242300367495275
-0,4663681229056611
0,17891179242244556
-0,11493775831787362
0,42771726694099077
-0,46389243884484316
-0,16394493584346076
-0,438672285433948
0,2363526177570971
0,262089104340375
0,05100481549388789
-0,22515013647451151
0,044109789687396705
0,34497342058759095
-0,20773623918288453
0,2749062429849778
-0,012131104335417867
0,3328039659706741
0,07833689108577274
-0,055466538970207535
-0,07668994492067437
0,022373887635169603
0,2527807513982095
0,09873096944901635
-0,23190291876527655
-0,10047474700417544
-0,2013333183791415
-0,4181635882794786
0,1054512640568329
-0,10035916533388599
0,39849391152424174
-0,1757675682081241
-0,177776711730416
-0,2512305358741731
0,19027661737216536
-0,422282169542925
-0,332348082402847
-0,396159150573268
-0,19522946394275487
0,19241816993974956
-0,2549158962653537
0,21014066414879878
0,21027372605606798
-0,35982396827783847
0,0922895544070711
-0,49774168386717355
0,15421634749841892
0,30931965601281775
0,02517774569178863
0,4223246383542276
-0,23354093772198103
0,16000425892484352
-0,05078461142506615
0,11628529749529315
-0,04911218880575254
-0,14460775083550895
-0,18315005988152777
0,15429929683634477
0,2585402706851862
0,431056649298634
0,41269336883711005
-0,02589824292050682
0,3346453469395509
-0,028006408972588822
0,3723106238859873
-0,23929874987716915
0,07605778950789792
-0,36584647525588637
-0,13880599740036298
-0,12122163284510576
-0,026123354869894023
0,09087900595826631
0,41650741359079607
-0,4203888700124069
-0,436052430405902
0,047949876955992295
-0,1790948821718853
0,38385404632076625
0,1719481098506622
-0,43279439806653375
-0,5009882702004711
-0,11799621675357884
0,2901385766738442
0,01880710775935928
0,25252815647717586
0,3286022191126545
-0,08642765128822405
-0,6069795341213875
-0,24202953584295622
0,3844078814585184
-0,4158659545287975
0,2490868982521902
0,15440107505167533
0,3769423124291737
0,012637563930630856
-0,38440227357784995
-0,5632943634310308
0,37648584035089516
-0,40601987318793875
-0,5420707611566155
-0,027577897446801256
-0,261911121947977
0,2691582452169831
-0,09364924830562736
0,11748176832306244
-0,23610418337623193
0,37199600718816495
0,29711142245902733
-0,31217143683585097
-0,3444663226117825
-0,49765003726908696
-0,17078611855498055
0,22086203222207712
0,09389142313605305
0,06611142293111612
-0,46189239378787494
0,28923435727992636
-0,2338689736138312
0,45703796695330506
0,331031402292851
-0,04123017795103295
-0,35016128032796356
0,17293308211322306
0,2350193020000223
0,3556399309950302
0,31812439172581153
-0,5394361087545813
0,21760983409314485
-0,27955982773119237
-0,38008202439727595
0,2103743660377768
0,23162074214842954
-0,17567008245377025
0,4463698559008674
0,10332491909513686
-0,43760280858751127
-0,2562888519254576
-0,6077792033068783
0,018688721311964657
0,08340841277919135
0,2468554523752878
0,11577952120267107
-0,2731269501352759
-0,2499575214414425
0,25350882411138403
-0,18861654339778108
0,10981497305677025
0,2280831118914911
0,30480937791743135
-0,1576272114781448
0,15998837885244038
0,13607957731347178
-0,1183834146133866
-0,29368961833394996
-0,4116266483883034
0,0412701991264879
0,23529445865904955
0,11411170901696056
0,22397829032595418
-0,17864210774702305
0,2506953076418083
-0,2040760796656989
0,3792868312865616
0,1839663862815405
0,24973600262983156
-0,5029494903673893
0,03258776544615927
0,4727350059113074
0,36316927279101685
0,11976305800608886
0,14291073926043013
0,15825361289744255
-0,3489249340991883
0,1075074421111749
-0,5286042960888173
-0,001022593774874093
-0,1615152577986418
0,36351599963813946
0,41779989442532095
0,03463690309229304
0,34557672464478806
-0,20439457024277002
-0,1379206541247574
-0,5025319786202667
0,49454939287943817
0,35869513569210953
0,3442129053549706
0,29980686749555363
-0,17125869067504418
-0,08308061462739444
0,07138929909910563
-0,010292088352966277
0,264252437726512
0,32497924482305546
0,2681234636602122
-0,22065816605884345
0,4068508887232364
-0,318825711523268
-0,5235958509564553
0,3935468801160528
0,009196761843227475
0,21619941295036368
-0,36237944405989636
0,2872593490853468
-0,5253327786465126
-0,3612486833690624
0,44716761826688384
-0,18309143068276648
-0,2808658514475348
-0,5520357841973336
0,1076793838482932
-0,02791484069397281
0,369216588036717
0,2086862664095546
-0,08772818005767924
-0,12270211777305709
-0,19964611371922703
0,06937571542951747
0,49924105241887934
-0,47023676524384006
0,03859318109961547
-0,008536995766489213
-0,26541488738336144
0,054371244041944794
-0,06575516388142186
-0,4357225510981547
0,25681311378810256
0,24258144323456118
-0,11504642190986102
-0,46893976299128387
-0,5270680333571449
0,07609109812577441
0,33021070730481245
-0,3401656165635363
-0,4705808513494584
-0,010751240413173758
0,19840303038576346
-0,4802533544817185
-0,18623157858811384
0,06221311726359952
-0,5805299897899123
0,40469648125235824
-0,2929820591802622
0,27180083845400616
-0,09087309855712042
-0,3948743295315159
0,13516252308514728
-0,017580637249847996
-0,18703437137096596
0,006082753599039001
0,43872330226049744
-0,5267228906296791
-0,1608859848640151
0,056338021772448545
0,0382737661308166
0,1997487825064812
-0,03241623065848721
-0,3014774248629896
0,30716737673766553
0,13343257105330775
0,09356797391950213
0,30762316495615766
-0,3935304692276089
0,14398924634742497
0,0035572797688475178
0,2826841476238642
0,2753142909733257
-0,08500793876076485
-0,48351308797264353
-0,3258043234546271
-0,21075418907040755
-0,17550315152097629
0,34439736536920534
-0,5223420922535843
0,08895898878677934
-0,2797277813038757
-0,4752408057339769
-0,040334748106701415
0,22535749045302864
0,057863971498628854
-0,027650600957853034
-0,5041898188935702
-0,1258315659344477
-0,09862759113490886
0,29922250906409725
-0,5788970576922035
0,45329418029039525
-0,4160970978467988
0,06967636348319675
0,509035490046955
-0,5115294662875535
-0,4841335381707052
-0,48569561834596947
0,1414198614090241
0,005311783591444579
-0,4319375582414142
0,40268605664856205
0,08186711578955416
0,2187084012734691
0,12443450659280314
-0,45326569676872397
0,10558525490713565
0,019470889881526475
0,3890656542462003
0,1822776311018163
-0,18978350417621273
-0,21853799276048655
-0,04837713911452092
-0,561379836837516
0,3375501692609528
-0,4668757628783445
0,10852641117632318
-0,18758734303712338
0,005684622962432402
-0,3174248363116914
0,10140615815378085
-0,24674667335289557
0,3191232816002658
0,007671919219298277
-0,16069470079709922
-0,02996988698042727
0,06748383989150834
-0,12118684368961148
-0,2770775220021687
-0,42025264495844206
0,24439157289989877
-0,451752075111703
0,2707157375143345
0,09453260017228172
-0,256979062940539
0,15278828280227097
-0,14641080370517207
0,15368850439775253
0,011544654174287494
0,18657413138093443
0,05871151701429484
0,38369576715902215
0,27832772838492637
-0,22495490782138067
-0,5382120711244297
-0,060316496626745854
-0,36999106863079195
-0,16092708155513294
0,2875030567371491
-0,030409056080563875
0,11007306443301447
0,2734325627169407
0,20270479951132744
0,06405689374354527
-0,09853135012127824
-0,5438496969840787
-0,30833736053858807
-0,290944667456017
-0,04144817800099711
-0,42684037279236803
0,4740003989451723
-0,2858321107920014
0,046086481865599695
0,2290318466429693
-0,07984247856547401
-0,1557446721836434
-0,2239803282151827
-0,43144093201897066
0,3704891214425372
0,34863394148938903
0,3010329881631143
0,1513796143075239
-0,4222996778730429
0,22569142324444214
-0,2360172780998218
0,4085123836425416
0,35188925114621467
-0,5646101780135018
-0,06203566880372985
-0,20946322647277027
-0,3381010695058872
-0,35502890038943985
-0,31769655343034864
-0,3214347840768094
-0,4389445524592581
-0,1655258526052393
-0,3088067675426497
0,2503468105637814
0,08466379996265225
0,0424821024936581
0,4382001351436039
-0,4323561329816297
0,18962971793040256
0,13437312059910772
0,2827148854486392
0,38304486705479845
0,22397275880118744
0,10218247818710945
0,2642237263652169
-0,10247046930493227
0,42380787350520654
-0,5606113180825123
0,052759345010360434
-0,4812804107977067
0,058534707090449126
0,14753895796423483
0,16479557131875988
-0,3081055794424266
0,4411194618870375
-0,5411819835684926
0,3241648767133626
0,016715529487591505
0,3301903255621585
-0,16193447451957832
-0,3246077022918826
-0,23429133852851491
0,2598574211482459
-0,10480008724378215
-0,19325168527351613
-0,39172233723761035
0,022655185164031914
0,006789385099245762
-0,5290417699334692
-0,3907560530831838
-0,480838633115671
-0,3432592743060771
-0,47763182342621613
-0,31562812550639924
0,15231908349094123
0,30601596054534325
-0,24360744388102337
0,18263860267100268
-0,4416593876315101
0,08778639178519224
0,3192761531858154
-0,378624109251528
-0,5585881245208391
0,18588070942578205
0,22606337913131666
0,3353603715700271
-0,43027781375781227
-0,23856462474063136
0,027955219331891646
-0,40268018625754254
0,14075885180776307
-0,3535118775433171
0,2978140526477062
0,18908492481447695
-0,3147111816818348
-0,10838175080543741
-0,37979165853582864
0,2366782955897067
-0,5956178298204913
0,2515365750653573
-0,09085052600972111
-0,3906647892813624
0,36536962686519797
0,1566597952137245
-0,1209990205160458
-0,3755675780737795
0,5898294355734909
-0,15878790481322066
-0,019286968163103303
0,1473566471292261
-0,48643613551952564
0,33401140307862937
-0,15164680423020588
0,2705225046959546
0,459065619375632
0,2594456128013566
0,2958059542187352
0,4305386337668861
-0,01915737334426986
0,1978900965208002
-0,08372138342608902
-0,361174561304367
0,06126562477642127
0,24567869652412555
0,36708653319442236
0,15813000565784793
0,12596435914446785
0,23743061384082245
-0,391789741981474
0,46763277959728583
0,17222881179354896
-0,31319286848230043
0,3046916397822466
-0,10460870787353391
0,27374912836887766
0,2582517532565266
0,562180594494425
0,08415529982456979
-0,015585838335823903
0,4827107548966481
-0,41136225481935473
0,4643878886088536
0,19773335557283606
-0,17831286349476988
0,4749782789482995
0,24172897325916376
0,35248186396029557
0,23220197570166282
0,647348362802729
0,1595770887745297
-0,019426578644171515
-0,06102598491978987
-0,11512197197040315
-0,166475545295792
0,42820858919157073
-0,44475014729383644
-0,1409072106472769
0,2521977094065789
-0,2370279856975738
-0,033216662906309216
0,1907584410818106
-0,01247397426234389
-0,13900914253898333
0,08383219198772367
0,37313679586997434
0,060951430460734826
0,15429355989953816
-0,04834561136676809
-0,27836795691791955
0,5449162163098484
0,5073127557425097
-0,2610506378323639
0,009229731796401307
-0,02678428025310641
0,07985903144731694
-0,23629761281408793
0,31986468955781594
0,27800699387391836
-0,27162828296943176
-0,2137602618547075
-0,0780729411247431
0,3751174078383055
0,1986075715260555
0,681122681535979
0,22224372494860042
-0,38128039890607834
-0,0987351250013439
0,14061206087115535
0,20401136525001695
0,22445085066169246
0,27126785355679406
-0,40235761244920665
0,038262790644348024
0,060900747902591854
-0,3414782706450385
0,45428280819506217
0,3940051731798465
-0,1612434740439506
0,09132313871455568
-0,12232053199082382
0,27823371623621157
0,08348063793051058
-0,023836995620318945
-0,21411109017005464
0,48760858022502285
0,22344589503524961
0,1791686509459463
-0,13808306266737555
-0,18699677629158318
0,4115567126919562
-0,3712708350308728
0,09954967343894419
0,11042314689381144
0,02660459972799148
0,5433136103712707
0,2866682699043187
0,31739523457655044
-0,2797099831611469
-0,07222217222711533
0,05918006522456441
0,39393753556408945
0,08708648154386939
-0,10427749406562128
0,06515044553215202
-0,2937318116907828
0,2861524502511743
0,11202182981101103
0,29508087113769427
-0,15676657924283507
-0,04254038820011139
0,5254541631534263
0,2908713161988327
0,5651938918491637
0,20224114652012729
0,5308366566603515
-0,05609292685093233
0,041568690206431155
0,5263989590886807
-0,010351891347492335
-0,11931887063287715
-0,1947759885927663
0,16283057177499974
-0,2634128579130986
-0,014117213969286408
0,19082634177640043
0,17576163175707618
-0,15658533113696535
0,30910576053182015
-0,0756547949523822
-0,2402215607822974
-0,44940921017911506
0,5273847544966918
0,02027038021973291
0,06989785641571593
0,5378335603026345
0,11375043859298022
0,2332036163884754
0,0428551468259619
-0,26128896882181674
0,1352729544481387
-0,2103990153399924
-0,23524434077117584
0,1445413690775882
0,4274779502103152
0,5182073522776963
0,47624502670688756
0,24459917361215203
-0,18893603471767909
-0,1009787892616542
-0,5467713814785559
0,0791876213141578
-0,2883228197196327
-0,14946499028860674
0,09168945224508492
-0,20930251526479995
-0,24115087245319364
0,13921645448731568
-0,06790942205346973
-0,48706387240738447
-0,18494618567085738
0,2045982268034485
0,30821097788980517
0,16196784168174996
-0,1261367501706331
-0,029009892381501843
-0,32600350947561096
-0,3219376339052061
0,33569566021455144
-0,36645819941875146
-0,3009344190566435
-0,5191134896260718
-0,3550461727291334
-0,43091628013804617
0,3613419441640953
-0,08543206747966649
0,051463282597657624
0,15687428082355095
-0,19490304017044827
0,5455325317194143
0,22930667793743809
-0,08383501273273627
0,4734862653433464
-0,5030053683922854
-0,11582475150186777
0,2782622681869934
0,4174174952818742
-0,261252990154373
0,11114474881287512
0,16257791520103101
0,3490308391534263
-0,41469157939921386
0,1553313486283538
0,3231741805097356
0,2867376055908189
0,2307603001737424
-0,4441520092233144
0,301701550037824
-0,4803141910982438
-0,26864656152743727
-0,021988373896105744
0,08543261541883534
-0,12488939634966109
-0,1921642984041108
0,1427788823796124
-0,28391187858975875
0,45847930816473575
0,41224602022570184
-0,41423554021441605
0,5261856460075551
0,18893351596408403
-0,28508454580257464
-0,4030065479734416
-0,43927325830965935
-0,07525719726390549
0,5740376540490342
-0,3291377680327994
0,5739841212473338
0,21536897728868146
-0,012274047682755312
0,10751011007409532
0,145548343316841
0,33707398559039364
0,5325268469166887
0,6481035969611187
0,3276857069651996
0,4966459185181337
-0,1492828934041676
-0,05432566957280064
-0,15637064228120015
-0,1276050609424445
-0,3011960665539953
-0,10705456314871924
-0,16930514402136856
-0,4181745456653645
0,26329171664638445
0,2404609413798958
0,0772268781112828
-0,4754901417929442
-0,42214972469961465
-0,1198744122988649
0,3527972055119218
0,1296173362829919
-0,12463937351792512
0,3316457123062217
0,4380626189248789
-0,03150466347078399
0,6108230366710239
0,4488303971415661
0,050968388915422824
0,04530613228615757
0,04825312320020384
0,03464966570563414
0,17925907181501938
0,11457590913241962
-0,16842553540885757
0,033135114667149745
-0,17274956651603296
-0,17289997423660428
0,0663355105005169
0,48600250263859407
-0,15769430201396392
-0,1096497713100251
-0,1658208137018708
-0,21091790399366053
-0,03347334644017653
0,18109592171864095
0,5021785383727094
0,08631534033373146
0,013328325357203368
0,236152690266084
0,19790261428768752
0,3951377495199785
0,1683081317527742
-0,2888145277783956
-0,32060017167793453
-0,4374330091886753
-0,06387784947808493
-0,016728885068889067
-0,2899569917910581
-0,4256174712060059
0,06435625694521073
-0,16735473006400992
-0,01002973554909545
0,23796429731684726
0,3919477421203975
0,19866924788810703
0,4711332133867266
0,007837959967511124
-0,13281583172558628
-0,28258609447570054
0,1020937028186865
-0,14332527796720063
0,48475175186502967
0,37238251297946096
-0,3630986015729807
0,014680700150179025
-0,49231377745428134
0,5802293517627106
-0,030041185756360615
0,28254066540126904
-0,24247776766682866
0,00047084181657529496
-0,11333562018473951
0,06099588802907912
0,5132201323243691
-0,4331861706101049
0,1496915466732408
0,38114724874906203
-0,522082242230125
-0,22224709893746925
-0,013347492944833773
-0,16911192497086006
-0,22531045406790906
-0,18184187173299401
-0,025968375875013626
-0,12102406591594872
0,1917526736157152
-0,3569753984808181
0,00378832558687537
-0,19523436484941903
0,14162499448097718
0,3827055099780787
-0,27089455400500523
0,29106439985833776
0,47200821102730794
0,3004264528670695
0,35231210316154576
-0,3149617693752082
0,0894689134586988
0,06957910617192081
0,20360667512225455
-0,20267635339492981
0,19937645963871392
-0,5670307490696662
-0,0013313532351498655
0,3693914509643327
-0,48455383784850725
0,023632952932592575
-0,5055873209447467
-0,04507341611056894
-0,32446281815962097
-0,3707431848563503
-0,23205191765424324
0,5291601404943749
-0,33761555704075596
0,18943991434635593
0,47616851243961245
-0,3944729648230782
0,3391233100522107
-0,1819814707073111
0,19676170591741185
0,2676161237509752
0,5206518025893289
-0,4173122254436522
0,09194548730872014
0,0452597847627004
0,3591915660067312
0,29495026385001877
0,14418231670748338
0,07596126980027856
-0,22012597213779847
-0,009785071013960285
-0,009204400024647348
-0,2125362269660258
0,6185981593444926
-0,04533303752310322
-0,19054936928377453
0,23222687277039772
-0,11726012978966278
-0,2361521192240523
0,45071645847806285
-0,4164136372413429
0,058971895179354056
-0,2670033763234867
0,34716473132602876
-0,2515325396374654
-0,011354169049004813
0,25611902214282745
-0,4841690990433929
-0,009612962838376019
0,018824838098401367
-0,3797083051081979
-0,5129013931751139
0,3174380912629358
0,2921618455244276
0,21066750046323354
-0,25337321279538616
0,11213086846157261
-0,5921288488573534
-0,17717333007208091
0,03535875058952103
-0,1467957592477967
-0,5269600816942195
0,052421112739931316
-0,3536195037321533
0,07340761409631635
0,015785440145609866
0,14422235103099984
0,24477040772834557
0,2786968271972977
-0,29162877419450756
0,40963989107809334
-0,2649652403692872
0,10686463512837797
-0,04715985528312821
-0,22273727891983916
-0,28703935256571744
-0,45384807121589743
0,2643345651628662
0,015737597469222913
-0,2620716024081309
-0,10546774452505585
-0,380555169627685
-0,15269391976852292
0,5890699617399877
0,5809246091532594
-0,21998784181204314
-0,08895202673973109
0,18205515293824864
-0,006415020643490166
-0,2745935227342892
-0,14543808168311068
-0,3797323551423559
-0,006602450298064241
-0,35707926278939156
-0,5539027319795461
0,19827534748157732
-0,47086558426291075
0,049309805178020936
0,2543860811911578
0,3696602737232556
-0,12879578497393693
0,10774658348641274
0,6646880810486429
-0,11795953505508092
0,38525306570456075
-0,3071440441215218
-0,17876728772858663
0,5763495877185724
-0,18736554336255845
0,4801456415335986
0,3035735381681426
0,05853102030296688
0,23205855587769594
0,03539098624796191
-0,1182914412972217
-0,22278523311582182
-0,34235511548439257
0,37608911828024716
0,06583217546842668
-0,34520271052845003
0,288561580392088
0,10593495616571573
0,464746552537976
0,10110602091408946
0,043761581457343025
-0,08115359565387564
-0,2029288987232003
-0,40119497525552134
0,1565159921982811
-0,08192938937424211
-0,07438571611172408
0,1544712257322226
0,06720794339897562
-0,051792910648913476
-0,4015255509766775
0,5759847743623534
-0,061402339063545024
0,45611407147027155
0,0016577438102707035
-0,2877104212939029
-0,24054361929518092
-0,2894769786662333
0,11868344744015254
0,24915960179342608
0,3986169616434447
-0,12222911748233081
0,2812939510011763
0,4615232136052399
-4,8831995285304714E-05
0,2351484118511034
-0,10659030519254396
-0,4387600806476812
-0,06861287385294437
0,22261790110197907
0,31155685023190655
-0,0210354924207179
0,05288229819714601
-0,16841079973147743
0,40613938786322534
0,25158123544065564
-0,10855101387081902
-0,37883947706439336
0,2965028780537847
0,21930640353363207
0,49303366633627516
0,24242838279602522
0,26774331174644783
-0,20323433095606258
0,3964965482982205
0,09836788255233485
-0,42774259610344906
-0,22204846695790692
-0,6348842595624348
0,31035148918692884
-0,020605228665564867
-0,347287724473362
-0,2223443523126123
-0,3439963449137732
-0,5925790466456996
0,14550512159594695
-0,05239604778908484
-0,19298807584904137
0,2928941872470021
-0,2621152962475739
-0,44457647232835157
-0,19840943976194889
-0,43310937813389055
-0,4763306985238088
-0,403583642706338
0,2308882712439428
-0,43301303796685814
-0,2258222955300437
0,22004776180338362
-0,5104739650000706
-0,35896981411341594
0,08988275175848157
-0,5338265426906083
-0,2766657246439966
0,2972524124693476
-0,4337309471197945
0,41855878109178907
-0,15579294890295756
-0,2636944130714999
-0,23033841432493343
0,0034897174716998643
-0,40192202021865076
-0,5433556382497772
0,3170006895028592
0,035816221769293374
0,38000689981777264
-0,5916594010194532
-0,5464958915269424
0,25540822374760386
-0,10747734949459892
-0,02108277095311519
-0,2374965385955004
0,35608116601648276
-0,3213814949643416
0,0836435265291043
-0,41370242815362857
-0,3339419630320231
-0,056960165536010694
-0,04552638076025911
0,20667682600280637
-0,4198678444651297
-0,1389818278403706
0,018059146273501435
-0,20800086642907803
0,10137559820230642
-0,1287382748796678
-0,13076207331144807
-0,02082594305729084
0,19184045450707088
-0,10319460123051397
0,1632749865154253
0,023383236598732694
-0,003317948492306327
0,16936164802120965
-0,10091609749607663
-0,36991167701568095
0,3212392124056858
-0,2830153583079523
-0,13783867111030218
-0,00076533644097712
-0,3088801751619671
-0,28028011739890557
-0,49361298604159287
0,29397090917216845
0,060585104572416254
0,11682537853621137
0,5587232177582008
-0,21275508269818968
-0,13608354599971512
0,31092892783333753
0,4561100236234473
0,5466668343167155
-0,31294964259218055
0,47633784535502915
-0,1724471916009912
-0,46877532263234256
-0,43136236017271584
0,23703069892446288
-0,0034204631425197416
-0,2580768338125733
-0,2259746172485349
-0,22266359126747587
-0,3319424774292777
0,08411820095610482
-0,19154317629747533
-0,06919641002190345
0,16867688149182414
0,030444930425859818
-0,3602112467785581
-0,15240575153471214
-0,2626823465861556
-0,09105350071437467
0,10746328157175998
0,3156472194341009
-0,10590776878648027
0,04268870877813401
-0,0016528977400067212
-0,34010741099509834
0,2790639017884419
-0,266365098815738
-0,27048539974307795
-0,2664733652362519
0,12051437453485765
-0,2002428663185118
0,09737298403779356
0,08413198866206062
0,05823307153513883
-0,1847062785607722
0,26414138719539076
-0,03850071204526039
0,42236336667120566
0,07563229694401069
0,49523833526651034
0,38634928617506165
-0,590760634357081
0,3654365251996322
0,44935100435887193
-0,2227358284257685
0,24497132295744006
-0,5001729639804362
0,16422068146381524
0,04254125962884761
0,13908517274910928
-0,5187528111392868
0,43509756016006307
0,2922286729144935
0,3050558107716912
0,19756121818195124
0,28513265155059536
0,04633679691244166
-0,04445929155109662
-0,18871606449783204
-0,5873585888883963
-0,21091226001331134
0,32180821544549537
-0,3852612170570368
-0,30613292231128436
0,3935965843948772
0,06153128133138267
-0,08542248915174522
-0,4535442384179269
0,14598044762824197
0,0062383343111310765
-0,09154566417133626
-0,0847011860301086
0,20214646146099902
0,288131643190073
0,3332381942970569
0,2311495696821089
-0,4169357730738788
0,2771832013530738
0,020157784904418302
-0,20727041686803463
-0,16011057804596235
0,3779846487007821
0,013790745616172915
0,2822345253639054
-0,058654976814589116
-0,39882090589032054
0,2371693889751634
0,2510721389178545
0,18744278880826015
0,2240981477887887
0,531487510880058
0,42807850902955813
0,3204194760448907
-0,372953953217384
-0,27584859319154004
-0,019871574372507257
-0,11020447234019251
-0,3249882343583658
0,14132717575878437
0,348413379277664
-0,3167848863662588
0,3108180325661867
-0,4855182223273081
-0,07112070731696073
0,2723775056154754
-0,4237972262205354
0,017177323733976832
0,30745583561020773
-0,10116116551550308
0,18267759575602113
-0,3048943991227181
-0,2683304561660226
0,2985505396411193
0,248692597430108
-0,16501395690095483
-0,021682970465111702
0,44409393893716537
-0,4787684034754395
-0,23555235611333225
0,10010597632796438
-0,22785250406323473
0,10292742349886298
-0,10655579637144996
0,42825532602054533
0,41221681885400596
-0,13169050700392027
0,2835242357318306
0,4056444610981393
0,48319889054105375
0,17808323507355484
-0,13717963331223582
-0,5736393490419129
0,311871579407953
-0,26278561406351864
-0,21401666981113698
-0,49368739245760174
0,2968746937978608
-0,25789480129059067
-0,27460123120684116
-0,0028489855904057677
0,06644719679604053
-0,3830173763053017
0,3052271922869203
0,10178187717484734
0,6093016759920218
0,049722035924411545
0,3329893711045245
0,1370544958805618
-0,3469613028733816
0,10711003718566234
0,4664964569245084
0,2911437870612456
0,06658008204364539
-0,5423261087728501
-0,0073779490042507395
-0,22756728132268603
0,32379941663894735
-0,4491583517951255
0,05455796303011538
0,11772781699774476
-0,015750186123408314
-0,43791888710018545
-0,06129121394775088
-0,3835956113319591
0,3722740790547535
-0,036128325386560974
-0,40281356473074315
0,37095592462453353
0,4541793212261536
0,14108948261335627
-0,28131951903065683
0,02330198761613759
0,12881835014995063
0,33798803671800914
0,16279523110790525
0,0014837888093227536
-0,31594419013581526
0,01764480161644304
0,22602666455077114
-0,29607398352227243
0,22619573165230006
0,5456787055740714
-0,5338743381444537
0,3126457063361755
-0,1699989596126739
-0,1642803995341356
-0,3520292426902254
-0,38591500270479334
-0,05582836083952351
0,050409298282849256
0,4972123089132711
-0,32446618509159403
-0,5752766431285415
-0,2672269042027489
0,07796651526475878
-0,04390873942304562
0,14199043984844395
0,08968897996945117
-0,18987125325714252
0,26168273267705977
-0,27383879228317787
0,4235256881737413
0,45905772453173277
-0,035160697023258115
0,4577074537628036
0,16518757104963214
0,20308134362245986
-0,10027191643523274
-0,09255904032537432
0,1464608172195874
-0,366848199712797
0,4325443462998763
-0,03330313222714709
0,37163945972187973
0,355821176231182
-0,1268647129771897
-0,40066257540759875
0,32022804070134947
-0,4603800896519673
0,12332563079969616
0,126730936801227
0,24346719677371279
-0,3270604402305882
-0,03554703391430813
-0,6445601445715453
-0,12446298017529947
0,2934951262042345
0,25823500104040736
-0,08432910487799755
0,18345399437153057
-0,24705723695915863
0,40440028236600184
0,14086781519657587
-0,24229685491298025
-0,4424042249135033
0,13651428816782496
0,5100647247936131
0,31966246111712393
-0,028219218862683058
0,3273253369249732
-0,33197029030369907
0,43896379309777267
0,5205488300793374
-0,1388981403758224
0,4832925607350519
0,36622902113719574
-0,40458015006855436
0,34024208607362344
-0,500699039819134
0,2951049652398276
-0,35025818009448245
-0,0980981995444894
-0,13233416155232938
0,3115488997514847
-0,5075496838360666
0,13500037074192225
-0,21324129200022393
0,13493380799466453
-0,5286395553554537
-0,027779508632986904
0,07415622760526787
0,10771119019841015
-0,03476592533515801
-0,30119197952422977
-0,5393117563203873
-0,029362776343622533
0,08823930894846176
0,19254778892705862
0,13586904599958632
0,3322300021233779
0,444391530051073
-0,5369715119728615
0,05461634007253046
-0,0366802118734087
0,33379340286845116
-0,3014425742522685
0,4955030780911116
0,25396257633774005
-0,28067095974079104
0,04421087414655204
0,13435199540904852
-0,2915764931812009
-0,27475238143353314
0,24479949254445255
0,04051334167051201
0,003363340662819066
-0,16842009234593883
0,1592692063580647
0,27691636477091486
0,21584486457001362
-0,3388821457595157
-0,30399561939062986
0,010053747858476824
0,07348813059069657
-0,21376244427724891
-0,3061499075170192
0,05781567057857545
-0,3130520577909843
-0,4679768756530825
-0,4996808215081934
0,364134083350632
0,1245362351684129
0,41363392298048346
0,1469939076190314
-0,29642652038349215
-0,2555155270855464
0,15282681866386597
0,40007502314324406
0,3064581242326098
-0,4265162616243002
0,06964853241301028
0,3623044881278436
0,006658596599210706
0,43247712420267265
0,11384599710855241
-0,19978534094665157
-0,07436581466814271
-0,49032886218400407
0,06501793452941443
-0,12661734357014764
0,023577054433191084
0,32865131217587795
-0,6278268543005734
-0,03667700496810235
0,19736987448130738
-0,23002917074420884
0,018456406441034398
-0,24313572487498555
-0,3758916910527176
-0,3895603841170172
0,23706351301358083
0,2897751274015381
0,323743708907833
-0,0053973658189143655
-0,11302229088262075
-0,09246838996638987
0,05080882947276733
0,35061526769434875
0,005069508142523876
0,19424041654169075
0,13532882529533957
-0,025408420458235957
-0,36329071270765706
0,02285495243163873
0,10842494684196169
0,29833810404386957
0,04320286597591135
0,1132737332565517
-0,043119897469886724
-0,5827946526907036
-0,13568621346255008
0,2662729305155783
-0,46546629022647656
-0,2951651285289852
-0,2984695330682817
0,0028688079434892153
-0,45150508447839344
-0,13125417056752448
0,0072633047691671605
-0,2414818563686431
-0,26673857943655477
-0,3011341834411909
0,23857709094673601
0,2158738649202755
0,3796865131846652
-0,2945599901016987
-0,11339057832763981
0,01687544591242169
0,24324321629868345
0,37370648938505346
-0,11408544043413953
-0,4051621444022056
-0,1981151077867795
0,11657106798752946
-0,2384822954433318
0,10132184151071542
0,1950448652230945
-0,1404842242180114
0,2422971849811255
0,013306148456001947
0,21177865161070727
-0,008152309529645062
-0,4255721759609179
-0,31583661727446527
0,2288079222595049
0,3730865769247781
-0,10234552885123542
0,10081759399658922
-0,08587566501179211
0,3638132897259088
0,06970966902154929
0,4564906505347453
-0,0035916216472700498
0,4826513421748014
-0,2558151407189209
-0,18830379269518452
-0,12109625881563814
0,3752270558781733
-0,2908302375310392
0,11393976483898083
-0,545913694033646
-0,5361465354433176
-0,4894234761909855
-0,2902299050535902
-0,4562197502965387
-0,423560496722107
-0,38411507709623927
0,10528829209076451
0,2546390117237955
-0,12462188504991027
-0,014857700121910553
0,06996063511393541
0,1616887540904651
0,05359171160088093
0,11839360091901303
0,31027314962924984
0,14928270224338944
-0,01470943780772592
0,3025988234708677
0,02965544488378788
0,1706237494750584
-0,35789009963089613
0,021643965807880052
0,08479752435909237
0,060875422120628825
-0,36659451900608997
0,4040211760974983
0,5907893728821081
0,40959517468811496
0,12740816306709657
0,62586674512685
-0,08580901547086511
-0,3044721975263411
-0,16434743810277033
-0,30366939987774155
-0,0019293858366107065
0,44256037423918226
-0,32910401548248935
0,4309792206340772
0,42836659773636265
-0,23857398893075302
0,3954754476257267
-0,29012375387529404
0,05020430208824622
-0,14513672917631829
0,29358351997052756
-0,25510408975361204
0,5303767812445884
0,01767142420573078
0,47155920987949496
-0,3013491260841116
0,5097329968444079
0,3453727523582145
-0,07566899755214877
-0,3675420182067365
-0,4514502629852124
-0,20966716101105146
-0,12882880276467987
0,25831418775860426
-0,3574858971213092
0,09578111572267166
-0,2652158320266533
-0,24218444680244275
-0,00912824237996683
0,1498509416994401
-0,1450706204434279
0,1840001354648314
-0,057612444619995165
-0,4910184754291017
0,03184764476900215
-0,5949640922994555
0,11336986539799473
0,10350657248910557
-0,2923328380429055
0,23341152376290947
-0,10553893747257262
0,2774844067852526
0,18902856331700357
0,4550882133311421
-0,21057591321102828
-0,20965646717919745
0,081418513886794
-0,4909923104478469
-0,04177976311254314
0,15422410890873156
0,13160505102402492
-0,40258560438778845
-0,23351516131189043
-0,3790652823477242
0,31753202156103305
-0,3694433662302912
0,1903098326404447
-0,3289092294878297
0,16330340345664338
0,12491165110344803
0,006112338471883207
0,36081409527082714
-0,15844382698410206
-0,00881223467492975
-0,35844960308259005
-0,26158169797848546
-0,3954120448381907
0,39932211159479264
0,20428579006739875
-0,45453700437753186
0,19036645126619467
0,2864039792981804
-0,17915658448695196
0,0928315388708121
0,13568662241942656
-0,453816500644219
0,33999515304673794
0,13743894694091344
0,2123655733796281
0,31728530754996
0,3879996808474812
-0,38719891580826166
0,09631866089883084
-0,29814309967370567
0,3466826156948379
0,2177760549763237
-0,3549971793464135
0,48118936545330643
0,19808211900344122
0,4708275467663987
-0,29523131911020023
0,23396151855439007
-0,3889325421021885
0,06527086687007634
0,18766702463712057
0,1410842884285987
-0,37827059568215016
0,18365147001436655
0,17404502786460513
-0,3167270760552801
-0,13092165373664016
-0,22056770407764756
-0,3172369698632508
0,4457960597434709
0,10939212980496517
-0,31647824389922574
-0,24972950434949553
-0,278061128213862
-0,15420022275965195
0,2517595568841023
-0,365006142698699
0,2651935971319113
0,13706597482816665
-0,2424126553013053
-0,27348325650500294
-0,1490857427930559
0,17200393107900863
-0,14650077621118238
-0,4105229888899994
-0,2827920691780619
0,28731336613109765
0,10574852826265496
0,43419905048580987
-0,1808278401566685
0,11742158663327307
-0,47788782982925304
0,12069323048519572
-0,0404213349441161
-0,08582600130666827
0,10324305661106724
0,3197002863099859
0,47142483241778527
-0,40879318583183344
0,0752286113515062
-0,2921622346966794
-0,11831351341887625
-0,06449414340957883
-0,4362775675427907
0,4171025945254066
-0,07963434407750629
0,22633747379992966
0,35109753482019057
0,4830963552352243
0,33201881060841737
0,03475202875517436
0,17569228928545863
0,21160577926635113
-0,3095950590902886
-0,48893438369360115
-0,21481744400940236
-0,09480822914518827
0,07496035742643321
0,1744611761674237
-0,033329818268752094
-0,14902192586937055
0,1524060986015747
0,12709753266327825
0,1065702197675391
0,004628824322914833
0,08443915129246737
0,5338078488897743
0,4063722104870269
-0,03600035005048063
