0,05 0,5 -0,5 0,5 3750 10 4
-0,43681321781984045
-0,1952913185026431
0,24164510064110215
0,15518012114059243
0,038832945303751115
-0,24013193390044746
0,18687215531097556
0,27489974959351643
-0,33375739216320643
0,12528993304847416
-0,28576419395100894
-0,23265515627484154
-0,08189031756434326
-0,11477953878892976
0,03726741880592794
-0,4100754325380657
-0,25437549563850703
-0,14804337395932335
0,6037883414958035
0,4426010883105633
-0,41145526311735686
-0,20602603045144843
0,1388935416196133
0,3196266344990562
-0,31719189339665876
-0,12228998400924838
-0,010592229501895851
-0,25201084338162816
-0,004501989201951875
0,4827329820397542
0,30771214241786826
0,41551140947292625
-0,3772345450319192
-0,04514596258376326
0,002410052519656309
0,3582037741819372
0,6056688995619959
0,5829715673834462
-0,4893922747430204
0,6091556797784908
0,24782334959533056
0,18723436003110241
0,36439096648655833
0,2958849382590765
-0,09443408442083866
0,1318814720561678
-0,2722865129689938
0,2216228804594229
0,3593933775625798
-0,20525716603574298
-0,42854859035779747
-0,413976845207348
0,08737624319510891
-0,5571871000482118
0,25537234901159594
0,17219215179113723
0,08977570298038377
0,4874051294061712
0,2841655369563996
0,08174482865515251
0,5257085989451394
-0,3514024310665685
0,3617123915489492
-0,1846440471840747
0,4954704029567905
0,26588802880211476
-0,30818595016254136
-0,17056998562854112
0,3360907968280556
0,34154781600034445
0,5115363827541444
-0,30083629074800483
-0,23627350231488864
-0,29222727054832043
-0,030282704459222896
0,41099859081528956
-0,23855676052598143
0,04589129987499056
0,06462312122255284
-0,22625611810703833
0,307385768467778
0,19315805602270936
0,13835279460004993
0,33536221806161143
0,46186566366895054
-0,021214670213779235
-0,1492057967886142
-0,4471065039334668
0,375716177476414
-0,37973783289048946
0,05306620788551552
-0,00851756235548031
0,006813885909136185
-0,4744264119165412
0,04121284630771655
-0,1617780992396466
0,30605997598523116
0,40948552045928716
-0,4889851784627553
0,43077438537836316
0,5332778237500785
0,2595494801870417
0,5234566653470868
0,24909199929766104
0,006298846351849241
-0,060502445713952815
-0,17618621311333907
0,6469325400118202
-0,46714341200274656
-0,2718891034746723
0,19861702576121792
-0,21839623820056125
-0,21697513383419628
-0,1181739305224362
0,08525394102327215
0,3060687164588248
-0,3810069996428422
0,13658272413805791
0,0213160756638715
0,3946316114391653
0,18780134168748885
0,0007608695622480195
-0,46012618241920494
-0,5326023106977957
0,09378172585864816
-0,48149487885986336
-0,25561004196311105
-0,35393440176808155
0,25799575235805283
0,4568057661309183
0,09443822661928646
-0,225802236333614
-0,48417815615872223
0,4487058684649797
-0,07966899995620703
-0,06304623682883642
-0,004539068981894494
0,3850247149861843
-0,11007246410626091
0,26103983084185456
-0,5343318845743468
-0,5245916979231132
-0,27016762399431365
-0,21063332224863784
-0,12344642277654495
0,1706371647828854
-0,30568655924305693
0,27211424529688755
0,17854146687015976
0,5099021569044315
0,08774039470715006
-0,0878228852212192
-0,010449955271746875
-0,4371340948529927
0,46592273376743537
0,018103660797464727
0,28821652378968515
0,43579089701545304
0,4768314941215006
0,08442297063900167
-0,27444287275948015
-0,5064163797269077
0,29083202571420574
-0,38184632580152317
-0,3904856298407902
-0,2124560769988264
-0,18369416777377573
0,01407901130493005
-0,007589333148091807
0,2915540543640912
-0,22092381677121012
-0,2936065739267988
0,09037876633987096
0,06537823362499762
-0,34263929501595114
0,395685199177543
-0,16420218107185214
0,2154581054560409
-0,2051610508705381
0,5554551909838626
0,11413749108541303
0,40166832086285326
0,4077767117334905
0,18878700116613215
0,1707909585231387
-0,00028857318502858146
0,2285090024865066
0,4221382435710439
0,3322181793962585
-0,3060070968078684
0,15741576244152675
-0,1761028609721088
0,05363212145976496
-0,2720478822126355
0,326127516181315
-0,3218634420495243
0,4349951178440689
0,2476760660741231
0,16476460765953202
0,12043338201098294
-0,20082157704788647
0,20899467885585551
-0,5021279596864817
-0,3469757764980748
-0,13365261162668401
0,35079773853826274
-0,2760983051063102
-0,33844609636602774
-0,10904666219359176
0,021196123295460653
0,08586452583813825
0,44657786103391034
-0,26734179436259586
-0,1452618536041229
0,27514127224001433
-0,16929974514389812
0,053715602409991355
-0,07494785620667051
-0,13691423157374594
-0,2660725132800442
-0,19801574814338324
0,27309923126728036
-0,1885861217806428
-0,21302606369890575
-0,32641361565884736
0,5719113519616105
0,5611570812547423
0,40203336576366094
0,5264462565381444
0,18890533588583633
0,1589695603711054
0,3703516011804083
0,31105243425762086
-0,0535905428306908
-0,3110164318482909
0,036639844574286096
0,325145372900971
-0,41166289963351943
-0,08839394828181266
-0,3164255590822166
0,11491620422597461
0,05312745652244249
-0,33819928463444016
-0,21661397386854953
0,20120775515399145
-0,4536975982426798
-0,40060944015897726
0,09583293696838482
0,31590345460890223
0,4067746147620397
-0,12636122216115897
0,26833861032313255
0,5371596610089524
0,3021803315958143
-0,2835641175970637
0,3280897243912396
-0,2055197260178156
0,034465595633792825
-0,2577463430837105
0,1974423418788528
0,3898462720733935
-0,49584672633933513
-0,256100094673837
0,0339838436482706
0,31937509073238374
-0,2846250648213953
-0,07582445382096506
-0,3351681071901282
0,2598193204517477
0,2371581802724971
0,45916975394900805
0,3397161264474579
0,12642890191952325
-0,23760823485179478
0,48590214113349195
0,30822752047953533
-0,03742467136244352
-0,23352584916879265
-0,0310540337896349
0,1607800448791193
0,22549783698311593
-0,022619783213505593
-0,02258490302449602
-0,18794876418661977
0,057175561836628724
0,012015131039429092
-0,31941935483652173
-0,42811401379853137
0,1702173376072642
0,1878220858788184
-0,2489284108158682
-0,49801385250155866
0,13356234812862589
0,3754550588029133
0,445336008297167
-0,14034016804813534
0,4654388028796979
-0,43919295987153195
0,43833562195322195
0,3303432412933775
0,013275324436663809
-0,10340875833600219
-0,2952309317138612
0,2304850405612269
0,1745052277577746
-0,19980016974492318
-0,2165935181087326
0,45779904871982197
0,07347396866406136
0,0381277767376976
-0,11708973807266815
0,06376242182461603
-0,20129265427265214
0,035799771597424555
-0,09154204449374911
-0,4912664496576792
0,20831445461837705
0,2767147706104092
0,44987811335254146
0,0654531993125115
-0,4017614755915825
-0,2185399212830629
-0,28983435765382753
-0,0865587119976908
-0,08277337269039602
0,5585122837239356
0,16644941315881212
-0,033828638944993744
0,3298759959023282
-0,17577926669502422
0,5930522269580133
0,27664311079025977
0,1503552550115634
-0,2978994235835329
0,26709027507634375
-0,15547616048740434
-0,2987916237401129
-0,35610057393036926
0,1280699416379789
0,30906496119697957
0,35683165121086174
0,15772526955023547
0,3351325963208432
0,42602423791505833
-0,1081810995148322
0,13553553951098557
-0,3261055749948714
0,1368415113408438
-0,3146520741696114
-0,21619380256320944
0,24404354699528935
-0,40751948046467307
0,4780819502634182
-0,3609267887695134
0,3625109922005636
0,2295378280441606
-0,1971934138288438
0,5454438803277434
0,20767282675906
-0,15537451726194762
0,4560310183861064
0,2816206971387862
0,03283177619547001
-0,3524652582170612
0,41052292830311243
0,04668741969712042
0,14583612712276453
-0,0965327735798034
-0,22727908932641158
0,552632452157272
0,3215538385795859
0,28150009907136053
-0,16912463847714476
0,22056544695490132
0,21842029920279987
-0,12266431461119498
-0,3757546618685642
0,37832597339855545
-0,167043953037869
0,33252045334486885
0,3294038996340138
0,27594963568204545
0,3087676867186623
-0,08081098304349763
0,22085199671663913
0,26316515505085736
-0,19097941004674673
0,06948743938754294
0,007172035976934001
0,203644554843615
0,4678022877818503
0,11838775710343089
-0,5498095281773067
0,38298807012521663
0,5271017946238961
-0,11245129356180485
0,03853317440342999
0,31706544416156385
-0,26994531908951386
-0,19450907215807492
-0,24844033028603185
-0,012904768438794796
0,0911229001670926
0,011790460564764235
0,17683990981616582
-0,2823363938555779
0,5132097114025846
0,23184397422124656
0,13039360258348992
0,13593343782880743
0,3258427951800139
-0,2413562996409593
-0,30405730338407194
0,5981391647878934
-0,261595579009868
0,02502090922490321
0,33459046321518154
0,3998473743177007
0,31330628715317604
-0,030071442766035537
-0,40197052119799614
-0,2595137721682379
-0,22708706413638413
-0,022332745337720603
0,3212929821305586
-0,0009105374009389462
0,006499814605213034
0,44753672689928586
-0,5231087186147694
-0,12809644970764036
0,286483684708747
0,15618781911935567
0,4413298766031961
0,5292989751463781
0,4742462629197749
-0,23596745756626847
-0,250801415051495
0,39635872110078646
0,06920550712454072
0,40754073917655614
-0,2819028278489695
-0,38393540178211794
-0,336158289513351
-0,13294140587414408
-0,176476673149846
-0,42099353964947567
0,08187592473202511
-0,1676927168700866
-0,20168973332618376
0,15998852301437697
-0,07565707601344665
0,3992020724872048
0,38413476070560215
0,17717333903735236
0,0148093333577621
0,0024251274814950556
0,3103306705512666
0,26183125848445055
-0,07765858689088327
-0,38555632702177733
0,2641903262526003
-0,01700809432599957
-0,23881399142231213
-0,1926624009611537
0,24824622196626941
0,3770163194564226
0,040637457284486235
0,26150533332280124
0,3128561705921914
0,3688816417646436
-0,3601616376772236
0,026576637689828042
0,21911035865928885
0,0581075291998525
0,4643225128653637
0,5342082048894009
0,11108065412449086
0,470420899702201
0,5962697648800785
0,24780960252280712
0,2573701915610265
-0,29902305440674337
0,017046638406087077
0,4101158321009841
-0,32921926523227574
-0,12818400199750968
0,42869319759255403
-0,16562613193917078
-0,04917804484985726
0,3876336987932402
0,3743013064766122
-0,3723404681192353
0,3585464645008393
0,282797478976599
0,4887194123562712
0,5397361186562596
-0,301254051593796
0,4417317976678786
-0,0113496050701843
-0,012495860564345238
-0,30539888952625166
-0,3570967196561521
0,49199434731985614
-0,4108587989199968
0,19849798324101642
0,5573073845676624
-0,0016257042944679233
-0,037532705596796306
-0,32941694490286466
0,5184131616368868
0,3875493252338727
-0,13025348767606848
0,20518028933303395
0,04896437227898234
-0,17278132011532985
0,03131953291736628
0,0006707913652830409
0,3127213894165296
-0,24157096289818103
-0,3848862563939577
-0,06924896530083302
-0,3763676002274229
0,02641337697840768
-0,049762672011104375
0,2589531690075026
0,6049967047416589
0,4235084304809061
-0,08531764973282543
0,23746746501041482
0,013740600622670272
-0,4039941220495394
-0,16966653140981822
-0,15086797180849013
0,2391368787849334
0,17439317799073778
-0,0361415885920733
0,3078029270724727
0,22111812270578296
-0,32199905359976183
0,23763621971209048
-0,042226775220049355
0,6102582750209212
-0,05865329505281397
0,39335471859802146
-0,26238258005656984
0,5838395721769006
0,2937822719721254
0,1250079484807313
0,5941188775553153
-0,040519827218239164
0,2016991880712699
0,44659190637073454
0,25873720938236405
0,15647331206734616
-0,3647729457371643
-0,2438921425310766
0,6111256368050701
0,13956032295550796
-0,19489951026125463
0,20616593643039766
-0,17621781959040916
-0,17306551093297567
0,5459002884196968
0,44841954108867926
0,49580700705162345
-0,06553006225782557
0,04200454276424838
0,34837980484991554
0,09164712244150462
0,6771870322300118
0,2178130332004268
0,3498325287322083
0,002700200306833464
-0,017492458367742336
-0,013372703225117431
0,23213472994984144
-0,10572937756159083
0,248159515080384
-0,2508044267382239
0,14035820892856316
-0,11065416373962132
-0,35670951958831787
0,46264282706638954
0,29020955760525835
-0,07294691869507201
0,20296782482078837
0,4580824164479588
0,40836055722903525
-0,43924555321607284
-0,047608355389058866
0,20573440003887142
-0,5229375870418198
-0,23777071579647363
0,2042590695896681
0,40166381666728085
0,4577501713758434
-0,140506536091799
0,07440298497558405
-0,2760071349992529
-0,14761804441096252
0,471005032847699
-0,1196676400357239
0,43838960622769135
0,35129420866591154
-0,3235259709157465
-0,3227119950344526
0,1836139214139218
0,3675068434745931
0,14017169225509066
-0,25392699309162736
-0,40014163713426987
-0,3969507001538269
-0,3349892418469679
-0,0621418198661038
0,1486627923238533
0,2673589147450255
0,3755156310404108
-0,2761250005970599
0,27440170147624193
0,6122351889697216
-0,27484230104272367
-0,24086576515396796
-0,060726070711917435
-0,26735247972697784
0,04497839883337665
-0,11005846790186563
-0,2672144859396987
-0,02122748367994708
0,034457628844859936
-0,06042042878322061
-0,3772411388372813
0,5518581614163213
0,026045291376672237
0,3828752479007249
-0,2834917331287572
0,5892396461151811
0,4565366824731869
-0,28461797169815944
-0,2888139910587094
0,24762980274728016
-0,06675981422587696
0,03387370607439663
0,30465842156505096
0,4562368088903276
-0,45407285798028757
-0,16696675347456352
-0,01939580280304451
-0,18434843451123928
0,535334828688993
0,39433383543581113
-0,38809197716952776
-0,0011175632773644717
0,3604719532899482
-0,3532583463621455
0,4459930711988921
-0,20940538560651553
-0,12364628757447946
0,1858358264932084
-0,06454579248835832
-0,2606937704484725
-0,33135590624163425
-0,4883721039559475
0,05028467909171786
-0,08615611873475088
0,24619649796958204
-0,19171394275893272
-0,091894812647359
0,3532048878817217
-0,4397660555387713
-0,08811307694939492
0,10431351363218395
-0,5105681634077687
0,5663790504765293
-0,22001443605520682
0,41374936107309207
-0,054756404983028396
0,22595272340213693
0,09212388201831882
-0,2180959187027748
0,5211977549680135
-0,04122377182984594
-0,11849192898277483
0,4587949692130172
0,4371964826264906
0,406486152010572
-0,3328062189745169
-0,1102465821011284
-0,2856442753435277
0,6079593386865128
0,00868053238636133
0,22178039856962142
-0,00931732619186042
0,36084499082448446
-0,15858001917009898
0,12601892794924077
-0,33216027759104394
-0,15338802640003785
0,519172625590973
0,03519466417006263
-0,4959542294798747
0,06074798540463149
0,0684360890153179
0,053219461652228316
-0,1430879639079247
0,15763339047692873
0,479196930061844
0,3580563407510377
-0,18754768738024463
0,05661476114375836
0,11856796443921434
0,1099577920479152
0,12183521601673454
0,323310000185786
0,18672565355117618
-0,5295284075947446
0,22957411316245468
0,3600511179103426
-0,24930020647683412
-0,24643204950723527
0,3960081006365597
-0,035429686033756555
-0,05305989254498977
0,4252028903999413
-0,2122065627847826
0,046738552784683064
0,1641667467744286
0,35456990566892876
-0,3892282757956288
-0,24134041208979487
0,42359747505089995
0,40524086492259614
0,02396808520175196
0,23641448084338343
-0,00786848285765071
0,04197740650830496
0,07305162170683432
-0,09838083763841027
0,38415285433355145
0,2042684222581398
-0,10897864145949032
0,08199868454729722
-0,1714763805128485
-0,34625461693449744
0,18025472697340525
0,19646070693697562
0,050401758788790434
-0,09490687524093099
-0,41487846904364895
-0,3793348126467031
0,001929307547543612
-0,3554967937939723
-0,1451716925986173
0,08405833208206628
-0,24153955451002027
-0,2895194875904767
-0,08636813147589721
-0,5783804311273074
-0,07618754358972121
0,18828079892427743
-0,26125834942346515
-0,2109297921723677
-0,3546109893450343
-0,29659408204287274
0,011783092330560812
0,3801804790075506
0,14957839096893064
0,0012762215406664707
0,08028263930166762
0,2326139150860757
0,3088784907799809
-0,3079069030956649
-0,46053945958435444
0,11525540759411354
0,27837492926521007
-0,05807717123148104
-0,40265436918220876
0,4427854112928323
-0,04989497840257551
-0,44782003824213595
0,004614195826477523
-0,4057408596706577
0,48731947983204993
0,12856429996647833
0,3068255872005475
0,37021789223062496
0,058554928252957085
-0,08469924276103614
-0,3513187411818943
-0,3433176224768142
0,4416319455582635
-0,18551908023563582
-0,2830363058231186
0,3446174574188399
0,4701314463898498
-0,4441311311553285
-0,24329191762511126
0,5749592782633488
0,15700346053873934
0,17321234656499362
-0,42705257141923825
-0,30729097572945147
0,09082969531435686
0,14707295708785978
-0,24017280509852482
-0,12131092610218033
0,39129773762872094
0,2441653066742836
-0,3308486855245492
0,38632041730801353
0,19301764249614187
0,27824586732471107
0,5811192912510592
0,38908875186507313
0,374399110835375
0,10419728547207698
0,14563141545542474
-0,056003972227857704
0,34167795696354414
-0,5381512784669332
0,032547758659933715
0,09617868007182588
0,04983327318790169
0,49956066735144095
-0,22248933780839505
-0,05557697217230987
-0,06349465957771881
0,41625113220922805
-0,480983307259645
-0,11369796722767053
-0,29178511687241115
0,31351278659787407
-0,08539982902816988
-0,13628677328900068
0,18790357636561006
-0,00963828313723398
-0,1008277240952649
0,050404529155305244
0,5175386070084046
0,5281370900227391
0,22526957919196505
-0,02682603902301549
0,3000196961543713
-0,26285696176179385
-0,11650560006012746
0,13415140121617328
0,39793115290316344
0,3428480211846791
0,009819223197401866
-0,36098087436897547
-0,5610739807043228
0,41416316127154107
-0,20402916910193855
-0,4731896453890475
0,37890070451717217
0,19541185171639422
-0,17531397557739722
0,17492824887518518
0,4263812713303888
-0,4023561833345517
0,5502482576567074
-0,0012519138821934196
0,10447913281763205
-0,2644334616053022
0,021434878244878948
0,48955178837780694
-0,05535295373894535
-0,15001446468862803
0,2198805229650797
0,4585108191248114
0,24955983614184502
-0,42598917636404227
0,5260551234851681
-0,27152468468114
0,045824466913993875
0,4173225705592393
-0,08096319128110299
-0,028835157121108818
-0,1372036104090537
-0,30248724902280494
0,48264975354073353
0,600661178407902
-0,030764341842904407
0,44666628447612255
-0,25859461235894177
-0,050483448047810464
0,24142105061829316
-0,20795550716240507
0,24172984954990628
0,42191868145191574
0,27260974604981286
0,2577044853036886
-0,042872681955567704
-0,5104572780849934
-0,40065100052927227
-0,020241823355903996
0,30657815773258446
0,2187179462485954
-0,08553292580369654
-0,41554134153252087
0,35107469950579423
0,38728502034433654
0,4170230586568438
-0,20280616588339834
-0,15854389107548378
0,3597607161273312
-0,18201188562614629
-0,4501597810760045
-0,19793295694083848
-0,3408717138191985
-0,0215123271075256
0,5754141998466189
0,388177536141981
0,1400799552432194
0,44845211091718623
0,14372098386147883
0,2730575689792481
-0,08089309605629944
0,349311212907922
0,08254938138616422
0,39294504598909064
0,2954992761010257
-0,25498802233542356
-0,007795524645184167
-0,5378880334819871
-0,0019118969073652467
0,17141184119858296
-0,0454285954422426
0,534723804933844
0,2316250074701994
0,49020517983203377
-0,12595822069760454
-0,16636813285258698
-0,2767189405181189
0,17586289615147008
0,0673589588423262
0,7029296454634787
-0,09677760521617967
0,34279459341741353
-0,07372317525347889
-0,44299965345513154
0,05504480559826511
-0,311705934033823
0,10242562586934233
-0,25209002647787465
-0,21708491375081193
0,44718914792822434
-0,00132820881434741
0,7035925113526009
-0,23896929430542457
-0,297771417873512
0,15317890918188362
-0,06446457096139491
-0,37262738438152637
-0,4764643622071669
0,2340089723038661
0,08685749609424741
-0,48770983359706477
-0,00628326983150553
-0,015508108049112198
0,043960051565057584
0,5056737797514217
-0,10813732943358854
-0,24357878325435478
-0,21935322011084438
0,14715194553816302
0,41556241274170874
-0,4002214621346728
0,004205709868277922
0,15537645594619556
-0,23597481350990743
-0,2505855405999363
-0,5271073885925687
0,5106414035478092
-0,007022834943784968
-0,2809547014524861
0,3298742316787585
0,15131454066982267
-0,2649642715081145
0,15945496766538456
0,441933154994021
-0,4487775221796813
0,5125946789814281
0,330530941364563
-0,21608205129190888
0,3154636504423561
0,25858880603997925
0,11789730012449602
0,19089159738633785
0,4389253059701425
0,03646101647845717
-0,2810171956619078
0,5697918454405676
0,010193987453930842
0,15471669934793128
0,5267546567576511
-0,28452782632204837
0,10381254616304282
0,19838757858105804
0,07470374916653306
-0,5615727465964083
0,11980094709013624
0,27852198145510926
-0,4397258262981964
0,26670197442122
-0,5056273066274473
-0,3053055097875195
0,10990034156823043
-0,1790176934500665
0,41847157582983524
0,13679869124957847
0,2936325190549679
0,029439239317455377
0,5182948636968738
0,48468936707941584
0,57478961587405
0,6200292464311252
0,602127477839243
0,30026411516274615
-0,1850310525953825
0,023299462444007747
-0,18374782841259069
0,47126297558105673
0,5112648044348201
0,4696755103566467
0,16620341187992785
-0,031573758584484135
-0,3089872061957509
-0,1718771196990209
0,03117746124752209
0,0058684883687167315
0,11738520001192375
-0,4401131126777143
-0,22653693535652972
0,22270465800806283
0,12183168338973928
0,46835763767261407
0,04503773400012771
-0,4565777342766221
0,1670822041710525
-0,07886487929492975
-0,04311465990433371
0,16973222826795034
0,0531520753268165
-0,02425419496988385
-0,30196261372754174
0,2102836583419444
-0,2878634920030716
-0,5370954699021004
0,013888777970172655
-0,27334483721249186
-0,5217252382576396
-0,4305724930921319
-0,22952367797431636
-0,43174266839889924
0,24218201783470591
0,3267917764321373
-0,12908178527512096
0,25007027951259375
0,17417791202172933
0,08581647294464739
0,07308724443686264
-0,4270981890894289
0,16915973350546062
0,012979773036323788
-0,006266917062122325
0,21094940400563023
-0,2601393346020808
-0,300383387713995
0,3043793766597113
-0,19462863233307154
-0,1958898788603585
-0,26030740980194045
-0,23734414890091923
0,3297196289059468
0,27353042121558574
0,019318548704207263
0,22054195155209727
0,19973529877152166
0,12402755721983337
-0,41014916704984744
0,38407761392974815
-0,1415635200757188
-0,09167210244529907
0,10262755711394297
-0,0883592230236969
-0,37394312942289
0,5444256443311928
-0,3386786893490802
0,40294262753806753
0,5456929461409017
-0,07812029787028782
-0,12274297394135722
-0,16773744220326403
0,10826616745100659
-0,18255745244520646
0,3187560609618371
0,39958462330935923
0,3479720354838653
-0,1050129364088299
-0,1708205476938508
0,1259283329775532
0,5010767456459182
0,09755078183605399
-0,24667200734608447
0,01894121663473159
0,04090263378850306
0,19656622030158963
0,11311140847969159
0,0033063047933000332
0,22514824593102578
-0,3834187110773615
-0,23153119407293948
-0,5052973489494803
0,025748149888965514
-0,20690275771695485
0,40104735776497624
0,37225739879296577
0,32422922962215045
-0,0751256430345335
-0,21025311074019282
-0,14614092925834124
-0,28255453587528573
0,03567648755775687
0,2898930915086893
0,2060175720684619
0,23942478850090587
-0,12996797035708751
-0,36521588933113364
-0,2431105778934559
0,48724326501625403
0,2977601688989465
-0,29395017041771454
0,2937330558409257
-0,18743713907743442
0,4894668403254547
0,26442789328273525
-0,07563175951448227
0,27010203419501627
0,06034197388455029
-0,23267874367791866
0,28260344330522
-0,34577871160228946
0,04824021832891007
-0,07140072422758842
0,4000333562651917
-0,06225410963226237
0,16276428212682814
-0,1330564095597667
-0,2152167620703155
0,06841902356951596
0,38589806188042086
0,1902663285382621
0,1920678439855156
0,16215599150642618
-0,08852803525903719
-0,04795357917650405
-0,018610771915435934
0,24691908879006433
0,3011088610412937
0,2020709172870515
0,16291049828698903
-0,012633655270273186
-0,16958046869800955
0,09778915853670402
-0,3952652789776905
0,09425625187009894
-0,005486271499857384
0,057476818129493325
0,4192579676645795
0,06118316182575863
0,4234233055185212
0,3101942770188673
0,46621572226419705
0,2738059122329113
-0,5056011923971283
0,026257507240900077
0,29145500091048804
0,08789259712092247
-0,45210493457481826
-0,490258110219691
-0,1680115875879747
0,25709533873542745
0,26245457904238306
-0,45587648858440255
0,24483572998356576
0,43464379119337737
-0,3270179769448327
0,49423151738540794
0,21672665206677497
-0,153886408710909
0,3979549681087114
0,20693322813343873
0,3435124869525287
-0,08727623494049508
-0,20117997530258386
0,1676663851416602
-0,4960196573652965
0,3612466146811695
-0,4014930420704679
0,23008175549115778
0,3120279174452284
-0,10947901987042086
0,27296408234432856
-0,3013520841813098
-0,10323453456467505
0,2204451338856063
0,06571285092199639
-0,4010477682304805
0,349156778451912
-0,24904997955687133
-0,11482388730130151
-0,1495230672934027
-0,3110237558807127
0,3659696920445226
0,08670470642599107
-0,5008722682880794
0,30253566531361187
-0,3157662803645377
0,08808706626314404
-0,31781827170988985
-0,17958120886593387
-0,18875832421982644
0,14007051717487398
0,08276254749304347
-0,01899685275545426
0,3282141274575563
-0,38947329367862077
-0,10238417235093492
-0,23658597181923585
0,21885454085871503
-0,19557730425813039
-0,24917915421762057
-0,0400215952213969
-0,25578653352069014
0,4634376629108035
-0,33037159422808576
-0,09590381103056114
-0,32177255145745154
-0,24071377676002648
0,08245381260171804
0,48963885217694453
-0,20635495221252284
0,42321012695425364
-0,06677333942047826
-0,07602303509740882
-0,20236379113279412
0,17936098288362828
-0,32593737347254165
-0,26584214146408663
0,5530790157934052
-0,20647709936290076
0,0296340109560812
0,45011800007195085
0,04578032483632996
0,46663427508453104
0,40910293504441125
0,0813171706657981
0,3198121445779062
0,1654327375413887
-0,09523231224392022
-0,3692138438891157
0,35274868924590014
0,07988696700643289
0,05842327175237732
-0,03428105190616109
0,22139713275735706
-0,40983454564884547
-0,26714597010283514
-0,02939515091496915
0,493263473709942
0,42719683202525804
0,26236913018783126
-0,05104040045300325
0,38922110450120906
0,07206559503949388
-0,20623440260596104
0,3107457525018585
0,4841714565899651
0,1161151454771874
0,4557652774536738
0,32435572229740695
-0,2945802900451141
-0,41339362169261723
-0,13434288917011944
-0,46825104023123765
-0,07806160263107838
0,4455622495644617
0,15463617900708101
-0,21463960039403188
0,5462152357647718
0,10732896627267634
0,4442005192546917
-0,03251499430028869
0,289512848971371
-0,2068607644886455
0,43513491679333016
-0,05019246892427983
0,3523878818268136
0,11251785940549526
-0,2756840027718312
-0,007317002309472039
0,016419298157407634
0,31316997368603566
-0,07543631375706723
-0,5252022907050498
-0,4597596481370392
-0,005201701535076854
0,030774684956108078
-0,4699762731978392
0,33271789567483245
0,3363334156979616
-0,20422259976625293
-0,10628210464987495
0,3662936602654015
0,013392923504801587
-0,14912626662657166
-0,35904214067935236
-0,10333405526799236
0,3635359119098335
0,13207233216582856
-0,31439323089994403
-0,32763131096076914
-0,2334160713069838
-0,028637110887985748
-0,4004914500444134
0,1847894709969133
0,06051417570020407
-0,21509750200113587
0,31962708759741787
-0,030682198130504268
0,3299990439392517
0,43229910546342715
0,28540734292447173
0,04083814448851492
-0,20205875625955294
-0,47764278577805186
-0,3803736245012169
-0,25892985880745517
-0,47246472178229376
-0,504060454133508
-0,45355957305749056
0,5330791739309324
0,2193888791688186
0,11689095507691402
0,42949532292844744
-0,04421966541154694
0,23644994198115532
-0,08901965620335421
-0,4469923836576825
-0,24611126063681954
0,018697782418011528
-0,06074350806723971
0,1072470133896508
0,23850259891195183
-0,08501616858568076
-0,10126261396969884
-0,338964960056175
0,2315192645772717
-0,06726830221697506
0,27725276234834
-0,3297919419470964
0,28586644762646746
-0,035624005709415395
-0,02282683342324075
-0,0005045423919093279
-0,7112350830951837
-0,41499367670906373
-0,11000845267470104
0,2098788644916231
0,07062288358830492
0,05754724429976014
-0,09895594668977242
-0,17051601408638214
-0,14186284513986425
-0,24788129649360066
0,03699322489756902
0,049162266168984746
0,24767910896676648
-0,33021090221474875
-0,2604846893820623
0,20323966297820223
-0,05201116030271996
-0,1789256458005925
0,16749494330527173
0,13946135287686634
-0,042115610516007485
-0,4053714250368321
0,3435441809379322
0,20771218877207004
-0,23932159655052235
-0,14875351865950837
-0,29254622320515644
0,05133467117589857
0,08034947762324786
-0,5248519726098441
0,02038742943352974
-0,1309627066338565
0,16909898826480943
0,5263565709749226
-0,21841458929154434
-0,2601316756670577
0,37687762373764705
-0,13122200967127456
-0,6018288473664898
0,12974706382455112
0,3050131500869999
-0,42324331904281043
-0,10450250768397823
-0,20192747174990736
-0,06748509417791128
-0,11233695528606609
-0,20850048993383177
0,33066716066232454
0,34353799050751466
0,1790082118189052
-0,27370795996473796
-0,4802490103934095
-0,030392013595230024
0,23495387695116077
0,36099705271239757
0,10656347495011391
-0,09158327166339066
-0,0215694853604405
0,05670930330965076
0,29814057185203635
0,16313184813680146
0,13537000434914492
0,2096453071162929
0,31761186287489596
0,2940620289220685
0,08987824699294274
0,07612773171449548
-0,23644194802731586
-0,13925121854750427
-0,5083164405241036
0,31737563216474807
-0,16562363658085458
-0,1785004235186678
-0,30700541887584104
-0,08344177874335974
-0,6359948917131376
-0,4509752489996366
0,03642481243224081
-0,3859507612649947
0,06388422884748406
-0,20652216263739737
0,1655305563710916
0,460560477280001
0,3400193202844092
0,33364545576382276
-0,04459544777118687
0,3862556636958854
0,2974917137443398
-0,3175407151217388
-0,16650462025050924
-0,08411881631818893
0,22890706248887874
-0,22212916294398277
-0,16627639980124218
0,33034067014020607
-0,4456267120413942
0,4291700910564751
0,17206050544292015
-0,38024350243588423
0,006650394103894495
0,633971528890204
0,3932438900299219
-0,1830441429765673
0,16972838039534777
-0,1998209689297319
-0,38687786187661616
-0,08484235477396067
-0,22001539441946033
0,08224559104620574
0,4264896751141486
-0,24605986980024583
0,2884088576849978
-0,07476511065528163
0,17915742906033952
0,1819982616711404
-0,3014117276297914
-0,21232720625171514
-0,14299468466034268
0,4809106480731654
0,43057717093919345
0,08041893808515065
-0,14421876079713597
-0,29770495030343297
0,4081169134822532
0,34128844829933064
0,15738667110799753
0,10367876033671271
0,012808659706910471
-0,09318667604547823
0,6013387052909935
-0,08216537048127516
0,16196484515249085
-0,2242737502405719
0,19292091760183683
-0,3478912311463981
0,1785392383198042
-0,06663306813888903
-0,4807830581832812
-0,36939181303338015
0,4765838872635741
0,14027886758989494
-0,34767081713491993
0,21136391689710488
-0,42023201661491416
0,4059757962277669
0,4248190799832134
-0,19328277219454373
0,20220805056884675
0,3469579986604616
0,6105927679899001
-0,5867633644773931
-0,2190327869364827
-0,06464767362769358
-0,5528127182058502
0,3287605925406395
0,184822810382904
0,17806363134526584
0,38617684016206993
-0,0633149195651581
-0,436674202682992
0,5248794873884374
0,11953478946609628
0,005174502042452826
0,023018182226727742
0,5399074407623442
0,060469045747402854
0,16878811159811458
0,1672856580197364
0,30989011713098247
-0,08563209457458959
-0,1594712181466329
-0,2156303701614695
0,5155416055171352
-0,049149798697625584
0,06895695055723167
0,3688855681281081
0,32506406317095726
0,24980067415125504
0,3943104347158921
0,2547911940496173
-0,12333343766695241
-0,19640884694945207
-0,33765032343819584
-0,4024646235079302
0,258126556837234
-0,10434379166451384
-0,5737559755609904
-0,3634460916667909
-0,0915737611957882
-0,02165237005215733
0,32534957699186423
-0,3316375283798183
0,3424103406755038
-0,36019633563656855
-0,17203830846512932
-0,3873581832399536
-0,3052790451742894
0,22296543492338616
0,017088949976729616
0,17361669078930592
-0,07878363618032685
-0,43188385014110997
-0,2216510015757145
-0,3502116450446997
-0,18417890231539674
0,4012307432447924
-0,46879232034976787
0,2728205319436144
-0,04918762510230362
0,7045509635284898
-0,1764477055324297
-0,10278322147155416
-0,25999291603562374
-0,16740376625425785
0,6798417553520909
-0,14414289102044675
-0,14900619049836414
-0,3006163021457959
0,1436400668229454
-0,2009770705065283
0,1816128234259738
-0,13118581671927018
-0,47907716233362874
-0,0618878205205457
-0,2503750095342852
0,140376723227791
0,3218843717685792
0,17756127905239824
-0,16168750864678308
0,16600108728857152
0,2688819216501366
-0,39315706711659576
0,17971276651251625
0,5081160856331677
-0,366773074369488
0,37107570163724674
-0,41312178123144266
0,23101359924141907
0,4833203674338358
-0,5991902399487318
0,28096800368711844
-0,3038002583536273
0,35514864560079434
0,10186908690060001
0,26488284467275836
-0,17176771607933
0,47969367595585455
0,24120237929541657
-0,421668938180789
0,3575482188103674
-0,21375753175088852
-0,20566353632526319
-0,41291876283919876
-0,1252604947794704
-0,20131452000429165
0,4320110873746345
0,26688562365518
-0,07711327666271625
0,026704031818202273
-0,2555563857012671
-0,18564201700877192
-0,5122065561921154
0,2785683520734829
-0,30256456861729597
-0,19822568616665875
0,336172538417381
-0,13936929211208904
0,32388090455265756
0,27812752601202073
0,2457736110934931
0,18338469177341074
0,18622265039543653
0,10509943957318227
0,24257867792037793
0,4762208133270466
0,44997979447347136
-0,14569828277036084
0,12050878583125024
-0,4462670335025773
0,5691758747204774
0,18965868433586375
0,3009698314403589
-0,12119773186056013
0,23635334303445193
-0,34616452697871253
-0,17020882871627677
0,051999322080672115
0,2692000563804593
0,43988086140924637
-0,04570963809359
-0,1933594010877088
-0,16313259767051236
-0,4809862268003533
-0,13256390619745753
-0,25776975305169775
-0,1728576172188512
0,0022968266717984806
0,6023330802254702
-0,27800413806949864
0,5666400471281496
-0,16116081383164746
0,1532297350425892
0,4413747204398654
0,16675006169252493
0,2098198974774396
0,23765177978455065
-0,43087994577952277
0,06712549671485489
0,30264023652750144
0,20643928377818396
0,40183088927327626
-0,1066577373825139
-0,046473572276200886
0,14307143488293841
0,3692500117861126
0,2103770494978755
0,08298498439503897
-0,2587768240335509
-0,26782404120341513
0,06363997417683784
0,33537329318489933
0,3839144498556002
-0,3306308062471819
0,2580648640029279
-0,19347355328464938
0,4417981197054209
-0,44861927131461204
-0,20048121900968563
-0,15124003162071134
-0,24132269033514006
0,10220307254495828
0,21175346260730665
-0,743919004935395
-0,24159309810975385
-0,11006834674140448
-0,3333858957561905
-0,4829356885397321
-0,062201978808417005
-0,6509745153426296
-0,3356456715347433
0,40936184182724233
-0,06305862502971356
0,03437146826906886
0,1859964376111277
0,2866498049423342
-0,43416013267965
0,2181281105454267
0,20642946295160713
-0,23950377794861735
0,17503719597241288
-0,07678800275448554
0,3387485445562936
-0,22156315622128153
-0,14082904617696815
0,17220320768569453
-0,07838199794137955
0,3494281875956863
-0,34093188300730837
0,6058700590726682
-0,30848502922040383
-0,30032228397074606
0,4532231623435994
-0,5520288992072969
-0,32799772794680904
-0,190139612498262
0,367756441106793
0,13862028073263583
0,45293299119117986
-0,07113160634940548
-0,047840151639655513
0,016106091561816624
0,2799131545610313
0,16117116512282365
-0,1039827535424797
0,34643652613171383
-0,2796581117866199
0,24296740124594962
0,3990111596657337
-0,16415179157876963
-0,41199421544130654
0,27635722916693006
0,2302406172535891
0,47673918992671627
0,2383340426824206
0,21485736354802312
0,1352341617381166
0,1344069453595807
-0,34668893426050573
-0,2434757578265083
0,08425109815868721
0,3452924729492391
0,31702141412214924
0,24294908182817465
-0,1084206150527622
-0,4490554255222329
-0,024176962785878064
-0,4408101877451781
-0,32207412354607756
0,3199005989659413
0,47122721227273384
0,2580015973853837
0,4062986814475636
-0,34674583343697646
0,20370774560686122
0,05491298403917492
0,2689834540257062
-0,15807322947465338
-0,01966281173699051
0,15288501297720042
0,1868345962789432
0,1630407158864895
-0,144890877041327
0,5061689480048902
0,19715366651764873
-0,311577444087599
0,04050728951564347
0,0822681179120821
-0,10636845347680661
-0,03172886898338807
-0,4204396846289661
-0,1772942407478253
-0,0642471057646777
0,08439314056525743
0,05730020440520278
0,5325533893790878
0,30215846038767213
0,2310224300999617
-0,008603418367705697
0,09598702870626974
0,25271839948761526
0,19917888467025346
0,5146584434127595
0,12219104994459443
0,04432397299061072
0,34170085861569055
-0,1562220054348503
-0,24510014325061605
0,11477982733193293
-0,5120571307151767
-0,06894144194509583
0,04136710141596019
-0,10516172386696575
0,17236089909549915
-0,4574829573344495
0,2370562759013639
0,28426551294195074
0,463342146007151
0,3660171555565445
-0,1561035360776127
0,4335825524226016
-0,3995923450805373
-0,3579523283216884
-0,08079767122218848
0,58461612242157
0,510376691686097
0,34684351011059095
0,22606123372953693
0,23795044121653922
0,02490001711242268
-0,07960063383063311
0,36116352523710327
-0,08794005306089817
-0,21296778568051122
0,22735097861881046
-0,08376849149053152
0,13120763301939917
0,22088005508186576
-0,03198601796128759
0,060743350124183075
-0,35064695986198824
-0,47558028035806005
-0,31129061103836914
0,14515031422681174
-0,044718670264615325
0,11981904891538582
0,3947695038398248
-0,25469396034748787
0,1563761144154694
0,42669429451592533
-0,267201243301857
-0,002885515475674342
0,10816433122926228
-0,04232254835597248
-0,06689126844815749
-0,32622312703195877
0,09073079961322772
0,14333028052399202
0,41564412390396765
0,03322331411363424
0,15584642793817804
-0,0755675055958878
0,12555772978662144
-0,02354347023718907
0,4251237427342947
-0,17718160055713875
-0,4316742848460387
0,08953049417951632
0,22531460468569536
-0,11785977306739612
-0,04328464787035813
0,32758984392798857
-0,4704614627356532
-0,027261371644548067
0,34564283005785645
0,4658491917224684
0,5290917315422756
-0,4297645247182084
0,2865182471569581
0,14340382538631768
-0,47565061899786265
0,21236630398198722
-0,14979573613648242
-0,09238940733177202
0,5397187323941324
0,07841476312476478
-0,4044297785267693
-0,18511179109072065
0,2042968691865727
-0,015055591925853441
0,18201752217825762
-0,18653447712506901
-0,24536879929761143
-0,1606998688062242
-0,25235277843502085
0,16707123268796953
-0,46244676546456126
-0,4031240725928355
0,3298560317246784
0,2893687798454354
-0,023568104707533177
-0,2007232174941587
-0,1982675391942947
0,22383199182027502
-0,24951160514858853
0,3854532658565254
-0,020874858221224514
0,26960449019959287
-0,05595464408349454
-0,4934029939963938
-0,19762052184491039
0,24067753935435574
-0,44899082306489074
0,012153295677070658
0,13595185106727
-0,27711608607117316
0,21228069058252788
-0,1885987360170031
-0,24648103652329195
-0,06984240934034025
0,03066781669933242
0,5412727484209192
-0,23075966252089228
-0,39192161922310637
-0,051841782160723215
-0,0686182796203144
-0,08950502772547546
0,505601302730015
-0,02383908674888222
0,2670531650487467
-0,38391904737802135
0,33577017408824994
-0,03543915552772055
-0,031217396512200235
0,4583034572754456
0,1336070153176784
0,30241554478202926
-0,25229193944138895
0,18475512422806056
0,09085773046337138
0,25009729054087027
0,503327809041138
-0,11005521385591542
0,44471608437463633
-0,08139931862881858
0,25301580830958587
0,2935520016733971
0,3677249557643592
0,17023466825846834
-0,3860660861610604
0,24478578680799568
0,1721975868024648
-0,13170021644168742
0,4863539904188248
0,4011938141344266
0,37337359007055926
0,3542159398983579
0,11181607903259305
0,12130895511859964
-0,09139915444359693
-0,15142760657951554
0,028765059694600484
-0,4329556666901531
-0,5595806587367659
0,17621688862671128
0,3456303529565561
-0,1239505069926371
0,13035350697855522
-0,3029350745295244
0,4008200277574987
0,26343019504710685
-0,39089249475065885
0,4401404917553769
-0,013800394336825882
-0,2385813794955158
-0,4159421813594807
0,419518467937306
-0,4133377405658123
0,4401071710772092
-0,2680909653659948
-0,36879125023505466
0,18241544540331703
-0,17437729626994425
-0,5000231962320494
-0,3167141225500606
-0,12092032677365479
0,4059857985408155
-0,09916867332842288
-0,44149594378277185
0,2890696504595194
0,06175695911677409
0,3887797767885712
-0,2491607576390169
0,4196425903755483
-0,06469675387001658
-0,36818351545880657
-0,3402405229102671
0,19240623631534123
0,23440185020751889
0,16543655193247064
0,2604434327263955
0,22257028162655768
0,4694480827310743
0,13779077098013318
-0,5006503348264981
-0,192893950916415
0,31741495042056234
0,20658784858275536
-0,38243818945908375
-0,394523313777506
-0,2477170722328087
-0,09685006966062595
-0,25558626987948035
0,0893903170767175
0,26913782256742885
0,193374406801011
0,28159873849350725
0,3537947377119897
0,21110314079706208
-0,3024250272143009
-0,28091950758219886
-0,16782111906074218
0,3524593231808857
0,3970944687479178
-0,46367844868890085
-0,07849636960746524
0,12808424172158062
-0,07426892042039086
-0,017166351050318863
0,09208434957693752
0,1874422561575935
0,3376484456895221
-0,12844188334466733
-0,15670346958713666
0,1798362635146313
0,46056269704759867
0,0016305246055821974
0,15164378510169932
0,3527721803456478
-0,09861103068691177
0,24771232389204126
0,24039720873733317
0,31593226266731106
-0,01737467645935023
0,3176869018309179
-0,10385936993370125
-0,31748078434234983
-0,08568722498972532
-0,4043715376161432
-0,005106878629770498
0,37510445593060815
-0,2578047626234369
-0,21917154068452344
0,08998323832425636
0,2344749563861746
0,27366779529661006
-0,2305624557469607
0,20532657802802182
0,30825209987009106
-0,11690140196936384
0,21250761610436492
-0,4363218833103782
-0,43371295641601104
0,341110148800751
0,39675789288301844
0,2661198408102696
0,1304214179121041
0,5192718847543957
0,1540470350257893
-0,23324042152767166
0,6066347919001835
0,3933272976802856
-0,13950400125105752
0,36780162097900837
0,05059798317096614
-0,1538197755291869
0,09891508022201148
0,07518130091046502
0,24066483670952016
-0,26197039990509413
-0,25918250540699933
-0,5498595150914699
0,3333127662755434
-0,30285316773498044
0,08333124912048923
-0,38463538677129394
-0,1614069442535301
0,2526508429128561
-0,38922528717860716
0,0151431957811679
-0,406800523685291
-0,14691234965012975
-0,19607675442753758
0,3857130062710393
0,365180743993313
0,3025106542125427
-0,34785076270774046
-0,00957778632676028
-0,024350601325901583
-0,4112787126905154
-0,23610809450874842
0,4061343971150793
-0,02865580604585695
-0,4304152994352557
-0,10316932188390791
-0,2217004865833003
-0,31332943493874477
-0,3598210519907693
-0,31259399857671827
-0,10482519281002813
0,18301026913305904
-0,5043440139579146
0,3756221607631462
-0,20229833715074502
0,0029403134625842204
-0,07476207577718291
0,1852990515580463
-0,537667085029548
0,19088746852613792
0,37829430310426976
-0,1662386298639316
-0,33963781458019565
0,42081786427147194
0,02435368599201419
-0,4482864720807587
-0,2534107640614488
0,197852877612402
0,39723825186669304
-0,2356042933889878
0,019686878658652485
0,22372712656381008
0,14690407718492388
0,13270053894578313
0,10847655991904812
0,602105637326468
0,1118442671120678
-0,30822740109297114
0,25316991113313686
-0,0861921588178564
0,004734305506265571
-0,19770359241017307
-0,36515803720887047
-0,13626964949156517
0,07348713636639029
-0,2978044348004439
-0,17899445864218563
-0,2410489140515089
-0,11854967734608418
0,12695741935792876
0,05212608287508726
-0,20552386961756378
0,46902211801141475
-0,24088576670485481
-0,039544153862051096
-0,5002873569774465
0,047633398589352255
-0,27023627694400487
-0,3630238836966621
-0,13149850926847867
0,08303249015763099
-0,01722306066417448
0,08828187357674085
0,13935868661195758
0,34631157486832426
0,3086350021649444
-0,1619503671531549
-0,020004173212648784
-0,25751173626060453
0,0635625217261101
0,012525637710397533
0,2899421480441282
-0,04384018104385186
0,025517303528064524
-0,026435332302776244
-0,08157321290331557
-0,01713609988086522
0,36080436877498967
0,31032098452293655
0,07196760901992427
-0,46629744791969324
0,3769903768886868
-0,024203355931761768
-0,38289511222059713
-0,005016156754836594
-0,2198187007604319
0,08542235888567618
-0,4720853742226443
0,17708074669226434
-0,3582551621755605
0,015860673341458867
0,11702509828082235
-0,3129099545160096
0,27856237954704444
-0,3082159711203916
0,37938614344323973
-0,25624900016278906
0,2790815420258303
0,06804571499078485
0,2558673886466807
-0,415039944826766
0,05660422101369236
-0,26365515554747704
-0,2789011798244235
0,0694744708158546
-0,04845903177041716
-0,08221957808053128
0,4657549639348442
-0,24828179294986846
-0,059800393136692685
-0,32199565875290115
-0,404650927782517
0,18483448799626398
-0,42358330400745625
-0,2151559819727417
-0,43242281539844335
0,4615966385646347
-0,233691909596868
-0,02122493423034621
-0,10550627817290112
-0,05878634598229069
0,44037092091080354
0,26386963410055075
0,23800627254802265
-0,1461257671325999
-0,3331066865851495
0,4304727671738277
-0,06108923818719319
0,502768520641024
-0,071182930531296
0,32803916543141803
0,3874577299496003
-0,4616024665576515
-0,27437142094617
-0,05311775474245034
-0,3221508496223314
-0,38770256674421866
-0,4808142613634861
-0,5026758846322037
-0,05111424640725761
-0,19616043854346357
-0,39482396678272585
-0,22920852457553695
-0,08241098440232181
0,14232783543896196
0,3884540283709874
0,10429326082621862
-0,1984133962885565
-0,3089660376034212
0,31916506622977125
-0,5841706196031686
-0,3697033016198023
0,40894379206293613
0,19221939567829674
0,5431798236174347
0,40047821286693897
-0,5436592331472273
0,03928346110818901
0,060613177452969236
-0,427040714067929
0,12314535159652362
0,351519642137924
-0,36688852526723364
0,17700859842840866
-0,28276398892392124
0,2550456984564129
-0,3024986859091142
-0,13592540030514902
-0,13086300742041157
-0,046772273760574544
-0,2374322231647256
-0,6364588965999809
0,12455078888636342
0,3792006421026867
-0,43536445640521254
0,11806522751967237
-0,043888670814912774
0,1286459453044104
0,25619788354232714
-0,5439147742581752
-0,5703010701198125
-0,4979563144663465
-0,49955606325287144
-0,5118403483962186
-0,250585911222185
-0,43540458464533477
0,2031019425200327
0,281886010451878
-0,3536093458654005
0,04672323198575572
0,38519102611299194
0,30167775125232804
0,17699341826577258
-0,18744693440485782
0,15852007521953326
0,0633294936727297
0,17702871743737586
0,12025529151072327
-0,5954829782557053
0,23480427870987222
0,32321009397694267
-0,3321562306323862
0,16512392811303256
-0,3140381324536245
0,009488848010008747
0,45530280833488646
0,04589650702595513
-0,5191997335402319
0,05583896560888507
-0,2379081650375637
-0,14301470658490192
-0,3469060378418697
-0,3943056562962233
-0,14498209507596624
0,11781936906688047
0,2059137661485021
-0,4012649118919683
-0,3719640334847231
-0,2425674660865028
-0,5494526566130065
-0,10606808955876176
0,10998211788188941
0,14197655223447644
0,06588989773132586
-0,5161540680469093
-0,2137198766591695
-0,08446184935722745
-0,3571864856674238
0,16131217830629868
0,040021851595098065
0,051880404898289385
0,08252915891697546
0,36571023466439256
-0,1380299717994826
-0,398087804571462
-0,5870294401693518
0,18373995110973768
-0,08743060981015893
0,1775500603660699
-0,24733588817667984
0,10186324525207296
0,49234122052590484
0,386136528209507
-0,45843630789287076
0,33156602894395965
-0,015201969772501269
0,257006408061784
-0,4001813963111263
-0,14799197052671131
-0,13807498756981706
0,3426367898821967
-0,22092988939926536
0,24518023865498786
-0,23744245661281657
-0,31576563428858895
-0,23415092250869157
0,5712956154794514
0,08390365569770716
-0,3402043465250556
-0,2054269196049703
0,5059866607381834
0,16726758266833328
0,5496553475294965
-0,13943527983954485
0,22153429140600872
-0,2744354609777886
0,09356993301401391
-0,21534712962871505
0,40313599040814896
0,3871750490688226
-0,026658625939053965
-0,28165354621692373
0,29513019367424803
0,39318618582012776
-0,07929083179716634
0,33592585809611375
0,48620097866383727
0,4523625433417057
-0,009364207832452514
-0,12950884035077873
-0,4532773800563737
0,29113084122034505
0,19146304936530428
0,19023102846972081
-0,03122084456450193
-0,2876866282206244
0,13649467592825212
0,09197881012930605
-0,27331826192087305
-0,4914330152027164
0,35560896612559734
-0,19121932659361787
0,10660153947519897
0,33733676979815413
-0,06530306273445122
0,39859244070261773
0,38560147094600666
0,15387605281286293
0,4132835310175753
-0,3799475101008034
-0,080541572199913
0,04768952411317224
0,5346218583145584
-0,3250545491574129
-0,3473732576119368
-0,3835514005207446
0,2524955062673057
0,05125525610797989
0,20847486913680754
-0,3645741580264281
0,1696441364057224
0,3135317908768773
0,06897391661583183
-0,15854969683499104
-0,13620877131175527
-0,11728921108568278
0,3641989253365615
0,3707520547363582
-0,4500427407833166
-0,04277518579031868
-0,4620178857210491
-0,3594497183858157
0,25631604086125115
-0,1330506407274957
0,069398140204409
0,29102199516524846
0,0822047189023682
-0,040216708317527626
-0,3099517395765667
-0,5256328964310646
-0,4661112351697097
0,1741150590142192
0,11539521785802391
-0,39707394709438554
-0,48085394983809815
0,14347135465873773
0,04699788369961148
0,44347165117023013
-0,24140708433455904
0,1579414360117252
0,12039799834392285
-0,3011125365645679
-0,5146702987289105
-0,41661818168931164
0,34199805275992967
-0,39529753868216067
-0,5315641072369874
-0,042899380681736744
-0,43926047612952696
-0,3111552706187068
0,05572500163773388
0,39294401420828096
-0,0413108013258835
0,4378013173744438
-0,4293835658448827
0,2414332176676356
-0,26585571775556327
0,30323753538219106
-0,04900039945844229
0,035463576378733035
0,16955986933386288
-0,0061420274823286
-0,045782224331304223
-0,3221194304761787
0,11401875095053829
0,24857382597944674
-0,061676671216591504
0,3365903177713017
0,462052246721812
0,12151799112059962
-0,10742056310673162
-0,2722631144866136
0,20772749259576787
-0,16379331347253967
-0,42529813864307475
0,1455673346822689
-0,38974467773728144
0,3139035688730436
0,1177046320311777
-0,28908613271335903
-0,03207339054685812
-0,10365752950599672
-0,06077142861176966
-0,47539525223890405
0,11082069425529992
-0,4289237837565531
-0,10285712331380502
0,08607956760518999
-0,38240235932747624
-0,29322202674080583
0,1400172003594349
-0,02501155727345207
-0,07761187198357884
-0,24837144528915958
-0,19244574772549394
-0,10026643891352374
0,353598317043158
0,33045952481240043
0,4401043703652057
-0,28125415752259747
-0,2151764480919563
0,12886265473821787
0,2622707052847571
-0,11235725797588504
0,13140161182952337
0,3716821469412953
-0,11563525022990882
-0,11766499091044717
0,15289005488607746
0,49857646765632985
-0,23932489445806146
0,3173349851661181
-0,14740769757622985
0,38037544716078087
0,03569363627850898
0,08770850896127805
0,38376121520340345
-0,3403842920753665
0,18981830108274308
0,29247621329943796
0,05796145450727916
0,24433035123013233
-0,18234135495827988
-0,2769620415069005
-0,4487098549003607
-0,16153100191472294
0,28014797415609105
-0,34992817739484144
0,36766781304634283
0,5451611389537838
-0,07692348185131191
0,33554166073529823
-0,564372544309001
0,05279812860028001
0,4718014173889746
-0,504536389249846
0,015301103102690986
0,4270214704213332
0,20126713127489754
-0,2356824683256579
0,08160298906841855
-0,2738876897949689
-0,3926001350304505
-0,1931269938449974
0,5496523624770874
-0,14153836833315261
-0,375495368419821
-0,5624831509436609
-0,30952318305900833
-0,02866271961981083
-0,5000221517957835
-0,16070794051657555
0,02897641126556107
0,33484387998417764
-0,42001424619454886
0,4397905070994584
0,1730149357888794
0,13455048748042603
0,3252128009686791
0,30597220846128415
0,6215100993135921
0,22264172806920166
0,3208265884969178
0,4617523830214077
0,3085212478427982
0,0801405405432649
0,003222858328236947
0,04804788368102409
0,07741067319903601
0,49936261742168686
0,05032779916843114
0,023606511633700516
-0,3278524071035381
0,1358673886427696
-0,4222840399140469
0,18579794334540575
-0,02854613622821846
-0,1643894616518599
0,007516000094555772
0,5473239131699725
0,30148130719100563
-0,23912451691793637
0,5057555340959832
0,2464802798167061
-0,10119423793204291
0,11679989906743696
0,07422639198208862
0,15006233070039582
0,4971928277125629
-0,5623382083633466
0,20393165559854376
-0,11338395372423846
-0,34425946631932836
0,43758783910182114
0,37587942388634243
0,011193297266817814
-0,3526207404521442
-0,19888386248792372
0,5114537931109104
-0,05236196656816207
-0,07203408020389304
-0,19269147318880453
0,24598279054825506
-0,09222580887047883
-0,31338061847319326
-0,2291887592515597
-0,08071226080445895
-0,2971522153121141
-0,5180959052480459
-0,5400177127562272
0,27791074730017323
-0,12093131088720527
-0,11246924791156152
0,04567225594806474
0,1788046694635668
0,37582318186417
-0,4043763464521638
0,2799322337909208
0,0557529884517065
-0,2878762208928772
0,6390511423722133
-0,06749034603984824
-0,1048794357119307
-0,34184351648205
-0,07502087697574786
-0,1114076579508556
0,3752792388559173
0,3537755202059363
0,4568429063060554
0,47421101792480985
0,3289639953986822
0,32472232406901835
0,40870125158905696
-0,4035542030198553
-0,18679754999132755
-0,4356954474636388
-0,5523253631476515
0,06425962890877866
0,3235700524573033
0,17888443590539402
-0,1209411430816865
-0,344467132179361
0,43982680086174286
0,15661667006880844
-0,1055037046088143
-0,1283989613009769
-0,14108806035861998
0,20333619777035608
0,0869950751082495
-0,10703479591120046
-0,5191253194868585
-0,5894976050980187
0,2391814669709611
-0,4724190091118084
-0,23159575451236664
-0,5616854934587753
0,23864260969931966
-0,34192233048790255
-0,23736810530051636
0,10859204025411652
0,5017556571362395
0,0014363425352147846
-0,14456630199624126
0,5493014623012314
-0,0032088698323523464
0,2998131301618983
-0,10140244339285644
0,06640785697237564
-0,4137976838551105
0,19893246709501758
0,026138966261171064
-0,15262247346744853
0,4497936525317353
-0,1705988404516043
0,21515587464483943
0,02624043731948428
-0,5174723580976872
-0,3839197454642215
0,22608273025267897
-0,11596013124902933
0,49772078519507124
0,060186600289288884
0,08321120572019308
-0,2083828867941905
0,3184893644320877
0,2726396744851367
-0,559771831006595
-0,30314423171418803
-0,010651648651600162
-0,056086560946816584
0,5132977694829014
-0,30116304281549766
-0,42259280469212945
0,565335458211115
0,046117021753213645
0,14997716808908212
0,3663875267480615
-0,21009136747902
-0,30823123683323556
-0,05524316602650461
-0,3348467037009968
0,048402859080453574
-0,2757520590107507
-0,21461911312928675
-0,2651453690294934
0,10989245105351289
0,1174363840525218
0,4052348160159731
0,4284282437356762
-0,003209279704772838
0,4559215236838192
-0,2953340884693901
0,3978608133602837
0,05957955710964566
0,15463061259905178
0,15788365683185637
-0,23804150431601
0,2039100606403838
-0,30098410422119376
0,3646301719390746
0,17039056281050685
-0,400464014887648
-0,11116839815540275
-0,4338794009947502
-0,27408102177607113
0,49919104262474434
0,07553984992342981
0,46554118659713895
-0,3203630519793699
0,5855120055120954
0,08244308523437352
-0,2251400619783918
0,08818130952100914
-0,10710156567235193
-0,3726324517016596
0,21302595533827776
0,473673859315343
-0,060354052640555524
0,5111515002134033
0,4751952136119196
0,21405301621827974
0,452525814634891
-0,19258389246431426
0,15270306541717033
-0,08098855742907816
0,4661043722192415
-0,30410831849780895
0,10573210646758946
-0,24470306647105813
-0,46640756935589756
0,41577223805366875
0,17996634973341008
0,37982905418324275
0,2950093750234302
-0,11528511107939751
0,18412348499748712
0,3327723995305294
0,38203083416989847
0,04218089267416714
0,015566793760620557
-0,11827019428318805
-0,23822795448676637
0,058085318107127734
0,09645990793137452
-0,4109944123979485
0,2462743226326233
-0,42667272206153833
0,4164537389101434
0,3720147741700882
-0,1309729094186387
-0,017402351379001278
0,3352805825712395
-0,41901561381300967
0,27316747936327423
0,02170171419079283
-0,6916618458514968
0,26750071956320104
-0,2233735048591356
0,3248598160128631
-0,2988991342072638
-0,13780233804717384
0,25225976206062234
-0,5725616612768363
-0,12945229093077257
-0,3697534270424827
-0,12424836057040015
0,3388791044735511
-0,1877113827597482
-0,023862350112034404
0,40428661729148424
-0,5001397146805434
-0,5788982508513815
0,057296483755213595
-0,07066599624146407
-0,26386235176968115
0,1672415403964738
0,2545048849287954
-0,17973854555472873
-0,30177294149987954
0,28084991738565085
0,1265205069227845
-0,5045614802370135
-0,00615859589365074
-0,48244414593232865
-0,34775252957913616
-0,4353775107478345
0,29332398356207406
-0,3755590975145571
-0,1966372944244481
-0,5004778068142642
-0,32970388371889864
-0,5133612688831755
0,42816685492030443
0,04440980773136901
-0,267448903603401
0,03744965316105402
0,03148192549285886
0,15593901568859436
-0,45298804558265615
-0,4755314009825432
0,17229636565115322
-0,4080860087309959
0,2587113526171415
-0,19734070667112324
0,20192431694162494
0,4907799311626979
-0,28535365283785036
0,3522911945390077
0,13308682709200445
-0,06333476748120699
0,09182768399238425
0,30133288280794784
-0,16115661614462054
0,19169009621459435
0,16331754603538573
0,4930455374551783
-0,08218606700816465
0,3300960422079503
-0,5975415740516564
-0,38499643925949656
-0,3868915779567961
0,36089349326055964
0,3641372572821126
0,1205649389145063
-0,16588247954754048
0,5145055242385819
0,1177056129852537
-0,432689760075904
0,29804065402283436
0,4835187033163824
0,21796630034895983
-0,042436162574137404
-0,15099377328526756
-0,10474057872775146
0,12427838082969254
-0,015559792505513472
-0,48427214029716037
0,46960780202587193
0,11257458906223343
-0,47336861903606103
0,36045083011375445
-0,01276479064055104
0,3456350504726393
0,51765702733041
-0,3320798224869672
-0,10058032940499773
-0,15682457783117237
0,4882537286056664
0,23886784946770706
-0,41901095279897643
-0,027658314873414087
-0,47817389606586924
0,42220213965874087
0,17870678238174048
-0,6060087489905563
-0,24991932019796181
-0,12514691729142596
0,1685205034487861
-0,4224647983104609
0,33468008926539783
-0,23649676862461178
0,22349730500994355
0,09146284828278921
-0,026349747090435357
-0,41749361029368914
-0,12846956544636576
0,2725734541596362
-0,1350303178816166
0,25486415886535174
0,38621624294042445
0,44552978936764914
0,15221075655068883
0,2571884157297828
0,17307245280521577
-0,03739457535877448
0,44406855459472755
-0,33465608553303255
0,3309371478698481
0,2445056077955368
0,06664419703527166
-0,28777226439373615
0,28138606413896206
-0,2282134862261551
0,010511977923875045
-0,03730071054946729
0,14597306718476097
-0,18122505477373563
-0,06554911480063538
0,2518351121206955
-0,01589618526664303
-0,3835256357807271
-0,22164298463680934
-0,20912051021588593
-0,28841007749534175
0,057268379333620265
0,4613372362110455
-0,11366574665616686
-0,29556674394863275
-0,3756912195795638
0,05950011928223463
0,12018654985127981
-0,3169125290878149
0,2627108297786793
0,025292723482389513
0,0036373962414731637
-0,1495615686065181
-0,4059864424262077
0,25176877200027536
-0,4283720715426294
-0,25752634519139583
0,07920509154271343
-0,007167076489436523
-0,45925181044050667
-0,32579121761666513
0,022974543323282345
0,4454743911839701
0,41547946750148457
-0,19883858118255499
-0,4289327247759361
-0,06975241243242442
0,3796787147032564
-0,4138374866574058
-0,03662769552095376
-0,5329211316562064
-0,33310031816867497
-0,28741060027817245
-0,09252646390436212
-0,008413995664696196
0,29557513892657356
-0,15240230621742748
-0,1827981029107813
0,21644855180662342
0,21869730304205065
-0,3547167148453676
0,11119920741617054
-0,3831449405319812
-0,2547406189638488
-0,31486019195793136
-0,07734517478985757
-0,14290516953041743
-0,18195706832968636
-0,2648887763378312
0,08284364007204555
0,10278758156918545
-0,29316271735245036
-0,22050549573961672
-0,32998600690588137
-0,29162011939400917
0,17627157817367542
0,0909401255595348
0,004261648465450127
-0,34845494350367084
0,11780451753721026
-0,3723067094320371
-0,41634735347347185
0,0136692649957502
-0,0084108999103631
-0,1784654694503419
0,23896602011510448
-0,2350583907369472
0,26796892417890467
0,20068996435049327
0,3460746647928646
-0,20109907245187694
0,03367198824742071
-0,39077258821355704
-0,3708600802941054
-0,20621516107941462
0,3576199073607816
-0,3576558602003425
0,14997642858816554
-0,024200180131078868
0,3893169545415222
0,18389509449631675
0,17991679074837752
-0,12779096493970232
-0,18368252333347218
0,14323496972645092
-0,4722003341786812
0,19804726690964183
-0,06862995420903173
-0,3162458913468802
0,1064870501860428
0,28219421989451915
-0,19717514527590393
-0,3857286825401062
-0,16436934938063166
-0,176906220348872
-0,42163377377892663
0,3456180872801569
-0,26651820720377595
-0,325079310093628
0,33806098336045726
0,5151993904531061
0,4866750177983961
-0,5735278606316131
-0,1297425393790811
-0,35928755227115927
-0,002889594304870909
0,11082891382929984
0,05369356369458062
-0,5088280311841613
0,2940001348156941
0,35884176443817506
0,16094056038188526
0,31293338766145645
-0,24741427129269986
-0,2494188551924994
-0,16798293158677716
-0,10517479700505833
0,05147551539394815
0,043491120906890904
-0,10708646910559835
-0,2287251262447239
-0,006213856546357878
-0,3893691200221797
0,09860271839474327
0,3274658718122019
0,23600850425888986
-0,108050636183072
0,15002673321072327
0,1765808632933092
0,12544402102897995
-0,17898798416955575
-0,09185704168113373
0,45932905637104354
-0,23416323755131918
0,0819242618833044
-0,3741158677181795
0,10001484887687447
-0,034535272392533956
-0,14647732618592268
-0,17353289348070167
0,03994550069885306
-0,306110979150916
0,4037729969338996
0,0755927852169037
-0,2571892450657458
-0,4238708203890668
-0,0663421270312471
-0,1848094451737275
0,19620829020287595
0,35009530802503847
0,14521013697215968
0,21876820490764912
0,44305214220709055
0,0170594886774837
-0,2502703932105394
0,16758851037414027
0,3357296811856076
0,2271734464815889
-0,26561115299986476
-0,07017234753452758
0,462109154057766
-0,4833099000725355
-0,4481309740197501
-0,2662938197764806
0,07098803271759332
-0,46115368647242894
0,1282824972491559
0,07776614921078868
-0,2573645557368954
0,06625056162852819
-0,22201840342878137
-0,4083056907286933
-0,009105435913339914
-0,07629963904492114
-0,036082880426900665
0,05682040251840726
0,21060697984677776
-0,05223728541683344
-0,14757961378068113
-0,11450321330283705
-0,18469831191137512
0,39426277936022175
0,35855323150279633
-0,33596440984855264
0,38125975047241484
-0,1361897627018218
-0,5043780871228927
-0,026222506437124846
0,42857861546446274
0,2417875954914044
0,14553408528999276
0,004834614891427865
0,09967218209098998
0,13718398880492705
-0,25221655468671655
0,27829848924492856
-0,47453272257356405
0,2247173302930516
-0,1771455928398575
0,547615788045181
-0,27638380040483806
-0,19150196905323377
0,14390760603250208
-0,21886350884420497
0,3591419831267954
0,21093807837039866
-0,5387745152478335
0,2055017158188718
-0,09874065773425111
-0,004353338334624663
-0,016764476280102497
0,08680315442520727
-0,39886621744035583
0,03560478229667383
0,08767669167380021
0,03173895941373051
-0,4304837155429026
-0,24467694704803067
-0,16827384543546778
0,2611115768509495
-0,0604950279220037
-0,04632662459919872
0,42989974248653007
0,24298546609569188
0,302154956371589
-0,10803044750520595
0,14576413938976135
0,009638885000689905
-0,07120628258299205
-0,293594510698386
0,31938802394784693
0,6147638694032702
-0,300585773465793
-0,10862878286411749
-0,17295360752196806
0,1385127688257138
-0,37026414504162974
-0,4047047521500267
0,18512588865120702
-0,14344796908289736
0,11547229017642449
0,17711103996307945
0,2529040419714456
0,2182233957473871
0,11254767624162296
0,18487588651751732
-0,3059089373826186
-0,303043396361209
0,14161779852395054
-0,08294432540116087
-0,3100163600105725
0,41426852846116674
-0,23196529361658477
0,1334624909070107
0,3855442202692071
0,22675647434483898
0,3963424239241392
-0,24734752754958708
0,2224012412140745
0,3590709541970031
0,48411397037835296
-0,25639403337898253
-0,027434267949655124
-0,20206813522899134
-0,20445849922472867
-0,5124491828327765
0,10522829841485526
0,4390477238818638
0,40137617159769684
0,48049473938992027
0,16046903091514825
-0,2346425576768116
-0,11514260950417637
0,10291289598987388
0,18400125114504567
0,13344945475797843
0,22191435242227905
0,44798575585392025
0,3551737215276133
0,17130095795748723
-0,2474364997648496
0,319071669246906
-0,25148424106257017
-0,27279168304977847
0,30149855019484284
-0,03644790128219955
-0,3901749638970034
-0,19069297297227908
0,06892786347907592
0,434064768821095
-0,3780239174518874
0,23886027741890012
0,16334469379478758
-0,08156330548593214
-0,021999043326857034
0,3344943248371396
-0,010493798723610689
0,06632538470086398
-0,09037864098761657
-0,3947258531550351
-0,4869479466751083
0,3119174820442812
-0,3590606994185751
-0,15745560623431745
-0,13830414906673819
-0,41747123250599977
-0,012978938464941855
-0,39400242592680007
0,3265363975013301
-0,22049701707365804
0,05136132572036913
0,34938416490934476
0,06572770250878031
0,1698669930928951
0,11056864034023658
-0,2679811239044979
0,40585139367811107
-0,4787565068510883
0,4579950966167826
-0,45382829148290055
-0,1476824282283171
0,24630821528757607
-0,29943362396903833
-0,00419175021830985
-0,5937121008484173
0,3645854686072767
-0,23404951585024117
-0,15966781150596815
-0,37930038098463825
-0,04131479515100898
-0,5331887693416738
0,08049486272882254
0,0882366665307711
0,2103249756079604
-0,6109742223264691
-0,24126911871336382
0,19053972601227628
-0,08543433240834555
-0,22023424523178303
0,1900001745892632
-0,251770324221479
0,057637861040519274
0,1527760355362151
-0,3115326457317205
0,2042839228034238
0,06831295332395046
0,07159638184284146
0,3593219766182446
0,44980911760810754
-0,260184515585826
0,21505114385482457
0,5092929446168358
0,2550857389004963
0,4569670478993631
-0,33315332680940835
0,22272299316579838
-0,07692314041735973
0,2248534131948433
-0,24287925879253647
-0,3942206897487783
-0,13966885092567224
0,12168439619983153
-0,10091368549051954
0,4531496428071744
-0,16743074427599372
0,0916429045319087
0,31212486883256
0,32067982784274696
-0,18601267024943752
0,34627976540005767
-0,40904712739080473
0,18138116400007404
0,45315221683225654
0,19232501018209355
-0,3121651205030918
-0,2866386674352639
0,4197189475015946
-0,010523998103540112
-0,3515025231581225
-0,4052893590130613
0,4066329635930736
-0,31282420031868
0,4562818584371404
0,4460810670183204
-0,09626494510384465
-0,01698011159400264
0,35500093514133085
0,20943843235263188
0,48557758311593113
0,3648156270465043
0,022690533173709705
-0,2914710184838286
0,20807657037306782
-0,4674607232113511
0,02750468185908784
-0,20641742705347602
0,211750377117427
0,20493433335891725
-0,2712844855588512
0,14599305386460615
-0,11502166002936483
0,18075883352975256
0,3752186959827896
0,5357955047843234
-0,098265370914611
-0,24400405960853344
0,05647758199159349
-0,12523049505578743
-0,5612886631059136
-0,3301522586181526
0,5030690866388159
-0,47569210828646324
0,5201687400591052
-0,3156324500083715
0,17966503969325362
0,037006624957556654
-0,22282932713596362
0,07284317428855486
-0,03418998398818587
-0,09280788787637838
-0,3099779680066144
-0,3192814295776093
0,4917923853543919
0,23472242172069036
-0,05498249222597086
-0,038626506028161346
0,5354888158517045
-0,2031910071423242
-0,026742300498658104
0,22062099249671124
0,5529456722972987
-0,11297083131495184
0,6416739788887784
-0,29313955662233276
0,38583749135253786
0,24161060940238657
-0,25390131435836905
-0,06746022892732588
0,14228318446982782
0,006716110671566036
-0,44505147961197833
-0,1857453748385621
-0,0715222364876295
-0,07041680738799261
-0,528912259556822
-0,18472682871460328
0,4050179832501598
0,09063580318125056
0,10436894416356456
0,07909067897907705
0,09369992651689463
0,32029444106369104
-0,3379687280719644
-0,41465668144238765
-0,4220372508119378
0,048246671217106574
-0,43501168307731586
-0,24265205450662067
0,20881841642521887
-0,6693888719966982
0,21678635921571227
0,1943285762554936
-0,5728293602249291
0,018401905647188202
0,08053385042068896
-0,5810946989646542
0,36751080460351604
-0,44166703552874226
0,3128252112116534
-0,2855669890649598
0,30150042109013964
-0,6630757131467802
-0,028861627731972633
-0,4129922718465013
0,0023839821622005128
-0,6193169310706771
0,11195458410175968
-0,3663765364937842
-0,230130926504424
-0,3930415395319675
0,3280373577695897
-0,3029118150618723
0,19179763943341274
0,06823091668206901
-0,4402834706468755
-0,6006917427182067
0,017506300791449755
-0,5844377676493991
-0,37814281702522934
-0,5928509889491015
-0,16546742728990893
0,37860551123069947
-0,5975951157298247
0,2904488610158374
-0,0040421781698008205
0,05120071532759449
0,11187527611445557
0,3296926108650568
-0,4449130972551222
0,06284040705222327
-0,5062990211727366
0,17749700535381155
0,07982461102813262
-0,01906227082019953
0,345161654295278
0,01216700679224458
0,22878152341031738
-0,24946803326011602
0,009427362003443344
-0,3772766498309847
0,31067682030444027
-0,38061945777997724
-0,15096351613746564
0,32633747213674275
0,3649067533099247
0,06726750582334702
0,09729163639718433
0,11116933636414933
0,20713680703451312
-0,3767937072691729
0,34111593379584
0,46133783116556115
0,30278170224478246
-0,2070166350525952
0,5166966864240307
-0,14163911861759743
0,18699743787068743
-0,24677405199272168
-0,14049980212162158
-0,21658436200578515
0,09335838799582229
0,6197311773302675
0,18067310438165482
0,284180285278476
-0,22982606089719812
-0,03972287820989999
-0,4797039770561229
0,17706246601142445
0,055870923368484544
-0,12511742323341316
0,13184481266577744
0,15858843393864375
-0,3727144076092231
0,06044736381617756
0,4812050197280112
0,0852951834674106
-0,386843448837354
0,3624895123414196
-0,26798737609915185
0,283120989432966
-0,39200377693077726
-0,1153152827575217
0,18353606130000755
-0,48338202972905175
0,3159664851504097
0,3657437419996126
-0,27860076170948617
-0,37570207653960663
0,08932339251901768
0,08609062563232743
0,3611877252266887
-0,29951306186137
-0,3068183882602746
-0,3952221406094741
-0,4384835360402148
0,3396429167858538
-0,2136263869049655
0,035320666941567984
0,4756452415388412
0,5388706972588232
0,05242498635977342
0,4183269835938941
0,08659865740364403
0,4581614372232101
0,5693203117993997
0,3227666372213688
-0,32208723543800427
-0,18971000295336987
-0,1987725789678022
-0,20676814484205372
0,2342882405806533
0,665461236199984
-0,04616896863123499
0,33671044932650884
-0,14827015546142264
0,20354534099943145
0,29187262336573877
0,2920772926588562
-0,07866006408853662
0,013785431305119908
0,005447530266663803
-0,24173916081512892
0,20281759148376802
0,04800931574503341
0,4084259065618515
0,14448586267874117
-0,44363106484031334
-0,03974818287399045
-0,1774790010239013
0,43021429070300327
-0,16902496798566163
0,41462182565855765
0,2751556058507117
-0,5701955820191478
0,07818523308345043
-0,5076200915725616
-0,01910240821835002
0,12101762893709396
0,1342159153557476
0,04324688718787037
-0,272620855263266
0,22692924687567925
-0,6163441823849523
-0,20142920422348193
0,14553702611938144
-0,3361684435599318
-0,05233084498395287
0,06421457739951256
-0,06124029723626464
-0,021423484375260655
0,22779396071775138
0,32167596790811137
-0,38496161932776707
-0,27709734172668266
-0,1994246845797012
-0,0028947096309504365
0,10500954332530757
-0,5613886335337681
0,4068309829272233
-0,1384529702871725
-0,567366545577022
-0,06430311873358957
-0,11335464670244182
-0,48397012065406847
-0,669420997473754
0,15312459032908657
-0,3752135556489645
0,041233424710946806
-0,11834232759578192
-0,14708292713598045
0,029895077456952312
0,31834184718745556
0,24253242524870183
-0,24164330607843323
0,32382690445527595
-0,2705281036799885
0,16537817407764321
-0,33332177539745844
0,4358862163500768
-0,4173292423349014
-0,0392756007729698
-0,03490560884366263
-0,3818566758892739
0,5229949939856506
0,5077260390747323
-0,19762892046458017
0,18598161960267962
-0,27503418324556633
0,3126427814598226
-0,07469161024491963
-0,37043551941101505
0,24093955784601845
0,4437976628711809
0,042034617467231424
0,049085263092532215
-0,21462914591405158
-0,43499139661537795
-0,37711656897480994
0,11384803210767158
-0,4342187826875521
-0,38777219092366405
-0,26760929817482315
-0,0995541837317522
-0,245689808824309
0,19341933549959597
0,11701965175260028
-0,06040239477954487
-0,2825956450214064
-0,15213101650830177
0,49606804323046416
-0,1911784776601078
0,028438419252990236
0,23813218180046164
0,12517489592948086
0,23429824130333873
-0,43817405391100667
0,4367288424206276
-0,3206280519517685
0,22634955112490532
0,05300279419697899
-0,27973930630042326
-0,38069707245716483
0,04546107084250224
-0,2963975754161531
0,11544739389732324
-0,06041077851132361
0,19087192832523833
0,4654449973133789
-0,02948792428860125
0,003818971277445885
0,424599441277926
0,1317295978927673
-0,28746396302744287
-0,061283572410682455
0,45482072640654103
0,3651410754414263
0,32757416391368177
0,2886518884127016
-0,41803818851525787
0,3267899842450914
0,29690062777431514
0,08103933833235284
0,25295195514673996
-0,04486168449220206
-0,5396815895565935
0,3083225910121041
-0,00019430950165436766
-0,2929772629878425
-0,026830104953403145
-0,298349031035605
0,2429186447277911
-0,29757727772979015
0,018793746002906807
0,14818625602952087
0,20082254057231755
-0,16384141115062525
0,03221273318579855
-0,3703952217722477
0,3012638856082765
0,08054162704682478
0,19086157778252788
-0,22830020470319962
0,2904611090037964
-0,15928592623204507
-0,3093463762922282
-0,008559561558103765
-0,47321145317413926
0,2374189938303005
0,3105784905694861
0,3203752108330946
-0,3967054770815352
0,1651516310145832
-0,3897824141555787
-0,24859305002167734
-0,16210617888577597
-0,010112370468173506
0,177379895512219
0,07376440741061828
-0,28401470817021623
0,16523319790026308
0,035748840983660414
0,5232417689007608
0,30684258272881293
0,15428220446939714
-0,3951027524137825
-0,44987188911525067
0,1380508543062811
0,18259262209815283
-0,2217516843002233
0,026949803412226164
-0,13819961138479572
0,25440026445478975
0,05741015637989228
0,1374927373318075
0,22637446296305483
0,197124647389592
-0,11473537238617441
0,2528529997152116
-0,3667478677751229
0,38827788232994137
-0,3266106598122001
0,2658867327171553
-0,4767666753247533
0,0038247955913507793
-0,17889216394253274
0,271080514356172
-0,019461325796130326
-0,6142101007052662
-0,4655984312670697
-0,033151728503514125
-0,1572214265784433
-0,4011115867520374
0,2846035629571025
-0,6638968626307085
0,08755477812912339
0,2678264654353062
-0,6715058502338
-0,4046834206386837
0,4083087858839646
-0,3424456975957289
-0,0005139822692021363
0,22149268432876223
-0,42595096034034674
-0,1894012230747587
-0,3876511234509922
-0,3478349476271203
-0,08752891252874816
0,613024858289441
0,32207527754009824
0,2616869052348999
-0,2374075785224094
0,30706431138681484
-0,2090539298609182
-0,2295278831923155
-0,44572018980727407
-0,17192958412417372
0,24640725754091578
0,15444623271931554
0,2566308457241318
-0,06910863847203662
-0,02150482622801183
-0,5599773853729448
0,1835441016571807
0,4422899395707483
-0,2408501807087127
-0,2509043202826806
0,31424105031647276
-0,4429312926802453
-0,5578966925210472
-0,6674066470486123
-0,2169487638962171
-0,12858122529173907
0,1762910305964534
-0,3412926470104445
-0,20443373368926102
0,060519124475680364
0,40242317564459423
0,4466100411300445
-0,5773286191685383
-0,2952700314284856
0,41938580193148667
-0,11426740519612928
0,34795825195403235
-0,25966315162235154
-0,44694796068834247
0,005938689421533071
-0,1268892539984123
-0,09149480420033525
-0,1373884300954793
0,4262874726545723
-0,22881451160122776
0,146968965737967
0,4175810953595439
-0,5157581443550949
0,3947830206957463
0,50086569517108
0,24609670530382766
0,17315809195333434
-0,19291371661207543
-0,12070512577169192
0,1366892540619833
0,08221272791634072
0,45581349319152126
0,19444935666125432
-0,39312546380183205
0,015065694961061754
-0,31909824289028493
0,15822133508904068
-0,05311015684213325
-0,27126767907504556
0,19030102152936196
-0,018719359450501516
0,5119209449942859
-0,0913302415872995
-0,01846364245543942
-0,3034678198950458
-0,02272443035462709
-0,24197278284985396
0,38520511856782147
0,49283339418223077
-0,3795437901021706
0,06050837472183914
-0,10935943367373716
-0,371214490183453
0,2814844157278249
0,26109943611054537
0,2670982524032581
0,2183808001978349
0,4839397974719558
0,5433546934506441
-0,20103185968651993
-0,2394164940775946
0,44923751307383575
0,26676924971573673
0,4603153788570646
-0,3126132460975797
-0,2036912347800974
0,15941096262666557
0,06550545555344942
0,5552065769639238
0,09462295382468898
0,3795530149073951
-0,13291788226564566
0,009697071987587121
-0,3599699528261786
-0,18048203480561104
-0,021930937848037395
0,39893535840174116
0,07583239024673491
0,11272471528378902
-0,04218436422077654
-0,2615362469828541
0,43953602815157916
0,3970106987261116
0,4461910284355222
-0,30821114408095207
0,20626321790149652
-0,2918230623259656
0,3794893862220703
0,2793993253027824
-0,26827597903217654
-0,29598763897488783
0,02517781459425338
0,28353169438846654
0,0025390445151369408
0,14314362164091413
-0,3648914039330118
0,20479093709619867
0,22144787423884252
-0,02668686584610343
-0,3088180232352023
-0,2298108826817393
-0,2947102341883839
-0,10905550531848446
-0,2587216253836312
0,19034677549481266
-0,08885998303341956
-0,025657191675833742
0,4044683559867238
0,4406193119882229
0,4672288907836924
-0,2976940181068001
-0,4112211159402037
0,5546194844420015
-0,2874794223721462
0,3300069394929919
-0,3588477298293932
-0,24204686486614624
0,24870517076282145
-0,06965143053683474
0,007814963784360722
0,37229404247996445
-0,4103654960646184
0,4735112662445632
-0,31154653787083614
-0,05594673825557764
-0,1737831720671011
0,33801860817391866
0,18421060789514157
-0,11498377733475718
0,17224257417738273
-0,20418174957706023
-0,33279166161396456
0,06920536242519358
0,05811046899041197
0,20161580019235056
0,16884159312715522
-0,20293022524100374
-0,07117471421100534
-0,358955495336194
0,36613541993350746
0,14505158228765092
0,06546413611484714
-0,0923872650590368
0,08628225071583877
0,37070151594747225
-0,24588529810359214
0,004920635802626202
0,25058931268238377
0,08157846060863008
0,424776357563913
-0,4348011726652457
-0,17847463641082456
-0,3818200991701145
0,472678376724571
-0,2631343469530823
0,18331421416767252
-0,24493505458645398
0,5412870591598203
-0,06260007318582106
0,41839720798549335
0,24243389122267053
0,47462660568357673
0,4148740448040064
0,15405818689464443
-0,4022908102196216
0,2804647826522539
-0,03640738411258642
-0,2762728868569219
0,48995386841197075
0,12622384862337419
-0,4340581695101023
-0,010381335694236701
-0,38862250083061184
0,11793397134589567
-0,2471468693721172
-0,16364635517101916
0,2940658532516363
-0,02798795585460361
0,3382027970127962
0,48998933221809143
-0,1475984323058252
0,5372752480024888
0,37253678415528074
0,08600893452633283
0,03450806709769788
0,09752094230832745
-0,3297607346515897
0,5233358676926417
0,22454698621623795
0,38666253640240034
-0,11145299493100536
0,1756793896328482
-0,17473953501568987
0,01419027064681496
-0,3475168569530658
0,04299394523326509
-0,3232186183260649
-0,20484865645211192
-0,36407515955890546
0,10219155494489357
-0,12373590408812453
0,5508133499300516
-0,04740981030414636
-0,3365793927898333
0,5095820701399096
0,36167682301232074
0,02398135922437882
-0,20604256520585526
0,11018559800063005
0,1177500472315656
0,22049065754092453
0,2044064367670464
0,11529203452892237
-0,11507863152297422
0,06147918228601799
-0,14201593218562852
0,17822905585355442
0,14892185799272376
0,40558336882155493
0,05797811771325489
-0,4140753105806858
0,539884207099554
-0,29046436197841885
0,5305289010733526
0,2076950958272511
0,44341158022758276
-0,046398736767179
0,1290962313401211
0,07613172860257016
0,5440709188369585
0,2810432843375836
0,10931715081676845
0,24410021175905475
0,3584211012755979
-0,2347246669651751
0,338029021685673
0,31635505803968433
-0,33079724989004666
-0,31524335116970137
-0,1627520352819109
-0,0561903439484042
-0,39936213396040243
0,09246283561103366
-0,010107519435426022
0,5398366753842535
-0,0623375617537128
0,1867533379962984
0,0331694451799213
0,51947439996969
-0,12667326284897595
0,13087805343186262
-0,43223902257996183
0,39067371256400824
0,4635766519364322
0,2776835375226882
0,17008904263153762
0,22848683659122526
-0,3626859311301519
-0,44547479378360355
0,26108029901907565
-0,19932436446063448
0,23642828679639435
0,31499389020366825
0,48094457118590717
-0,010746685482024948
-0,26979930186482876
-0,2814721552672111
0,24433932734913297
-0,312906703847905
0,40706195145879637
0,24618305194432483
0,5293185460604213
-0,37835795471709993
-0,2518222378146152
-0,017447792547608823
-0,41256869971392734
-0,086512867451158
0,44777622625980773
-0,14702030581603262
-0,2754153282201448
-0,0706731041613232
0,06957367850300834
0,36375222048668016
0,20969957563227395
0,3591943686729249
0,42251198544209545
0,028733830959713234
-0,19814135882322753
0,10967340886686477
0,08971799891189876
-0,3448445026827189
-0,2654187173446003
-0,30126663616150645
0,045601826746151666
0,017220875459065577
0,45308996153667
0,2497805176587804
0,4187801576798095
0,18817628033397477
0,3305400458963276
-0,16943321713819778
0,15047109625128896
0,21445478444038563
0,07595841770499878
-0,27432146913147526
-0,21494728232607171
0,5504923545212063
-0,2888450803325054
-0,30443048726031124
0,5483796023589358
0,3952688262940782
0,43703669639657433
-0,14910378562594334
0,39075392280520826
0,5451759592800017
0,06841634810411505
-0,18863489254761032
0,03283293938660884
0,5349226713640818
0,3700378406222374
-0,060454391190855515
-0,00273542771785986
0,03649870888255199
0,30009684750947196
0,05902373258027963
0,27970174917732205
0,39599708516466076
-0,004556828571307194
0,14478442868748598
0,09723914031525699
0,5295053277494595
0,4715256502356697
-0,2521398050989532
0,3609768640841823
0,0414452797381395
-0,4192329920633922
-0,21279525992067566
0,3150628800514112
-0,4144781363402191
0,5203077896910856
-0,1391922251008754
0,3736547005992595
-0,33126874702223985
0,23787388655090716
0,5114109020592172
-0,24014336580490328
-0,10339277072337001
0,15390758670874954
-0,05018514913301112
-0,41049556822483374
-0,33945164088709573
-0,06464565871818603
0,4581400183435625
-0,09145623908622444
0,132763139413267
-0,17042108343626247
0,4051252015859405
-0,27015349097904495
0,3208689216219427
0,273731458010124
0,5241318903572225
-0,4053861520283241
0,06915209655251921
-0,13658631220656306
0,22523720318782695
0,0714762025837697
-0,3556152375493397
-0,20758110324142195
0,1959567120036717
0,35572554781225657
-0,32730447984935773
0,21937843911971353
0,20318529629699766
0,006851456992276541
-0,26210345418900677
-0,27629696895134476
-0,36172648880790537
0,03498462900569841
-0,015564426149313023
0,11220192239309033
-0,14120637680077122
0,2813484947650792
0,429904272797484
-0,3426547599656054
0,3702501455829797
0,1903402862049648
0,47522544284250323
0,06256359828249541
-0,23658812240649524
-0,24071717474460327
-0,3178796286197208
-0,24901637340075958
-0,23009873551097992
0,09586245556181378
0,24201830002086672
0,298243114805751
0,17051965406202782
-0,0744844909551036
0,3186325944951777
0,01961369610062239
-0,056360848460532215
0,2997152489818514
-0,18876683627878824
-0,1844247782575449
0,40022610251405355
0,1381224441968484
-0,295015927449965
0,050164799909710775
-0,42858249469992815
-0,012641075411764156
-0,28148700980118224
0,3205482976873923
-0,058295568441228705
-0,039162367774134635
0,2376086407032084
-0,38785339734458973
0,3190861698896509
0,27569204550464504
0,29996852289890963
-0,43247240213488286
-0,3744101400841121
-0,11764578590625703
0,23774117562846217
-0,1236660557996738
0,3918641363565557
-0,2999580737564765
-0,017971865869917687
0,22602986641397296
0,08418630966303585
0,153991562167498
0,1951337519423016
0,24500745005289704
-0,13278192584346768
0,1213635560879384
0,03402980664376632
-0,347402772984344
0,3765707456805896
-0,39822335371237594
-0,2901357388303822
0,4376964624594194
0,1458173968895514
0,14995154175194436
-0,39036445678070936
-0,24661944527000607
-0,1049610537426681
-0,1070684412221263
0,27523646733281076
-0,01128279821166515
0,4259110518269072
0,30673989623997555
-0,07316206708758896
0,13782381649550063
-0,011130314077298224
0,29967675493117335
0,13130805472716836
-0,42713530861029964
-0,3966266737415879
-0,2420179035782582
0,0947124543645205
-0,21804999692638033
-0,2871948366233253
0,07314073658708699
0,5360070929460629
-0,4116079111786834
0,5238771959216295
-0,23200397239980797
-0,29444182592698687
0,08788228138035399
0,37553002941127656
-0,12618752204165687
0,36450306280203404
-0,21554029617707976
-0,2976406303884196
0,13460558574109743
-0,09865875550481554
0,4395049416034403
-0,44742728500457896
0,4666490087753288
0,41188960340151015
-0,194613206607099
-0,014904720605982436
0,42403970562130266
0,11107373354216002
0,3040693533873498
0,3379659044454356
-0,3286390699929064
0,09095609703652137
-0,11420992435747582
0,122478278129161
0,4635673546096634
0,2659132112650981
0,4781908484285161
-0,4311651431760719
0,5472368854927969
-0,3110766971189719
0,43916448163131033
0,03144649063836458
0,3636884681491617
0,2972109528305928
0,14024672899808252
-0,04569108681697396
-0,24164877998905762
0,04808400941051708
-0,20079939277446474
0,49673437443035073
0,47243597098451395
0,12561734616261305
0,4507796011262756
-0,02065925076515766
0,3839835828895189
-0,05767265243690781
-0,27341497499702655
0,03593725716864577
-0,1476868444960558
-0,3634549478201127
0,12750867740416186
-0,13757146516948315
-0,07227255097440033
0,18812503818336254
-0,2499616809275644
-0,28214077638384
0,4930950458982393
0,14995228270020805
-0,0021642365041198066
-0,437558367350313
-0,14063002796514668
-0,29606083413649603
-0,08902939787274182
-0,11492253146359067
-0,33331707554584017
0,056715496829932946
0,26501148332586116
0,024436661364029763
-0,06369986095878892
-0,10278344414450194
-0,14849805640986538
0,04014090307750526
-0,36823669499442124
-0,17407488626274695
0,025095906631321857
-0,027262308548221606
-0,21556610064871506
0,40389121347834944
0,11821911023313006
-0,21526177671780392
0,13502093733813292
0,04565708993197567
-0,04068327347746503
0,36135097702409147
-0,021266313456592415
-0,1616012001189321
0,3200224083269678
0,3660508939023427
0,2502870532200781
-0,22765017403195542
0,1761412046760012
-0,17636890168077893
0,41916564835417147
-0,3601146392156552
-0,2694117336687909
-0,4011497873627161
0,39525766682012153
-0,38561059215332394
-0,31911054799938543
0,4417046384203317
-0,3173747397123018
0,09775526695437266
-0,23743993014929565
0,28561599111525876
-0,2995123532654942
0,4463574208445946
0,42488359269461445
0,15845956098827707
-0,16628281691575028
0,09583904931491477
0,4933464542711095
0,5464843324866651
0,21500720548935237
-0,11932973814804985
0,2667551594254683
0,21022111384822895
0,335025888780937
0,2563480735408184
-0,03911188925008378
0,01014623313326989
0,41697194709078483
-0,10334163051540306
0,5329183444485913
-0,014273220044772347
-0,3154078248616413
0,30546496431326264
0,2089387956295825
0,41105872118198006
0,30284954056696156
-0,35339603912486844
-0,3727636333693396
0,417285784202941
0,1220212884336899
0,07101099947669605
0,4954814977365251
-0,18319678732474892
0,3337072639969469
0,46508291489330367
-0,09311871322967152
0,29798121401232247
0,1963596300329859
0,4736826755739124
0,32672535399407904
0,43700994477420196
-0,04726526035570426
0,02615622407174266
0,42085894805774765
0,32651493945265764
0,2488958877838292
0,3849239250360369
-0,3565956134970301
-0,03113379653207592
0,031685296339970914
0,11483705655065553
-0,3463304649329008
-0,3755440097104371
0,13904287136893667
-0,33555847242637793
-0,35748180771790594
0,41099796116866116
0,500996605038707
0,037244068023636515
0,07270391537613227
0,020759076544136345
0,29558937600414
0,4091905915241674
0,31141725921698205
0,04050555297441533
0,4337647407434776
-0,33858866102119023
0,5328645245455292
-0,33780240351486773
-0,20106860893318154
-0,36595881167205163
-0,41242645531195193
0,3547238013849502
0,5125441889540835
0,03121960390759662
-0,26764466730658465
-0,05735609661593698
-0,07808059596082285
0,26443803937756216
0,42535979300130294
-0,23586694997423982
-0,2683022122727956
-0,05253912393613278
0,3335543051719111
-0,18205153579734754
-0,28393815519769433
-0,30229680051052094
0,03396758069234183
-0,36477470782377497
0,24524981907825136
0,49853147831280203
-0,3595192723262907
0,04588821816081679
0,322862104610218
-0,2880082081381265
-0,22357851199853693
-0,27215075532280053
0,1103108346712475
0,433775452465609
0,3897855683689723
0,306439214826316
0,5544670960232004
0,3829850359379681
0,29090726538545697
0,3265093101127821
-0,12993478111749765
-0,30773353126279296
-0,1798816042090073
0,0879193429395318
0,07687869053444482
0,32751467024996633
-0,24921875204101615
0,06714403200338029
0,43813272424724947
-0,2542979231698696
-0,4013226744152604
0,3607021113914081
0,15076757039166475
0,4444708398958121
0,49171991393335246
0,5412449909092798
-0,12512782602670847
0,10325209518698102
-0,01569236296774694
0,5127510356517004
-0,2673803184710308
0,08247663565501355
0,15629799747250706
-0,22539809433245872
0,29929245238027397
-0,08670393042638012
-0,10675297714869528
0,14592378420443475
0,28935115820566865
0,4480080963949783
0,4890963614848331
0,19014171337773658
-0,2562240325948549
-0,005062510771299115
-0,21685460048546729
0,5317003487068347
-0,31474097638702836
-0,4194497958035387
0,2382739649083031
-0,37684577880938314
-0,007154102818873404
-0,10967081732312418
-0,32920136105832726
-0,12080566712445172
-0,07575231569466973
0,5013122358936232
-0,3023040028198773
-0,05815227963526705
0,20432473759304903
-0,24030707430658757
0,09757970457722852
0,3699916546673945
0,5198991925374645
0,06461485922144496
0,4815464346866264
0,13935226129044342
-0,19253309146720723
0,5826738094560456
-0,31479249500982476
0,04567938125037063
-0,053161171000114846
0,04485065765427783
-0,3615931211408222
0,46995240441657676
0,39577742476609384
-0,2795031908729017
-0,01942877910436497
-0,27611488920112076
-0,08258380365369358
-0,18553889459099437
-0,019203790402177262
-0,22055401662627763
0,4619205227689703
0,15617084615333388
0,352590359351393
0,09121212134712238
0,21406584803387993
0,4055746596703029
-0,3796008510713671
0,40372774554520247
0,029093232813295313
0,3039825428131158
0,044228858826162364
0,03261379162439324
0,27243041332953266
0,5207281039934754
0,4892655730815748
0,37446936139266473
-0,42110699196790574
0,377983959128445
-0,3351850261261903
-0,14613591079027088
0,3514924415613627
0,2900937546225886
0,20853711799796393
-0,4464378841327506
0,11802667100887397
0,001731431648296561
0,36523381579024433
-0,4047685436014788
0,37040435145007367
0,04804604985851851
0,1491991654761586
0,532536660344506
0,12132699713050223
-0,3856818796937839
-0,2267739799166353
0,10414516087298777
-0,32018498692224245
0,14070545187619157
-0,4103696046766895
-0,3222671049266725
0,2782234714552095
-0,07165111088947351
-0,20424595181552233
-0,1686378644775119
0,406114007928814
0,4213358083389358
-0,24995409479969988
0,21709850001743528
-0,1928856093123629
-0,008346002434402585
-0,3390698753137581
0,4298066403270295
-0,15021581152353378
0,47390211526913717
0,48061731870111823
0,24335163481278796
0,07036051841815799
-0,1428084187397323
0,5352625825991634
0,04160378206547181
0,14298617250195017
0,3984374418937073
-0,010675457036404275
0,5436988158573115
0,5276752144631462
-0,3891263773910354
-0,38661969040938904
0,5237283879914232
0,05708577863011492
-0,07789089349744721
-0,3654451042192859
0,4115698022467098
0,33836259760968257
-0,4017519463815139
0,0674053488692665
-0,14963221653243433
-0,05043961942238817
-0,4120071553499662
0,34629618056839334
0,24555114321303664
-0,31895520303224423
-0,194980870936441
-0,3642313192538163
-0,19445939356954645
0,559749619460845
0,024923955998486205
-0,36028553038469346
-0,13643608027432377
0,42123046104117234
0,4803897004739276
0,41259090690186173
0,3940440980482788
-0,3944484008603015
0,3457615659865217
-0,4062991880812123
0,4700964829501083
0,5626971909213675
0,4291226339995293
-0,2427231857786446
-0,3455987039240512
-0,24448324329840462
-0,26915519235160673
-0,3681444262249989
0,22889395223970896
0,10104511423660373
-0,22887361353388996
-0,3220557631601127
0,45570194756746907
0,5720624056506803
0,5331849830554615
-0,3542665306958632
0,5769207034601412
-0,018589733194017976
0,3394170731128037
-0,1534068085322419
0,14116596046852675
0,44288320021462035
-0,26956698179037875
0,2257570718701794
0,42109842862520225
0,29406961605098303
-0,14633004869383529
0,24084573198237724
-0,32723017257119624
-0,3537069041923186
0,23687499425844577
-0,24034367198901652
0,13218049341804794
0,556245090305654
0,5596104225439769
-0,3066460088995587
0,45398904594293216
0,03844666685730721
0,38458672196616694
0,47394652672018517
-0,38374889301289106
-0,19683222279866275
0,3238205987534938
0,15670745552868692
0,355158850440075
0,2874932428557246
0,19971795109265014
-0,37642930859043044
0,05847516409991223
0,09570384365894119
0,4281329245125282
-0,25787347817941136
0,22665513089037306
-0,178808002033019
-0,26703128117962505
0,30826278491529946
-0,10319921194295155
-0,0711167794691774
-0,08357185295623581
-0,047915443964076154
-0,3172708943499167
0,21076600241638288
-0,10115603065942526
0,4715771947156
0,1297955086501447
0,554598918989138
0,0789645773406323
-0,43223911021417805
-0,4126784718045705
0,14612350139046398
0,1416812741688347
0,09773531516029794
-0,44586167687610845
0,2862473643087735
-0,36956646012493
-0,44588235016581845
-0,2971308259293077
0,49057615761276707
0,17505688451383017
0,20821246737319116
0,0028400195791600676
0,10768287027416439
0,32429831609055154
0,1286856411523542
-0,20347741616702647
-0,24949161222957467
0,19065200231216345
0,439051917770099
0,2065696469737282
0,1256047669277816
-0,042491589981559545
0,39028461896868777
0,16239164819522922
0,27988034201092993
0,520027254315901
-0,44040661941068626
-0,08685060870708364
-0,3743768017649346
-0,1110509142673189
0,06956865472056473
-0,06829198563570017
-0,42792220730488273
0,2812072280760839
-0,4003752902784844
0,4754435993773147
0,17044900198921067
-0,22941946782207848
-0,04677809441780994
-0,16410218042488495
0,2463402212315304
0,37686047165413883
-0,3138919923735506
0,24737559908277162
-0,4029931196863494
0,21831626262048803
0,2884199212174771
-0,04286578692885349
-0,31584560518131505
0,47152971073837247
0,5304429923185134
0,44083748928749805
-0,10692614867604568
0,16888462610562263
0,03322652053213198
-0,23737507537446248
0,33220414498875717
0,4225699827705468
-0,033961186308526806
-0,3881090029003772
0,3452064050698335
0,10265753276491259
-0,3722052276472966
-0,29588547353079
0,12537384078597827
-0,08006637020943234
-0,27945229443976466
0,3803284662548812
0,07693090902274406
0,4449455844963573
0,06183154176108231
-0,3995391651243473
0,2952507216856221
0,31924228437443863
0,3650308358560294
0,1406152815308246
-0,2783234699769465
-0,35485345073062013
0,2148520149378899
0,4792500854272926
0,221986898840268
0,2879690078764602
-0,1371768615950682
-0,26975127713366176
0,12140645540797469
-0,2570138458998437
0,39152006093768354
0,19763970366731407
-0,33281889920515134
-0,16290829819765015
-0,17127803581607873
0,5313187833061331
-0,4101655184877586
-0,35803573170321534
0,5330637427488517
0,14833107480156651
-0,05431252511010814
0,1297865891436485
-0,1472417477241838
-0,01502133460848548
0,12140340579779399
-0,25145615001940685
0,3946302643977085
-0,007071478772317075
0,06454440577303323
0,36034828241184813
-0,18833640804155835
0,47977490043204496
0,4464987367981375
0,14743413296151564
0,43431346646596425
0,5618650004472144
0,022496940701304098
0,20328359237378743
0,25206282318255346
0,2696170754959627
0,034789841702339626
0,5095708701913181
-0,2741492184827087
0,308034607113446
0,3627942037814258
0,41213282586784544
0,29711212617997074
-0,024243719367992567
0,30109130936195794
0,27862573954782865
0,3898733710749603
0,23298560378998415
0,3650626365239179
0,07976149658559283
0,40803441299117654
0,41754142894485424
0,35682765256383886
-0,017891852580990835
0,024707233691685596
0,41448057991763615
0,4053031886954514
-0,20294331102711674
-0,007748022933093783
0,44452028935015403
-0,028184184196375205
0,22041521857607316
-0,38109448667324625
0,5312861536174821
-0,1215598444700961
-0,046614973552433124
-0,04142334267152334
-0,3517982727674117
-0,07330557307732787
-0,4382068870441725
0,010601952875112055
0,03452720515331992
-0,19292786689305078
-0,38431428005673895
0,2841154133220362
-0,20643503846436057
0,46690175780065746
-0,13774987572315234
0,49204779663615184
-0,1536696993152804
0,39271345372426897
-0,16341397742654443
-0,2271069923161114
0,3472916293465912
0,5439718633684811
-0,2614531542373238
-0,15849271642649965
0,1223815622819711
-0,25323339035632886
0,4969821749145278
-0,29425989071940073
0,2370489155115776
0,4174674360458066
0,3820138339829118
-0,2017583789606944
0,23419501777809723
0,5573068218872925
0,3391205975359891
0,32140704052168784
0,3232157870828968
-0,30980447964398816
-0,3442528696604111
0,2197323292391181
0,36540944983107654
-0,2895088238426935
-0,1329670105650577
0,010535358608036052
0,4344461249859161
-0,34398111051507263
-0,22650164454755273
0,11087766401879387
0,36979040498394966
0,08920543994992072
0,384134723124652
-0,07188467024341648
-0,187224075333349
0,08905070437848675
0,3367147502427696
0,027876913276141932
-0,34872728342956033
-0,0970524889692847
-0,04779901109931548
0,5152665562534902
0,4448636108356133
-0,09582162467326807
0,4585979371287609
-0,1905052260291726
0,5628309549226149
-0,25071571569683115
0,10233639473890649
0,19644108139548386
-0,23093101799285523
0,02968924370190617
-0,2805611588208458
0,2019949100344716
0,5342000852425726
0,34191175440473365
0,1383549314639441
0,37950614675177263
0,28875110402245036
0,08475868336557045
0,5740706767373417
0,10304879849712796
-0,02613835937836
0,3204493128159392
-0,023652336718938023
0,32853405299997607
0,25150133519088225
0,21494493470866155
-0,28283950863214613
-0,24062706113786372
0,44886808609145823
0,4907677198419308
0,10666147872495382
0,121370230756373
0,2437336630645651
0,338354645777184
0,21491275547327654
0,39547481027324677
-0,04654194254981684
-0,014072002831505795
0,05356226290523763
0,1926314929204036
-0,3069656071433164
0,4314655409836903
0,31748121580917754
-0,36995591577328635
0,3526888512356767
0,04184313190666499
-0,2611677399527296
0,13035609082078492
0,21505542554218582
0,01692454802256488
0,2427037955526255
0,2633682148498547
0,5082169208500166
0,13992135946758566
0,21034781056501728
0,0592615284782965
0,1299342019675703
0,2905067711911191
0,24929067282627657
-0,05783684773792679
0,07800141703323708
0,3454968744107803
0,23930736251023332
0,4690686325880521
0,14533131660494317
0,5676688813996553
0,1226320675058825
0,12108804210705501
0,40773082576471925
-0,05123717555014664
0,5454202502378493
-0,3163801870133995
-0,1704820177994679
-0,0019982557970223795
-0,23026620340364795
0,09291428646881894
0,5357370685246076
-0,13793439503345817
-0,3975047767487301
-0,25134946309008116
0,4584105736553853
0,39576564996184244
0,26288300953480614
0,32359104277274087
0,49296519178491693
-0,1455718355964637
-0,089810341199071
-0,2181546863076612
0,08282289594215364
-0,23021700978765086
-0,23229554816295261
-0,1868986960926822
0,1369159939625734
-0,12125290478879772
0,21420466457080795
-0,15443772400739117
-0,0722105202067837
-0,12410141731458048
0,26171891957230436
0,12785830599409256
-0,24407323665924163
-0,08878702943003941
-0,12144569184664254
-0,07957748803991269
0,4968542037812766
0,43247321049151305
0,06470900863972814
0,36820704879495064
-0,36192034692572733
-0,18360259265617404
0,4037364101398222
0,40499949298932747
-0,3806112150279063
-0,3314195716561044
-0,03173535685061584
-0,2131137826783243
-0,016029504466559635
0,427173805980702
0,09353966800388223
-0,15921879930099492
0,42183405090576953
0,17490190555276156
0,258336012251366
0,37955449541761355
0,2976991927456878
0,22348516417574735
-0,3131973629111394
0,2712138856951379
-0,2189080129732943
0,001051522170983367
0,475135098291557
-0,33402797399451084
0,3362626808882924
-0,4170546000218048
0,08906075852092428
