0,05 0,5 -0,5 0,5 3750 10 5
-0,3583088936048231
0,3233410888935406
-0,04928140896870193
-0,03414078665312369
0,33969407839819393
-0,26249396813316994
0,11721914464518726
0,5491672821309473
0,4527835394305038
0,252256686844432
0,4137592375069403
-0,37594302055429435
-0,07417775849929045
-0,16810102863399207
0,20412811763023342
0,29340302379151567
-0,09828659538775021
-0,07267166184161904
0,20225549896792422
-0,21801381285644478
0,08950139389611851
0,1518271322962002
0,556132466382028
0,2157646681719718
0,10109520425062131
-0,47555564821195306
-0,1558505596015321
-0,30444794808376396
-0,40228847582225646
-0,37689495639134457
0,10726403524384255
-0,007207193930766092
-0,4924042115810496
0,29014899264136207
-0,24618515616137582
-0,2360380885215192
0,32345194767963814
-0,17878229739838206
0,1384882481769225
0,3162573248169221
-0,16673919922299532
0,344959071481492
-0,15883157542405865
0,10013317012584738
-0,004099654283492616
0,20171750136429645
-0,006743609505491255
0,052040409135640675
-0,18515998312741427
-0,4407918112130326
-0,006174725485170351
-0,06782316724727629
0,16600963160561932
-0,6769415128110221
0,062294966355435515
0,16332080754789838
-0,09668712095052016
0,3332489354710178
-0,22594467361160916
0,14734697566963126
0,08772846925377392
-0,11032267963655118
-0,28081595086090766
-0,18015659708266496
0,20420574271541647
-0,23773007623713577
0,14178740277851778
0,36894794368776934
-0,17694937043461345
0,49669475483621733
0,4916108264732027
0,101350646176637
-0,21370503273301292
0,2527371790194479
0,10058312996401113
-0,4191804864578624
0,22015043920536265
0,20414438574341134
0,0280856253444324
-0,00517127340668363
0,26201535307680096
-0,14861991812719214
-0,20474823321067642
-0,014218510763115859
0,349123676588588
0,3115509522736019
-0,44049903768269766
-0,1987098082183474
-0,320665348016912
-0,35441455109444325
0,34233496529504015
-0,08779275768284803
-0,6275760273057591
-0,10551519340126009
-0,06867401883389566
0,2381899590104468
-0,44684568439848676
-0,18775873858481948
-0,34024532556218895
0,34695555489402347
0,28072777817082106
-0,23690663634315773
-0,2656774699311566
-0,3172056388144224
0,009057164015519613
-0,3117225350746392
0,29375421276023395
0,32259577136372675
0,07087454958704106
-0,3728095203668144
0,06916424076613709
0,28927460938235
-0,13250137249302152
0,3716629604061912
-0,06396369773551613
-0,42828548134685285
-0,415378691990528
-0,03728258491703927
0,27787784322017595
0,27738877952797036
0,2677446101303921
0,1569689764376854
-0,3562715442006949
0,061080619998519776
-0,45979264952086263
-0,4586574421180462
-0,41341059339652075
0,3011603162590741
-0,5752518404486507
-0,17727836061499214
0,030840341142507853
-0,18888299497346367
-0,44301192108686555
0,1611280869060802
0,1679340192895045
-0,13714675285883818
0,19708493536726784
-0,4403735189643567
0,2209867896823272
-0,465570154214934
-0,5187909223025795
-0,2704514717854551
0,401073479517809
0,026102666678910338
0,046956108254906585
-0,5682827298900449
-0,3400250200588269
-0,3375091687816512
-0,4321270826111273
-0,4092753009208845
-0,27396688530849567
0,015558709493426777
0,11873896604142702
0,10452479260580991
0,08522468075189749
0,1559075291702069
0,24705181374772417
-0,28598302107078966
-0,45612633676615505
-0,4504801059556302
-0,46996751714818885
-0,04926591571945515
-0,027954636862633293
-0,10598762574561146
0,24143419246476006
-0,283140183175312
0,08742859564013929
0,3207521793147068
0,16072534968838315
-0,5150585130343025
0,00994674951301086
0,09226074444782038
-0,3040883193895327
0,39350891283117406
0,010382519041305589
0,027801511805700115
0,15862809471533626
-0,039606296395304476
-0,392352963117046
0,16437552477388087
-0,29656585202561897
-0,32615594148821
0,25764764145339253
0,4446110744972548
0,2879341163559806
-0,3948458235343245
-0,012303935824796318
-0,25047514609355787
-0,1557463425913154
0,0917976657744084
-0,342889077364487
0,3070267359396768
0,31534910778172875
-0,44095058524531017
0,11981954591257553
0,14913070047371982
0,23931301197399296
0,08976480766627268
0,43456826426453726
0,3580709010330808
-0,3264575723106775
-0,1668977644535004
-0,005367239129516303
-0,5093796052786694
0,39368732614004115
-0,4941139050702357
-0,19193423008327246
-0,41012949278648975
0,16499640000927676
-0,2508203333844596
-0,23326212512144764
-0,20806380375115766
0,07115820582708958
-0,504833620778491
-0,14460527792886532
0,3289146545320915
-0,16669329428640658
-0,0353541671429762
-0,3555484128089199
0,3050666912746508
0,22473312296593778
-0,3216382872803663
0,37805125984361304
0,17150165498873304
0,18588381892678987
-0,33474711134959567
-0,49885995103635994
-0,2740660248219721
-0,37863253444444467
-0,41727077828607034
0,08161724361789656
0,41784485918909825
-0,4937213151427462
0,1362035382708258
-0,24190967712274156
0,20021132081400167
0,4285956294017204
0,06657601905603905
-0,5966683271194175
0,263656365899469
0,28153112475311504
-0,20980145557347557
-0,29529037580036
0,22347252717785768
-0,5037898557599082
0,3250804992111005
-0,3273429441019601
-0,2853036184864769
0,3193807414700999
0,0033473722207908174
0,28964129954567563
0,09309425821651333
-0,15512542188152006
0,4641310942608948
-0,35417479178893163
0,003073361111780437
0,19804423286287298
-0,247366872736352
0,2368071962262724
0,024751280384775417
0,35325648062143633
0,18361290470371247
-0,18452109040626738
-0,42266222723694974
-0,03198029029348208
0,25382514327283834
0,15631197167737276
-0,03489301879556371
-0,07950675358878045
-0,0902502147296167
-0,5071604488074307
-0,5665277088973418
0,2103648736637072
0,4115930757002985
0,09532747150638624
-0,011958456744518911
-0,37401653458590545
-0,16041577550878192
-0,26700546719028695
0,018598855941588593
-0,5483945442054682
0,2734643180701683
-0,12690881121314063
-0,3651340570495809
0,21161220287441582
0,02871024387917027
-0,07794770836407065
-0,3424678045675984
0,36200066571394274
0,2254105821386967
-0,34747800939308576
0,21551332920708732
0,12976951482412952
0,40651423142802323
-0,26754604872888865
-0,3770934898300215
0,08695694444234124
-0,39040748822265364
0,19325597959150986
-0,14524487686302506
-0,3691371683727075
-0,2783958959580664
-0,4800163878946304
0,28822114228684353
-0,37425319420670494
-0,5296619890325375
0,2388362343035073
0,43444331238700945
0,3497797791376529
0,4499090587354663
-0,22381765050913807
-0,19714171973097472
-0,09611037357156184
0,39444675180789895
-0,03288850041220357
0,3968996525476899
0,3754803436942977
0,0858471656450496
-0,13435589421160612
-0,08701338750060948
0,3793323200042248
0,4286778029722589
-0,2460806842313699
-0,16986989176169215
-0,27479451956770473
-0,27796044307938905
-0,4795986886851875
0,2824659363315096
0,0699220405392436
-0,109544605733799
-0,17306524060677617
-0,43195391572215136
-0,29852140746419653
-0,3424359007461204
0,20510569596511644
0,3771188237668095
0,0035883565890470533
-0,3853189093592797
0,09229528385914729
0,29673179475176126
0,15923794805744507
-0,4144569520239657
-0,20456921707350822
0,10109455772107227
-0,1463215214167131
-0,19705767618571046
0,33504104159852477
-0,10069471351266203
0,056815324876535525
-0,20628842845376313
-0,33116135347661074
-0,16302379159957775
-0,3230157921755235
-0,09354064033402681
-0,2110340441220366
0,28063367700525904
-0,5256633351261123
0,32657488208668234
0,1743020082855135
-0,06082170627891835
-0,05796698390885819
-0,4804828728061412
0,1707607678490112
-0,18221040327246302
-0,29922448150166725
0,2896537638530602
0,17365770442987905
-0,21778694113987473
-0,10590730141618762
-0,19972776641397538
-0,0535842964337881
-0,23637404728734887
0,2455956530815952
-0,4657432932843642
-0,2694190106988256
0,13083782499499766
-0,240660436880098
0,02830086669554725
0,4771420707560633
0,3509036380340341
0,5506217039613491
-0,03565764789491893
0,24008437467671048
0,27127234371188974
0,28908710828895134
0,3741981117109254
-0,20384390803416014
0,32822561808290984
0,18625357287877048
-0,16175458082896285
-0,4418624305435282
-0,48896738695079406
0,3422500056796295
-0,270608225817944
-0,06663493712127563
0,2623884998298228
0,13217773862997906
0,15374088069101224
-0,3590662247354986
-0,1701008288452332
0,04460622448889276
-0,15565626964304782
0,43202613844781856
0,26044965934727704
0,485253664062627
0,14136077237723177
-0,1617446011799871
0,09373695227665874
-0,06784474955036972
0,4136683058362113
0,24823203536509297
-0,1788048259069141
-0,30316862023705154
-0,13920835552910069
0,05508141848930942
-0,4229765223469849
-0,32166570614315054
0,38910530207852445
0,36240752772486023
-0,15377617524146642
0,019372254897365025
0,33147962723639396
0,1021031114306365
0,31351924314494317
-0,0008652566858145631
0,41167642706965374
0,36233715869963545
-0,5798243251611085
0,3686931059642307
-0,040951402233975726
-0,16641763155236383
-0,29556087838025036
-0,2985926779197078
0,2522253796005892
0,04926135560569977
-0,03161453949559064
-0,16077460574183874
0,05644863109535585
0,33517571033982907
0,4193272287329631
0,31102828588444886
0,2651071781057657
-0,26251538758396975
0,5568739071680908
0,22664602974578693
0,19013435277772286
-0,26409979117978605
-0,3396572405575028
0,33970411509372805
0,08817043428617395
0,04310003799880517
-0,4369877199425067
0,04994169039519228
-0,13613854951391216
0,3505106570569097
-0,24285279373942412
0,13557205069466058
-0,3016926272467742
-0,3920868534278617
-0,0550162220137499
-0,07988048598029997
0,24371077112146514
-0,3425533936743873
-0,29580062375047317
-0,08023682892006885
0,1755334281835204
-0,09036987755987573
-0,027129945406048402
0,2616940399731806
0,4697160125220155
0,12480633139467305
-0,31124664640614547
0,11177854094568335
0,24032743945706014
-0,3432901745439597
-0,19028389825368316
0,4957992825610406
0,30844744998115353
0,35782439393860765
0,45126112821710007
-0,012250271079759213
0,33245707898797955
-0,30885047637646795
-0,03808011429892905
-0,16428019857442733
-0,3920353068582391
-0,23791757462289106
0,29628668353599474
0,4542402790315716
0,2743646579371152
0,11404179999735008
-0,06679950104356747
0,34877248686667006
0,3046935317521551
-0,4086460345746691
-0,16554812359367807
-0,21136333879878202
0,1546395886402647
0,13672992999040498
0,08137141968820275
-0,10415130213918801
0,01716034275322037
0,1430566148036728
0,21154219042838235
0,08806722940667519
0,09664304888465287
0,1635055749459387
-0,21294672530086106
-0,231480692176589
0,19558804140404207
-0,13024707158755486
-0,5230469612220637
0,3549025236269191
-0,09708394112779968
0,2829231545879412
0,17999269889812847
0,11126022901293849
-0,4652061026734405
-0,2728638140772714
0,45869755389981237
0,36647275346509595
-0,4754708239917917
0,5515945422461126
-0,3255895712311749
0,30717465442615416
0,17543808758598145
0,474633362843553
-0,09211626937657244
0,10842307427346586
0,17180204408763147
-0,2931485279097992
0,034853952639731546
0,14699844003756402
-0,2191029015701892
0,18829677338433268
0,3167430576570838
-0,3129733267332873
0,022717188699372733
-0,17511576225503458
-0,060702101541356614
-0,0777719561828203
-0,21108384927413426
-0,07363837869293147
-0,22733219419096498
-0,20469799389447627
0,29350777066375183
0,23945284232589417
0,27301614604936186
-0,2732201007291439
0,07905973617116786
0,31773246339223365
-0,42974307308722626
-0,18207893455449145
0,1510838366870214
-0,18267219062028078
-0,4187014263147742
0,5442213988463273
0,17254000801490968
0,378711729468036
0,17660185815696597
0,4815735059206447
-0,20492305611141898
0,34438384425131097
0,15202706290067508
-0,3692421727745271
-0,21532853945774577
0,4614539838069123
0,06858672003273147
-0,2798394948944325
-0,09187727846642209
0,1044321037500635
0,33964856863116316
-0,40256097213342323
0,20049719462382581
0,22168876628651768
0,23163015565874612
-0,3961264252140624
-0,5383889369460013
-0,3427456801000855
0,269651170523779
-0,41949541141513036
0,1897597874549651
-0,4873706398188804
-0,02098156318380244
-0,3371183877399735
-0,3772285936777195
-0,041015744680414606
0,17680541503435462
-0,2915167994803665
-0,3184284639000583
0,4582446855860274
-0,27488621886882825
-0,21857753387219248
-0,18268976783449442
-0,10615296739939181
0,2730100903349367
0,28732233562532034
0,11253055039274239
-0,6158756125588587
0,16285433897138524
0,30950669007229104
0,06419327824959384
0,30174298088466284
0,31904543095518473
0,04554650494488214
0,04268725801100109
0,48356587906452825
0,057597760579578626
-0,42271320866039475
0,3686497037084255
-0,4430362935309462
0,3865004134890337
-0,24771879231255664
0,259852052654596
-0,2516664614552106
0,3149242507151495
0,2946246924005991
0,45485205539730683
0,13136400487822097
0,2269453814204289
0,5373770210139671
0,4296454418672724
-0,36751697470108025
-0,02000189881040214
-0,47786792124141386
0,046312118380227925
0,27523049453898546
0,5526811238027497
0,35805222754577787
-0,1364338600676476
0,034659451631625364
-0,4389367285424577
0,40657263786314746
0,20041310317356498
0,04115380957989032
0,0936597410432986
0,20199454633706948
0,2734788578357747
0,4431616884925152
-0,1626108501698289
-0,057525763901872896
-0,36163480913252916
0,3488431169801653
0,09374115848731447
-0,04035585511195928
-0,15572105910332856
0,14066854647496585
0,2785825200700838
0,3330728642877543
-0,26752581690359584
-0,4854593842139102
-0,37514964357112507
-0,05732304175480505
0,30024750999957983
-0,36646532439368007
-0,3140643459458309
0,4366579552624994
0,38118131910753206
0,015479921231884177
-0,18497884855403113
-0,4451240502662077
0,3713741104409789
-0,419624797962062
-0,23826504000128376
0,4963592197464304
0,1515672912824908
-0,23154516836749614
0,249612048631666
-0,35238912930852984
-0,09755592124227551
0,19935583802774762
-0,35303939270658
-0,1503773809703083
-0,18955129529355483
-0,29307610614411517
-0,2620042430158206
0,1800999720553469
0,08189315664085224
0,21904398962237115
0,2642395500477511
-0,18230540572934614
0,19834107051521704
-0,14261540234105433
-0,3133279421327508
-0,34572944494450114
-0,3236239513059192
-0,14236729987230465
-0,2530190422128833
-0,11393508855424098
-0,46003152414084314
0,12410365422456147
0,48121020370696793
-0,38898342603013447
0,3518576776238533
0,28999238306072195
-0,0319306301270983
-0,24970421814179108
0,06242198641175656
-0,1799183164782301
-0,3731827459725755
-0,11962268833391777
-0,1078530637264187
0,09387537244956341
-0,45581923710195
0,2603625111753709
-0,23246137659781665
0,3272542211787143
0,3885591565688077
-0,02791468656615294
0,08219919644360803
0,36338531935577395
-0,0011077480446232881
0,4227028408179311
-0,043884073596575576
0,39276323029127563
0,32130151762262155
0,4419316217647462
0,10923610026390035
-0,3942313184342545
-0,3933432522642676
0,34579704895885927
-0,11760057133110248
0,4694913437771389
0,5068095503379784
-0,3464068766276712
-0,14820813458072604
-0,3934941038112883
-0,049045949654296504
-0,1160098121570528
0,027562364038728027
0,38083305564324443
0,04298580440256876
0,2507372472740852
-0,03962351829749315
0,4005713324311101
-0,3239832333525065
0,42183405784691097
-0,09159303298144421
0,400366450314886
0,25810999477577234
0,2137687856305175
0,40858118008504235
-0,32818165747553296
0,2493240108556796
0,323296788606173
-0,42242699024442165
0,1877997290749274
-0,2411635109651967
-0,14058400241735122
-0,2775661879813633
0,24272730469392725
0,1338373044811829
0,3189611130114308
-0,40945760379126284
-0,43572032555669
-0,18598581144645102
0,19122580546226217
-0,11734461768569528
0,06773458884761442
-0,1755102821270109
0,1488221274265167
-0,1415832733637789
0,36012121142942377
-0,28005133588476
0,1266063575563214
-0,26957249856622323
0,4691255610198198
0,3980184900042758
0,15980578527069078
-0,021664947020455887
-0,16355906892530533
-0,5358213180929196
0,2946277011218852
0,01466630798894384
-0,23254246078972418
0,2517649689505109
-0,39496849753782254
0,09070862990155862
-0,5083345434599624
0,3691617642995503
0,2610991889558849
0,08615323469235082
0,0912474565949838
0,5234749400598926
0,4658667235386607
0,1282564298375669
0,05381139585506279
0,3630277074352607
-0,4263589432382917
-0,22810081622717268
-0,1254287756797491
0,20570701583692644
-0,5629782434520305
-0,5646103961687028
0,32869118564877636
0,015140565542106391
0,24247613392597847
-0,06560137648032603
0,11873763020545984
0,06663883709296875
-0,25522894802099977
-0,03149114590407272
0,4241654331703554
-0,2523696735836737
0,11379841766158334
-0,10044406744092306
-0,09664280549420483
-0,2714724691629139
0,3141593852912956
0,12768161165773648
0,23957624233975028
0,1513922485034277
-0,23242609617890858
0,25208451593752257
0,12395916537282892
0,2329159690531878
0,09580558014482767
-0,3781256591867562
-0,4242812576846597
0,011416298629050444
0,14393083979638208
-0,325172313188976
0,5745448427360201
-0,2473477352916525
-0,26588450250539214
0,11032900613827416
0,44915206930248835
0,39369286665100234
0,29523180319710923
-0,4027228687392452
-0,41315857849065557
0,11309370987970699
-0,255433398919966
-0,16594567161425763
0,03166137744460758
0,025001808474977877
-0,4185678794657127
0,17193855665823432
-0,20649045112122044
-0,4675143953159793
-0,19042153722812008
-0,2906413624273604
-0,20127404755188116
-0,3722957856078705
-0,10415596962948728
0,09639483587393852
-0,19399328366664545
-0,19905895665610554
0,22905731071420188
0,23901282994885276
-0,11054774856522959
-0,4409967492932536
-0,15894242816727108
-0,09790924024305052
-0,547272392926122
0,27394416213502815
0,08175538138716593
0,2221928610264439
-0,23801873426032222
-0,17832883564650615
-0,021159115905462714
0,2340181187936099
-0,33488279829996
0,18923480534704665
0,04482388164794653
-0,2792137173355169
-0,33386565351652403
-0,27890716096515483
0,025644149115134237
-0,2513022608744642
-0,20625109633855968
-0,015054403577636287
0,21289101224164858
-0,40548849649688495
0,5565908277217632
-0,2741768070899572
0,09981438691403048
-0,13040057557744864
-0,38145194789515446
-0,45629993433979
-0,11747534875520478
-0,21090597274843995
0,2192095798160634
-0,11123798098482389
0,029607782352600427
0,2996687332749691
-0,07725444476319089
0,20198271473189472
0,37327775696713844
0,016247657707409238
0,1802747043788278
0,05140013485404203
0,184475854404905
0,06917790969896874
-0,3308298717995309
0,32623483644493423
0,3270865434517894
0,22877594754972105
-0,21389354895903254
-0,3490438798450135
0,36568659590223757
-0,42134827424442134
0,19467195273622964
-0,1721426308646716
0,008022155886648924
-0,29357105763950525
0,4095973854229761
-0,05788875455094612
-0,1747125977109397
0,163113344181664
0,16155971016749784
0,589375852456685
0,09338132781672466
-0,27682040010498266
-0,11307332487029247
0,042149228054596435
-0,13349696671478323
0,24780612168809366
0,45125228494505953
-0,12488084039533422
-0,11134620468327704
0,31916653253478766
-0,2662160538623947
-0,3979474488493288
0,3002748167939808
0,4294540726540428
0,03731914065327288
0,49703907935076874
-0,03147976726727676
-0,2322611117319201
0,2432407797761935
-0,29221970843447226
0,4699600945450033
0,03508062916223675
-0,3048360083192811
0,025250272883108132
-0,1987111329628128
-0,4381486784703632
-0,46595783386237194
0,16124448521138407
-0,4138818287506171
-0,26558554782734806
0,1602982423535326
-0,13476855060060405
0,29022891925343586
-0,2543132691538696
-0,022203683805585087
0,5388568213789786
-0,33287417962780064
0,01531510514631389
0,09701900837395573
-0,14294746557547205
0,22090759218005143
0,08597152212055953
0,17591362562329602
0,06563699530477232
0,17159204197186978
-0,3870416426987703
-0,4968068124845312
-0,095590861152603
0,16752004212388136
0,060957983713566574
0,24145523417590214
0,23047934801113965
0,5104838902890321
0,5194347873450342
0,5266053127776583
-0,18514710238428703
0,1336299156788956
0,10655690759532484
-0,4144597401256173
-0,1662797147315261
-0,16797358862698203
-0,13595849381259462
-0,24813449028337206
0,7076384952013652
-0,17606369133929517
-0,15779619551557506
0,12463431424573404
-0,5187310924420774
0,06296628531444842
-0,2170150358707889
-0,3216984608180671
-0,15641483650807128
0,290885440586361
-0,3097184218160041
0,18465492207090894
0,4766343973889946
-0,18140276339296924
0,4680657540318261
0,3295251215467822
0,22598147352094983
0,5449392118633686
-0,1350962054156505
0,3319731994936526
0,5388596021963515
-0,4151746499726708
-0,30315989436595575
-0,06066167214572794
-0,4486856849683318
0,40984937624893797
0,26715981787021637
-0,11248511108044082
0,4391049572183554
-0,39331677698928447
0,1721052577148635
-0,03762331991297291
0,3575573151789226
0,010335086899858036
-0,00615878607833484
0,16121352739173833
0,4223677595559021
-0,21918846252231824
0,06228701976554039
-0,3082422007439188
0,3383764584453902
0,4278238161523789
-0,37496790439347044
0,2955857462763488
0,48673696968417457
-0,0650011000047234
-0,3683928025610111
0,1958079857572415
0,5282835279882886
-0,35524684986815624
-0,09075008090639348
0,2826566226404063
0,2601096583452856
0,38305125035236876
-0,3344066397439319
-0,3696922676791739
0,33137153009275516
0,21530458879764677
-0,44866466120699516
0,27659166026259807
0,09091873639013633
0,07057466030619508
-0,31248764629041836
0,4387318156883672
-0,1493461938052861
0,5267196832536521
0,5218194534346513
-0,21341417995158146
0,44554109078119886
0,1496806478744862
0,16190306898064286
-0,019984998122033158
0,42349903574670766
0,25668331454659693
-0,15993333195746753
-0,11815359744060518
0,05607584687347498
0,016983675452991707
0,2945075380565709
-0,03507797519676966
-0,19201900094901944
0,2297726730109969
0,19980458664541972
0,5308645130871898
-0,0585737264943228
-0,46943841484134186
0,3854131950100055
0,4549482940537158
0,5240738247258284
-0,17532777006638925
-0,4860967853767557
-0,11612462689274079
0,27049322994503544
-0,09501448094224889
-0,36719472185299945
0,10160987183275942
-0,335474968680284
-0,16627034977100252
0,15860092409703852
0,19690716467675362
0,1296988878507338
0,4414271655524571
-0,43971550830417166
-0,3033645606961923
0,3829306877992852
-0,17328604559025879
-0,22063256979297693
0,14649063560766856
0,26866430936361263
0,4213358035708456
0,0023945249103569104
0,1925206276189198
0,29070184923218223
0,25267245164433827
-0,035457300914876776
-0,2372978370336459
-0,25487402796551684
0,35292389188772894
-0,44738737807242585
0,4225067321860314
-0,16944117779945586
-0,384190887278588
-0,11695275231186174
0,1762390690130323
0,3178670033770904
-0,14970373419153055
0,45207109362115305
0,28456766188966487
-0,3491726556417327
0,20495070140425378
0,4682375681459349
-0,01730867190598397
-0,04590869330138442
0,15848843093709322
0,3221589563378853
-0,529723980226728
0,07623527013772145
0,34479265240958407
-0,2778591395450842
0,3325636383423304
0,08863174769529575
0,39345970475266484
0,24889316107929108
0,47605864357556776
0,4182033816021806
-0,4857856571117402
-0,213831856205687
-0,28979426664337676
-0,2020840443209246
0,4566867031196126
-0,3789854999955526
0,5401522046227056
0,4457176387890605
0,1630762085158942
-0,08063030006431303
-0,024622208909072775
-0,3518275188531351
0,30126103944877447
-0,3729980696209977
0,0077527531000385315
0,17090097706181132
-0,2097769990216626
-0,35540093468396583
-0,108553665960371
-0,3546704767916744
0,18480740246574612
0,29191918447420934
0,5496752366574473
0,2999952303835689
-0,47806309791639756
-0,21177167900365307
-0,19376395547647085
0,06985762130251374
0,2988262351658374
-0,45498685982065523
-0,41042396403853526
0,20445843338206632
-0,24920607761704802
-0,41148943066428323
-0,5378949010503958
0,21579822139769206
0,14299533599086242
-0,4360143706658755
-0,4939776508465993
0,32825562327284047
-0,2527568765651876
-0,4484276968539617
0,10571097955501961
0,5319580457939015
0,1737926631834035
0,4050246087219519
0,5339652627286867
-0,12299957098907273
0,05044332135601373
-0,24240004473213983
-0,2371183213189095
-0,009159062417092103
0,24039913892812234
-0,20036744142957025
-0,15295594036057886
0,161014827199093
-0,18906264360560768
0,3834943491163216
0,0029867805165318855
-0,1948457672361792
0,37576288927903817
-0,1368541694508044
-0,22699873699148226
-0,3497044766161112
-0,2780141823189143
-0,281441684769245
-0,44363991853123486
0,010012981388463347
0,08734615194676422
-0,47460749709618905
0,4722884273906526
0,20671441471710716
-0,16930913414602508
-0,01776879034769928
-0,4554084826161803
0,17020867693876446
-0,3519338805961325
-0,001857928864140062
-0,3752522210503599
0,2998920961040756
0,3993276352834228
-0,29587130342360074
-0,4505063496570784
0,46008992548075633
-0,4677595964715739
0,15686526481575194
0,33484708195669044
0,26664214210387877
-0,12860742502394476
0,012607403893043772
0,41907412820837747
-0,3040436894283723
-0,045204886040705515
-0,5208246576149662
0,10116723190059179
-0,4119039982124508
0,45881364163725974
0,06349795767867229
0,04597967574306742
-0,18222601680020026
0,5144610881254305
-0,33043152798607306
0,021956166567165182
0,2869744201960255
0,07944565332019794
0,1675054184366986
-0,29748285749726666
0,44105836719534397
-0,2871513043545325
0,3449841255133982
-0,2249576731108886
0,08015462170410627
0,32343548812511425
-0,3802532621273936
-0,13452014460842146
-0,565011731411673
-0,19133529529441543
0,31700777906529404
0,08360535668567771
-0,15577798302590412
-0,0999247369019964
-0,16885679919358673
-0,004240453346064423
-0,2638809362293324
0,12029411880470382
0,10573440942245903
-0,12487113598177774
0,22634752596197422
-0,28761849241903037
0,04749959077098918
0,015334889059966599
-0,28751876334787835
0,48790127992155435
-0,1223517394752951
-0,25443476741405796
0,01802590584866982
0,522083387664775
-0,054623815568191944
-0,04833481594506448
0,5790108877306946
-0,41738978283950656
0,20144188699796667
-0,21603384064560435
0,011299730773463381
0,33769238153491876
-0,1857382511763938
-0,16602049277957245
0,012336944154216904
-0,26214552411221165
0,3996748385945773
-0,177052431443096
-0,01125670557741965
0,2895869735475564
-0,20944582655557406
0,4625328684671372
0,054826775372347036
-0,30884017241933165
-0,37868756538353093
-0,6083283647337048
0,4411958969238901
0,3534185715075345
-0,27648400839078674
-0,30661442223048574
-0,3450824279356956
-0,0076594192815047585
0,34861090252646765
-0,005260854972274957
-0,3683601149822288
-0,5213375698474371
-0,07515810785504155
-0,15776246501123511
0,3994909789538431
-0,44169139710621635
-0,21117241407911372
0,1762268435471295
0,1993014850368789
-0,31174850572143964
0,16620050035393777
-0,009722279364001172
-0,41526103643867296
-0,3008983514588884
-0,4665855878931369
-0,15328450787198564
0,4493257740495899
0,09655922364475333
0,08899537169563279
-0,345988706849643
-0,23491353113638
0,06302822675167079
0,05262463011712923
0,3304216595563108
-0,3519165823961979
0,39389201902140836
0,42460272373584623
-0,10960435433050579
-0,38355227738601216
-0,4301883037510248
-0,07557060688165308
0,08117795463503062
0,29980473887109993
0,11708383059249537
-0,5076719948751186
-0,405389363443516
0,22970806669039373
-0,2843577511909494
0,415875289009693
0,34061664055838764
-0,10838889011053364
0,12494792060318001
-0,46981370185438687
-0,14368057354110253
0,2693837765170501
0,3079475363297488
0,10978141689835651
0,21132139418340626
0,16058008519801625
0,15050716135767023
-0,1849801277151495
0,14830698107123208
-0,09355088721115255
0,575097192952531
0,33937287715630005
-0,156807346556689
0,08220806670285832
0,3687457731003794
-0,2658927363214821
0,055296263235939634
-0,4054783085201746
-0,49585520816447254
-0,3055503607514147
0,4704488295393291
0,24259901256036437
0,3286149198696498
-0,2865976845482392
-0,17773010824858057
0,23213472381524555
-0,030594430544281292
0,06817391521058808
-0,35269023874200933
-0,16880766805899763
0,2384272584205499
-0,20067151599265734
-0,22202460146493386
0,13786088776017807
0,48912992717928394
0,023040068149045443
0,38386113987641696
-0,16357000945785538
-0,22215056873846176
-0,2347719488796535
-0,006226064580014346
-0,5891392681899048
0,2824200849216455
-0,2471590066676478
-0,5874540788247677
-0,4945891863580509
0,09396725546063642
0,21248432039095963
-0,32972757267113845
-0,4126399815561212
-0,03651033676180145
0,032117198668154164
-0,10949238364250816
0,3914551201120905
0,036582245253153095
-0,07040048920515377
-0,29736382972353537
-0,06162803658004785
0,4753990363457661
0,006842500729512812
-0,2025130583558698
-0,09984113062870116
-0,13569057810814666
-0,22310253650477457
0,407755293865833
-0,3118204451841656
0,3479681858303765
0,25246239500873724
-0,059081577238737866
-0,27546535027086744
-0,37433650421944553
0,5164631918761656
-0,3516615785413061
-0,1164826715396128
0,36175356572027567
0,3050861786147479
0,19761408652764664
-0,0023239977272203494
-0,2201934595230496
-0,1493942175619508
-0,16949736518367164
-0,2758102244495564
0,15551770228471232
-0,47832825289937214
-0,11301053942176206
-0,09110767417827055
0,16910038258621915
-0,05271119973140382
-0,39935744314656774
0,35450575086222846
-0,29264191719368454
-0,34171054830000147
0,29086341740450333
0,3980143805120202
0,38383892114843815
-0,01720732114541356
0,41881021533342744
0,35177050729534926
0,0683954941400164
0,00777099738320559
0,09725474017236287
0,17899677287917454
-0,32489245453748133
-0,022493618329584516
-0,18852434840242224
-0,2880503304480175
0,34806038892046043
-0,07797326416017238
-0,15796608882820934
0,13719421164167891
0,33699117495212066
-0,18918930495209918
-0,1265934320987232
0,43348127626595495
0,29605424586736956
0,08166869349116083
-0,432123715346491
0,4306391779122152
0,024615554724567765
-0,4672527772978735
-0,34963851806932794
0,4683094201017286
-0,1503380430996529
0,48813437778323704
-0,36479474479338253
0,04910766703659814
-0,5060385595052002
-0,12131966275873089
-0,002716308701785004
-0,47606296090335953
-0,24750906547551457
-0,49758110214294327
-0,4466744063088196
-0,39270675876377914
0,33077979655780065
-0,2346887830006686
0,1632884700608635
0,46478598316954545
-0,06502607344001002
0,056885732268807186
-0,2775593910591197
-0,32050367250252276
-0,028302679464757823
0,11992789348696557
-0,3000261682227995
-0,07816020833946818
-0,0017755498870014885
-0,271177748015428
0,0006803873307292612
-0,0612440328890423
0,24084209851378696
-0,5297835159386759
-0,06045387376312553
-0,16726033543702418
0,29267007862845906
-0,3892525200022043
0,2178245658328132
-0,07666379442630791
0,13076431325075263
0,12907546945052203
-0,38957827370804304
-0,3634361779686936
0,245555282931465
-0,09504670734871509
0,36339924261649675
0,3268656779196135
-0,32796663383545993
0,42481580129247287
-0,01139346147387702
0,2783756463531099
0,28042281182202633
-0,5054091044197512
-0,3704238088343148
0,11883450876112008
0,4078654302743992
-0,031061698585786945
0,13340888370616616
-0,33236588740230166
0,29636173769046054
-0,1771594315208235
-0,05939898141051617
0,44101520622157825
-0,09721082142785113
0,020938103264710833
0,24557848308052388
-0,24213108633700034
-0,29695795766594485
0,30655899982276563
0,30947307117780404
0,40690143906081006
0,3110215676528414
-0,2659902429235317
-0,1104504027662091
0,31898727379501945
0,02524994726344556
0,06602050431783334
0,16691042085722058
0,09584750741613049
-0,21797859676715253
0,3552276168722263
-0,07154522190889917
0,05225341214492223
0,4153646991926359
-0,32465105030601765
-0,38370959740086624
-0,10067885972332792
0,5000817274862653
-0,11982412876591986
0,39755528726944983
-0,28220945593938024
-0,07800334006975947
-0,05015938370539379
-0,019138808944362717
0,3868004711004953
-0,10150076564137492
-0,32273620376741413
0,08930762300708747
-0,3828323539083167
0,3021839737195994
-0,19851567708341508
0,07044415688241738
-0,3254341325690642
-0,47055651348292266
0,20269894376239486
0,1324590334127802
-0,24985957447142548
0,3648389924002988
0,08178884976476979
0,37297287436707094
-0,28520359530336525
0,12600853737822165
0,09768637085664791
0,03730329219673572
-0,13772514749868897
0,23675299544719974
-0,07873786171884435
-0,415511355331737
0,30127958201025545
-0,4180238508621002
-0,5260175616627347
-0,08051588199099746
-0,019447945561662794
0,5039639710680459
-0,19887316453523257
0,38010848464469393
-0,07389969634342114
-0,08309375177614806
0,5594495742049325
0,4542975089492628
0,05220234680699994
-0,13584276563247674
0,23339578694358634
-0,3277547297700006
0,21852565688406814
0,1472403605769247
-0,26458892101482956
-0,27034823466258673
-0,419345160300674
0,0007653887545505101
0,011319183794333365
-0,03054569160530928
0,08454140855736311
0,10638595907937332
0,170109715998656
0,07225975609374163
-0,22597755276652887
-0,057221535402898184
-0,1859482147196919
-0,3969017570609298
-0,13532076477950405
0,10591274946762133
0,5039515778199081
-0,30129436897745765
0,1172004577048839
0,25135935465221054
0,13193749448543077
-0,016876910690360104
-0,2331265199679842
0,38378908105349097
0,5006216494383322
-0,26465315839229736
0,3932213319968359
-0,01479009272388758
0,45214047998259793
0,19054780813656802
0,15737178913029617
0,01022339483104734
-0,4608811672980432
-0,22304500118977852
0,013295476467587662
0,3397167907662283
-0,1622057737403295
-0,25630429981427594
-0,21085732396344786
-0,16238185315250137
-0,2786410414856465
-0,5128738687334647
-0,4387922905753498
-0,30888290781082045
-0,17708755352451674
0,2759909349833895
-0,14505515835870908
-0,17885048717834656
-0,464201604830441
0,5924835365379737
-0,3757868805951162
0,3895283119825251
-0,3269483449570084
-0,00948779269608477
-0,3816477680633183
0,052667684764427965
0,09037940352910111
0,10005355360408703
0,3821826853824667
0,30947012125953854
0,17612615144698654
-0,010365911299754026
0,3633837821722832
0,0970386158170575
-0,07924933681778419
-0,376362356071622
0,32721311535022335
-0,4404787150630775
-0,08589616464454211
-0,6004968441637727
0,2876253687288196
0,3339628409602583
-0,01655084493651288
-0,0087105828800041
0,3703958682387958
0,5488750736260112
0,46635860551999253
-0,18110929602265782
0,3382917822541702
0,49579724606382725
0,05731574286064604
0,09956855889036571
0,26339291038351204
-0,17045461619131566
0,12017587979929022
-0,13172712060993438
-0,03922103272699101
0,4022964111504283
0,08915394887672182
-0,49446825120982163
0,42608926740028585
-0,2718972380832386
0,4211154399380757
-0,10750983538254749
-0,06643417006675352
-0,5602822034282365
0,19328686815461543
-0,46454733690744143
-0,049793863987062495
0,1947010351563598
0,3280320803677244
0,396288801325487
0,42719453457765727
0,19424309607772328
-0,31865907628054096
0,015510129860094394
0,37411626025468014
-0,2453490351469181
-0,3975849495383624
0,3522099982357281
-0,2555609256507323
0,23246859851776674
0,37009061578855806
-0,3794373503776021
0,09439070663301653
-0,5833806475731582
0,1825688723059079
0,3456270306384997
0,3166927120436645
0,24500398326989853
-0,3043028901898245
-0,42073965843089856
-0,22354071628432848
0,38624814893073706
-0,3876363413375323
-0,17281829463827242
-0,2919646370085771
0,0781327953701908
0,07869568398984234
0,0715887086832746
0,48143324782872443
-0,3380963066812911
0,07547503281019848
0,1245595616749798
0,2994049453784803
0,19482575612295622
0,20287004005909773
0,3723949267911137
0,46519429559280345
0,25131348597595904
0,2206717470340323
-0,31448109230694965
-0,02724578844924479
-0,1803936067303492
0,339153630839184
-0,4349455226706093
0,13632813276850847
-0,20711298511067014
-0,04562884501311478
-0,2372005276329727
-0,17742009342600767
-0,05274772727448023
-0,4096483124570992
0,4654389135887635
0,12088881901672834
-0,20672483300246694
0,5013961190900978
0,5278392398559284
-0,5050559778912955
0,4668479828105426
-0,4094644963470419
0,20057653880959758
0,2434844325012311
-0,2953771401008368
-0,2003805130635925
0,2739411756437553
-0,4332380782033135
-0,46171986698501927
0,21224346241867348
0,20513546713909342
-0,23721695451425492
0,31497770940495645
0,407478935129839
-0,5037451147800066
-0,440345955836344
0,2980877012826626
0,11905717715122413
0,30575746673399035
-0,04493189138891089
0,00961631302966227
-0,062214246057041414
0,2624654562301956
0,2518643850828715
0,061870693158951294
0,47154315292110327
-0,028721166319017093
0,24193102279403444
0,5617531693852589
-0,3569265994624084
0,5348523781495974
0,5237630040545432
0,27485666300410994
0,37640802191119305
-0,3767116032210951
-0,5867194874580453
-0,5154526161605546
-0,04552891734801283
-0,37453827635953524
0,1475903971900119
-0,19366073908202702
0,4110054372067592
0,16285684412627735
0,3288199439003797
0,09435664768753542
0,5701633384901453
-0,2324991350894128
0,5234931672368307
0,19074860392832899
0,4336848723948529
0,589269424559559
0,23283107046952647
-0,24858842799531292
0,06901712654675231
-0,20619874170790314
-0,09840381556243244
0,13121543401426233
-0,6004719230481752
-0,1927749389267565
-0,10130009065955302
-0,25245235732774596
-0,04614304557369867
0,46324682381329013
0,37487742895689935
-0,4114900851736312
-0,14162060685622072
0,14628614381775112
0,04067450056932339
-0,05535948607043757
-0,29974538633848136
0,15871021241610228
-0,4375855679834688
-0,22477815786296862
0,2900140711467086
0,4048551347082232
-0,30694983120958136
0,12494506391008937
-0,2306358200019981
0,4715949241466827
0,09289859768225131
-0,36259950483973813
-0,48667522985003087
0,2585233467050034
0,4251497251058441
0,4353841277484743
-0,13780375898937697
0,11211378114078409
0,01233900944452983
-0,023727912448996698
0,33362334757622986
0,3541325191991986
-0,5028329475397287
0,09984404596148565
-0,06372194866492906
0,4500563953135428
0,07129758427530863
-0,42084192452213925
-0,08272182890997228
-0,03454974805988043
-0,26205817154245403
-0,17980209425731855
-0,459776774657255
0,018229208079351498
-0,43276893199359306
-0,48138652892033945
0,2925259874352064
0,14261406517422134
0,06840515914239266
-0,4869752029354068
-0,08649141279457587
-0,35959984104033027
0,36512419901421056
0,03197266787439211
0,35291988670531727
0,1555917051413351
0,2551067926094387
0,10014544144436184
0,0167851571495877
0,22604412457165324
-0,044710817597304234
-0,29033864420207495
-0,00832861301381234
-0,09813252242377318
-0,12496097730009513
-0,33570791657735627
-0,24004015652788468
0,09497704107071732
0,00410310600157855
-0,29091709122549064
0,010471322664248335
0,27065335820287484
-0,22340242061835602
-0,043859731881726434
0,18829512960118422
0,15381678010180477
-0,06749559580166628
-0,48032193515138805
-0,2527857341922897
0,3529266012259796
-0,3114703247501039
-0,09783857102169945
-0,3036701946313347
-0,26764554826654346
-0,2875140491933033
0,5283840768958384
0,26517306411305874
0,10215310834735336
-0,11432405208267062
0,003577159271329237
0,12678711598806874
-0,4111575968412848
0,1212107645604072
0,3989912014886192
0,28950823706833845
-0,31364930285866766
0,5134446064997511
0,5064565293871346
-0,38224983419979414
-0,40145870210350576
-0,40956771493980365
-0,42945158875696654
0,02125361590745603
-0,3482409520761136
-0,4434510517323273
0,3084611978699127
0,08257420454333361
-0,28612223755829536
0,09530822533803414
0,02873631001213221
0,1291880277775136
-0,3413137322500441
-0,13483615361885376
-0,11454278842554715
-0,04832407375946188
-0,09960612022808639
-0,4946157315117325
-0,21267660402720645
0,012575748332176104
-0,3450509120172862
0,4283438883791908
0,5639206638532172
0,04742488494344908
-0,2805114352618564
0,2737264769166727
-0,43254253227794054
0,14762802107256576
0,37835779092845573
0,435883348319604
0,2294232265074521
0,03625444571035898
0,4317956014552243
-0,05856678852853225
0,49217115073836815
0,3048404020399453
0,5427240383158587
-0,039591006453201454
0,17158317479624793
0,07768414137884866
0,10359892458442958
-0,12622783636345128
0,3540331607912647
0,2850492022969382
0,21908066099206921
-0,11141045303908408
0,42498678918553806
0,4489266514443819
-0,25744821799029755
-0,3250061108121418
-0,5522308114030134
0,18269654476424535
-0,5096955280779278
0,25546809478802873
0,4696672528276953
0,25743725722153393
-0,07588155236136619
-0,3862453275413284
-0,4705076287667409
0,47194152518510524
0,23822571025951464
0,3293119868597524
0,25233406464864117
-0,236122113187938
0,48868486689100427
0,4278674861695973
-0,07737542039302962
-0,15776585784297795
-0,03488151903255367
0,3469644862818388
-0,1862093711318172
0,42699778434233443
-0,49881428346820605
-0,004415951135831223
-0,14654125231338375
-0,2683881126778283
-0,411393632655493
0,2969301423564715
-0,23185854309763843
0,058970708313655605
0,33382651463841484
-0,287221471083863
-0,15673245956690732
-0,18788660607298885
0,3812173683329365
-0,1761650376893782
0,17053023486290916
0,16364188027498075
0,11875695223060827
0,23402007651316956
0,42163249835182803
0,4493806077040361
-0,514274822935549
-0,40365451794571794
0,37915955780435157
0,3902682188963185
-0,16365220446829315
-0,47034087635234695
0,43245133206648173
0,25671084416629036
-0,5451068811210936
-0,14807680129448014
0,1983162528273615
0,05207470345779572
0,027654360860077165
-0,2382569818769243
-0,24780405907388817
0,1737926139172828
0,1759785129439278
0,1039718800870618
-0,17621749580305296
0,04103315907062922
-0,3619764842965436
-0,17610750759895133
0,2682217703849847
-0,3424853717617245
0,09837929047147327
0,12447811872494272
-0,4395303314542672
0,1030557986660443
0,2089797857492845
0,06379433302456353
0,011033323468609475
0,3596568477887234
-0,34541041460730615
-0,13090391983670727
-0,3917920242158952
0,22358826578557608
0,049295730019881634
-0,16503158215925337
0,2711216233665496
-0,3739509087612471
0,09945072357964246
0,046713183329831987
0,22014369826241864
-0,20989503602214257
-0,09008878613902634
0,2963837711809278
-0,2061391203436712
0,18286514642530025
-0,43090298343069616
-0,01211888251076795
-0,3069863271396731
0,09603691503182817
-0,29215593116156136
-0,31964784920424705
-0,4515468134340356
-0,11000469765370492
0,014802300374368178
-0,3647910684624751
-0,23451913850395148
0,2885147186193577
-0,07135658386251462
0,08621416546688412
-0,031617890828612
0,11598705058313738
-0,024011639986737943
0,1517517644489777
0,35201639154870273
-0,4364249555020929
0,1740272852384303
-0,35561787567879044
-0,13673909183231653
-0,28486024601682336
0,07500624841043385
-0,17229817483832774
-0,03168945792438504
0,10907366368916528
-0,46908213301333596
-0,40880225771002776
0,06634631154341439
0,28184293279039685
0,21548288524678005
-0,4256391402549254
-0,16139721359847725
0,5172548684818516
0,23574435361250376
-0,07640303085441146
-0,4132083042523298
0,383481925759197
-0,36939519854762165
-0,4734315107622155
-0,16562253106087388
0,3944997637637879
0,476033896012479
-0,4116951715420376
0,654765331677675
0,06319957394259472
0,049791043036066455
0,19394964904320783
0,0940871779843307
-0,2946377440028542
-0,2074742465041699
-0,030296987468012505
0,02255899796394908
-0,29052496736441424
0,057442662469946955
-0,31628671589669577
-0,23890912580291648
0,09372776989351028
-0,3795780365902398
-0,1079451097847627
-0,4092991225805058
0,2685296629796698
0,32273056263736516
-0,36808806537580063
-0,019647626576830342
-0,03467772742489085
-0,14920280198028776
0,3130459485500877
-0,32988143218196975
-0,6267029682163048
-0,10484053661192178
0,4395552975491483
0,19711773401311972
0,34445477882639614
0,3153278249364026
-0,5189362791592982
0,30860181713857554
-0,25035983248808164
0,21276726829252018
-0,5142094914513223
0,06933444432330241
0,16561247661738387
-0,062401742611393016
0,46405845046028504
-0,33485638891983327
0,16354545690292596
0,3775259020060993
0,27436759732463134
-0,2149840469467655
0,03279129153825604
0,20675763160044297
-0,2881141120544803
0,4034480296776879
0,24409814323875675
-0,33606716896945377
-0,4850447241520872
0,07897842212104267
-0,11559953501916523
-0,23823357812588158
-0,06995112927047928
0,31468178651573075
-0,16554816503381722
-0,1421409491271963
0,19077051363408615
0,1252643743327275
-0,08417598460007815
-0,539109281188027
-0,1117914322998479
0,04225471080152753
-0,05303358093900245
0,0715123349294795
-0,1270744743207567
-0,22482988293449135
0,20656098212808396
0,021463171358216487
-0,130293462824974
0,4720465635796479
-0,20427694437964034
-0,47505914385564396
-0,3670320409375228
0,2581087807681862
0,1558958743248177
-0,20757108354678536
0,44484489943559596
0,48596069498019534
-0,5053795701827756
0,08536194390917536
0,19016054318574369
0,17150229737845854
-0,02257659835286245
0,17921314812950104
0,5036069208148243
0,3987099655054903
0,42138444682088816
-0,16792621601540844
-0,570662716007332
0,13546141254550145
0,3640655559426514
0,20542717597219862
-0,09716537872443018
-0,12667809480066722
-0,26941621523689135
-0,07404511539373469
-0,22972352919678535
-0,08963212699424652
-0,15849360146534727
-0,35086966414278764
0,4496320171448695
-0,41783302923956495
0,30001673226213554
-0,23473237046409934
-0,011007186834964395
0,2258990844077611
-0,26734885077282367
0,45006418420684924
-0,3046759206139897
-0,07979330399498767
-0,3377102343562045
0,29467602920413866
0,39877046534349386
0,2071624112157582
0,29105899574387517
0,22311655791492283
0,012713967238443424
-0,31029653176218974
-0,32604747209205776
-0,04194669653630296
-0,04975372119152632
-0,1769683994050825
0,025875144442416245
0,4448056838536027
-0,3537204205509437
-0,12915471673380832
-0,3354739981161498
0,09087505081038773
-0,13414529611083462
0,08061477199080293
-0,34732205061738075
0,14045192326353564
0,4162841052942896
-0,02736026382719385
-0,31472276265026117
-0,030397987605549102
-0,4909034636437108
-0,4649912494149534
-0,23275677885451826
-0,3166432270398628
0,14983506020336124
-0,18254182802031577
-0,06129360976190124
0,42303590919386047
-0,5190096047557536
-0,022432825408947556
-0,3971165696587977
0,3849562643674262
0,30262394038733925
0,21674719810768645
0,446190815404168
0,3860046870112102
0,3296453493626867
0,10669671104155475
-0,19572292626279592
-0,38004118272139625
0,6165949332296384
-0,2984887056776883
-0,18113351382508208
-0,2858643239864012
-0,47040388306475817
-0,6443311644609618
-0,37048067459520173
-0,44016515610095586
-0,13201111166404714
0,3164784352545052
-0,039239739247197
0,37699908800758813
0,4433135119608513
-0,0027108000508386755
0,2201583409482947
0,13159745346744214
0,15219313710253315
0,23393328552530684
0,39899650524617547
0,31007375781282553
-0,36886287248031197
-0,1533526095155936
0,03162405480441071
-0,4782397475683282
0,2420632354461192
-0,3906747434715633
-0,4395835096795409
-0,3018229385312988
-0,1202401725954819
-0,029356990987870243
-0,39026909686132194
0,0656102799386499
-0,5440444654014661
-0,40180281846312016
0,28008179806795314
0,18617739863996502
-0,3113404481448384
0,13466061635822463
-0,46491597903762866
0,1334542957646818
0,16021080301655838
-0,1352358841598545
0,3448775808605444
0,061212406263520355
0,017788003647782675
0,3001049854066563
-0,09541972828027415
0,46865327154985553
-0,27791111028204385
0,22863338312779893
0,056322800324007403
-0,11259806664858348
0,1169374324016663
0,33440258880029744
-0,33340027214682333
0,24466466867106174
0,371537505768848
-0,045623778087803386
-0,3494729778968711
-0,503196567858299
-0,23041387933637844
-0,3461769233593862
-0,3858005259420097
0,13776417003860866
-0,02963680278845312
-0,33446902811622786
-0,19324200250047927
0,23079621951809567
0,25435941754900826
0,3865015979921313
-0,41920973016280244
0,3025847527391076
0,05960472373480266
-0,07927277890442277
0,35821101071248823
0,00826995596324132
-0,32516164894702304
0,47447928960328195
-0,4584096732298336
0,22805282416881706
-0,3952750679866064
0,22561464894103347
0,40567464218748306
0,1170608338536778
-0,38385276595428375
0,45425734678706353
0,18137797401115743
0,0989900323919522
-0,4637406048926815
0,15911206156778487
0,31983898701535857
-0,006480567481757103
0,12040208712833159
0,4554725975496841
0,2912794645522591
0,39054857607279897
-0,43499903017874275
0,14042540170178633
0,20068749696986493
-0,1487973548779227
-0,1326946171644099
0,16965075074041822
0,13452976321224985
0,015215534439718653
0,3091261912168946
0,41752486042151965
-0,10559522574617025
0,21528447358046995
-0,19088831493844824
0,4528759137364122
0,4323084677121037
-0,19851308427628797
0,05935833691848942
-0,13490471030915063
0,25145052602607676
-0,05787529585625035
-0,5684695149930334
0,524212314272074
-0,3075032452381161
-0,18745639016541293
0,44234727904186427
0,10738064738664982
0,21457299131870392
0,3627172808119902
-0,40040727166600637
-0,10150375917376252
-0,03497668745050592
-0,3603520908680361
0,2505686542885725
-0,13048595482851835
-0,3789531944694004
-0,5709430256926746
0,04302880738949231
-0,2387688274249826
-0,35895711069460084
0,1805026941945524
0,1973634845630928
0,2645898510221328
-0,07698847347533153
-0,02537027039996813
-0,2724340326312632
-0,2527221019400108
-0,34309515262055945
0,04501013019971604
-0,2841911040459329
0,13777848470107099
0,1219095684910175
0,6055760561911244
0,5347945406806268
0,2996602237480067
0,22382479567224084
0,07718714981824022
-0,4270954220071264
-0,18350464581429127
0,2243953657807444
-0,42058716080386505
-0,486142384085073
0,15637498857253385
0,01423779314930772
-0,007397076525214761
0,42479959496661684
-0,045554748790978414
0,5048910611582109
-0,2975341230238997
0,01925558927445217
0,40732106119763434
0,2475777287980035
-0,0467699338879063
0,43500096306027136
0,3874198857567918
-0,40920459591601777
-0,529886849407321
-0,021802853242449946
-0,21432939300583234
-0,4774465901707505
-0,13563092303429275
-0,32043690452207746
-0,27051991555956184
-0,3795976128853825
0,300048325318345
0,04329082755033227
0,056391411718601715
-0,052969436402418114
0,029065381531796435
0,09812652740853942
-0,20323010866602656
-0,02366467762097069
-0,3780350888256704
0,1241194684066838
-0,1917542325475168
-0,13950850256524377
-0,15619362029437528
-0,05322390237646426
-0,02038379151768714
-0,3193285499530073
0,04528326848445567
-0,3539203097347237
0,28192666512896175
0,4209422386025568
-0,3420115204011885
-0,09329755714882158
0,1760732796298979
0,10455034606978306
0,36241886429468245
-0,382964185209076
-0,352731082334294
-0,1233326681360522
-0,3778176678881156
-0,371792004865739
0,3522906407999567
0,08391623005277715
-0,3165811968528105
-0,1667381522052338
-0,15871810786355472
-0,31847257840818893
-0,09692308299326563
0,5661986860456553
-0,3349610898354024
0,05498341013352941
0,48717195254708956
-0,23636559627123585
0,3668961390027159
0,5462363295939918
0,33630515173976994
0,47622426935552975
-0,18678795254606764
-0,4065062931498693
-0,3530272467862038
0,06662009358984237
0,3806763747482026
0,451052991801708
-0,11747294549602705
0,37848673838851365
-0,13637962057551506
0,3176255013574047
-0,48744092195579736
0,2408005494609994
0,3688556329367048
0,09588850643209687
-0,15290222093236128
0,017664634798721532
0,4679858651923614
0,0201599714750469
0,2902912124597472
0,126411410355491
0,47334205450559846
0,26736541777007156
-0,02543924079748022
-0,07956636981028042
-0,5054914944622003
-0,18588793931377087
0,38876406786886825
-0,02910887091814406
-0,350576147050783
-0,27202418839817427
0,2782864182925157
-0,22795333701158102
0,1254184604197882
0,29465741701277837
0,4135097817294463
-0,34097075624892076
0,32303101284709285
0,06731153829277262
0,3251451913446411
-0,4637087385134508
0,43490234836873837
-0,2243065624736801
0,17071003434626644
-0,1506598573446259
-0,12154419664133603
-0,0667152367003914
-0,014289421462333862
-0,04821590113477948
0,5334941462205859
0,009046163136664846
0,1414155188575856
0,4134810054593877
0,03707078306544027
-0,2503205197471612
-0,504602502230353
-0,47201469998860407
-0,6122763496443523
0,3801566714675858
0,16016942575276436
-0,4246212189418116
0,06418916811223828
-0,18154332772645457
0,2744272167955225
-0,1278899151766126
0,14288884039545866
0,32354494685241053
-0,390920418668018
-0,32426659932679275
-0,30831700605517237
0,3338337736833446
0,34566036213506235
-0,16735614776504473
-0,07383577856106825
0,2847212483618682
-0,337122077953232
-0,030325485101834908
0,17611257806365116
-0,0041664439438460115
0,1575423689825426
-0,43871698047005453
-0,5256809095089986
0,2627349803552734
-0,26784715315934365
0,1463151703829323
0,3382245211148377
0,25484048992135316
0,053151346889604593
0,6210545026653653
0,4128546272496121
-0,1922533782352556
-0,1390184677688712
0,292206221539227
-0,4138324032031702
-0,3384852278769663
0,1769787328150151
0,35439793472797576
0,47289507477383236
-0,3990783103842228
-0,4427664391882234
0,45028709407631773
0,2697996526191893
0,31169485939699476
0,04729445112545994
-0,3010616907945552
0,22215695954164738
-0,3910910894346359
0,3591749681239865
-0,15621989436183625
-0,3940966795462537
0,21004471824258564
0,1328437814142107
-0,19794518474588288
-0,03143411465314236
-0,42682188763176687
0,0657952507287154
0,2826935084631746
0,25127969384225374
0,2693225237804198
-0,12445243959492962
-0,03136540218234077
-0,3549273361338576
-0,18846110308452269
-0,001052277458433088
0,14010731080490038
0,39899268583491526
-0,19305012576026767
0,4467574519000116
0,35482560844499694
0,06310638194294833
-0,4407394496083666
0,1908520083532928
0,09979091099965316
0,4688758513944242
0,28320868563318324
0,372674383285017
-0,07971492533656303
0,2686991790348088
-0,2924234737209608
0,25488581134764104
-0,11310935634565503
0,28544431388485797
-0,084950767094886
-0,33413515380580344
-0,2989179965340285
0,4275628124998757
0,12190664163343941
-0,1220266705063509
-0,4513214025693742
-0,3510394256311878
0,49097736495702904
0,0473180695945174
0,3275463717553643
0,493763495530675
-0,1750922210421452
-0,1419388190320023
-0,1938038728303852
0,3472528058344618
-0,6087763642106884
-0,2548321603756105
0,035548549019344976
0,2778206947780806
-0,4232316093317334
0,16626492668368276
-0,5118810575667141
0,1428671956440119
0,11274409601781335
0,4459415519679578
0,23030120969176057
0,25851650254467873
0,36401077677846666
-0,3209037094548682
-0,18801375666883158
0,34745383038371275
0,20736726680907927
-0,28915442065239144
-0,010187909218983297
-0,29848794803005796
0,022962929287598955
0,03988760883091447
-0,1928584295752829
-0,2630817850773717
-0,20161025616399458
0,048330826379582664
-0,11743838045836008
-0,045166924794900365
0,29650726017383533
0,22916505822497943
-0,4429117439866797
0,20466557101930252
-0,4076407507204187
0,401471058117075
0,19633985311518243
-0,34877917417263216
-0,113390830578613
0,4736542301179265
-0,4532680821608558
-0,20065018660850698
0,2147279153829229
-0,33988961992605216
-0,2611476171382877
-0,2986941700781824
0,4276583581601146
-0,1063271040254871
0,3713695098499859
-0,3313338485486607
-0,06838217343282105
0,02136181402742972
0,446720680587071
0,3637496279173773
0,1345046022575071
0,10075783116998491
0,5703857177377817
0,08575191435259145
-0,24187143143105644
-0,1747882535670692
0,4370815349169223
0,13657918063506874
-0,25508244434679833
0,2813818964402531
0,233808142242271
0,5164454580505308
-0,14745997360024024
0,2707249675637255
0,39728771805674984
-0,20537671119671147
0,05725307150695217
0,12183740062397651
-0,11104755725934766
0,14952887379235447
0,3357048032324564
0,010509910903563445
0,17757739618798302
-0,09766889597327516
0,19465929195338547
0,14438945139593146
-0,058436495259061944
-0,3850540855699396
0,3978573592028589
-0,1642790050691127
0,4169111895573929
0,2766753865205438
0,3002024910813983
-0,10081394269740832
-0,4474675831683546
-0,20535034270392596
0,05785054232445427
-0,19586255559056404
0,4501545880964309
0,1654027126733448
0,36682094977463997
0,36086112425564865
0,2732723840203436
0,5076516300348459
0,22951012828167808
0,550032081988426
-0,2159074487614357
0,4631779001520686
0,14506500735407268
-0,4564356163437952
0,14185995850832153
-0,013157054730094044
-0,11241492483692031
0,3024173109273816
0,30850144558585363
0,3616507988440172
0,2603131074117727
0,10000878580623088
0,09833076708474447
-0,3358262416356265
0,2296709275196991
-0,32744186973946426
-0,23946704591617182
-0,37526828716536786
-0,061538129316860174
-0,01855150965894039
-0,2641682788782731
-0,2383115338254632
0,05396355527949028
0,05716131227746604
-0,2534198619221589
0,4010761610723369
-0,14438120473394772
-0,4160320151644055
0,05022222351788681
0,15955861483454623
0,36584476374063357
-0,14532739848406012
0,17857381875872277
-0,33118680790719107
-0,3101640100292036
-0,35307846052682157
0,012168774211747231
0,12674858205217063
-0,22396028307487412
-0,4542063415312194
-0,07436047952225305
0,0486655339140034
-0,10419781123327543
-0,44209501149758645
-0,039442671115976026
0,08014807836974311
-0,14835674008200286
-0,12164509309890424
-0,05138702660071617
-0,0579536789090299
-0,24356569882464096
-0,20226520134185366
-0,5030276165852138
-0,5040789144473177
-0,06670398343179598
0,08903164501679493
-0,12092095114615645
-0,3502843308886636
0,23606265982059424
-0,15683634894397824
0,23251124277737797
-0,4609559256490309
0,17303076095759531
0,27426677531325633
0,09001711211421458
-0,4880854798592735
0,14255256948610273
-0,2911463958125198
-0,10203701509915761
-0,4658847586581091
-0,050890538403487964
0,16618871982676436
-0,5354324634389279
-0,5330665802807701
0,3297437342686655
0,2991253584850791
0,4741779338236286
0,27893239306104256
0,048347059672842925
-0,06057598676345284
0,0072611490324209485
0,48137243276099023
0,08219058332331694
0,3636523439497821
-0,13747984064817775
0,4680306683667633
-0,3775284405104948
0,11770436347701049
0,42004638866636695
-0,2699869199713674
-0,3517250364028473
-0,30517755308736255
-0,24813880628757842
0,09750533412564795
-0,2497441342926202
0,016138402583823232
-0,508823569289703
0,4367979900359903
-0,3714936439885914
-0,023812940865995703
0,3252181489063433
0,372214307920946
0,17212148746396705
0,12914790938329798
0,21899822175286907
0,10490326215355188
-0,25451981962659165
0,4170673422499812
-0,42120670207230065
0,5463729286694211
-0,29331005443600233
0,30722122199910856
-0,176937475161926
-0,06793406163663125
-0,18391645680368626
-0,30476108010525127
-0,25300220917450555
-0,45135815347595565
0,37253266246499567
-0,4591716489051275
-0,2718932147420424
-0,39913847454845486
-0,4184885282843433
0,4971132712705194
-0,542715929588274
-0,24035550455979868
-0,03277689001895258
-0,23704439886432668
0,01462263162816933
0,5023472400793476
-0,18336837157006006
-0,09054498212007045
0,22270484625759945
-0,08922568838459861
-0,02071145306115227
-0,30574551439200215
-0,22286288895676304
-0,2134629550650559
-0,30373561974183944
0,13484646353280882
-0,011282371850259484
-0,23552909631908275
-0,3808653383688575
0,2658823977167812
-0,5067086771189606
0,28694944402212125
-0,2490862069154238
0,39039312636452467
0,43074550497219255
-0,44677948020558844
0,014763946230254713
-0,3857851023693912
0,3431692776601581
-0,004953081954902348
-0,044134869661496524
-0,2788605997251097
0,5714764118843989
0,28436857739228893
0,46179320174159005
0,4204933596913665
-0,3039109362300263
-0,12985509853396668
-0,56926937797106
0,2490937862143007
-0,17458061284864754
-0,5355074986444243
-0,185837873433378
0,030295798486372563
0,14954589486513184
0,0823088593932101
0,28816370689758997
-0,3030306199727193
-0,2958710124043792
0,06388688892481
-0,22011393678946617
0,010995147076508291
0,03395184671377841
0,2039829248458063
-0,35452352926617475
-0,312517393637744
-0,17157051969504397
0,006754570757910789
-0,18102553168803445
0,2899169214949149
-0,27532934002359627
0,5102245865176955
0,6163477277810224
0,5291796036400314
0,38043230612923506
-0,3259835643137762
0,19303877244550216
0,06811401236121374
-0,07230888149380313
-0,2206781493281989
0,27475601512401376
0,11511916314529971
0,25539457487831896
0,6818185189676172
-0,13344863133873608
-0,2111566423107882
0,04473031736795549
-0,43512289045462343
0,14721926058467694
-0,10725810360157152
-0,25609357758442713
0,2860481765445323
0,15701663582638253
-0,4256200306837384
0,025863029089988082
0,23503723337585147
0,4236274042368412
0,2438457254816417
0,3052160919205172
0,45971031624999587
-0,4464900109546278
-0,3630058978291083
-0,2583272702060964
-0,4122811905036475
0,1296765494236239
0,1659755122632061
0,39907853036833374
0,5113514383473919
0,30982066321642804
-0,4425971072123086
0,4063538456356703
0,39779147960053457
0,5016431866315225
-0,294791340943784
-0,29074120953208016
0,231699970060921
-0,03141305307410289
-0,09538796013560284
0,457952318019486
-0,28419390783457427
-0,05251395766106566
0,42722837092236476
0,280290754943365
-0,5125347288954791
0,4015525536473058
0,48298195667300803
-0,31621540159203126
-0,4781452023782872
-0,11373921661801213
0,17511172928480584
-0,3767396782250868
0,04035852753469956
-0,5335041710177236
0,30196589326862905
0,17449698976330366
-0,040611616865915676
-0,21019304705651168
0,2535337886890071
-0,32468625582006866
-0,05643236085905145
-0,4386535521892661
0,3645531676219562
0,5071035723496765
-0,14839524662736372
0,07092254245171974
-0,3712028778845325
0,09806633883656765
-0,031728493942544234
0,28818076994757647
0,5576769332082996
-0,13406213042835935
-0,05268419814360794
0,6054703455012199
-0,1977724372208208
0,3897518220434685
-0,4825559676986426
0,32834283652486673
-0,06226521346889478
-0,02641055287565983
-0,0010412805292071676
0,11827867407766496
-0,49819234702129994
0,41202288417137206
-0,18339072697943742
-0,4611295155413333
0,04567139311271657
0,2430938652298553
0,17546033385061477
0,0536340282927236
-0,36404216290375246
-0,4372088320856864
-0,2598501989466038
0,4405350517684611
-0,08318933526129525
-0,47642888498523067
-0,24746334229578446
-0,49576161533969426
-0,3824284778233914
0,12056416094941141
-0,5231477428195805
-0,385424005621266
-0,37526469411975166
0,10435313498932092
0,07278662000265766
0,456619462496531
0,45382738685756496
0,543253041633864
-0,2925826072392609
-0,1317832679043708
0,49353054650011796
-0,3924738348576142
0,17961358238924907
0,09361489294588553
0,1977148705397797
0,1230539683681906
0,46395568199790854
0,048407511563919405
-0,282505040809312
0,414300916382155
-0,1493949662227808
-0,24134771896484306
-0,24093467785098946
0,3699496322124974
-0,12444625235504321
-0,2630754631973413
-0,30829654501328174
0,25048642985971187
0,08339260352780552
0,178983566445734
-0,1712579502894899
0,19066798006126504
0,25160790142404804
-0,06485772920446162
-0,17614371450741634
-0,35051006853107186
0,1157127340570283
0,27722547780659007
-0,002640768168987555
-0,19622337280022975
0,3049803285008392
-0,12658450072788485
-0,040388232550904894
0,45673075269717356
0,11393496815655685
0,10823764798281833
0,16869474484210475
-0,3543782875232883
0,1703644991019451
-0,18350700855868374
-0,5203490587204403
-0,152561156845365
-0,3743224989097189
-0,1445985999708783
0,4703319452272621
0,1976805393557401
-0,40507677060499536
-0,17624870652184646
0,13432595752723234
-0,12944527128620287
0,330511517037904
0,2246153259752972
0,3940367371073567
0,45228099447378367
-0,1418848001638132
0,28897941242035596
-0,10142818716872282
-0,3160077210390139
-0,10727627835190202
-0,0982411800271289
0,08064743157417822
-0,22066187680749627
0,2165424267487021
0,04266692215427891
-0,27002532458118966
0,35433647000232305
-0,2886043602532899
-0,09170575525304933
-0,20215438896177554
0,4518399720543893
-0,21920702152208305
-0,01201499237024307
-0,21986779470953313
0,19515801158766752
-0,3765468774799912
0,24193550896695915
0,05773011482201166
-0,09700474710410709
0,1550658790118283
0,4675764420346799
0,4397786493518451
-0,432816235524857
-0,5326223302437604
-0,39995001935583446
-0,07109270579450118
-0,3059675879341078
-0,2692304658631326
-0,42013787851506806
0,2168299675756402
-0,14362050814993546
-0,5882152122494512
0,15340360320632174
0,30053089460363297
-0,07803750856183976
-0,19497799276175146
0,2760173117475186
-0,0011195562332064974
-0,1118286755152103
0,29986876622581365
-0,2764109110548948
0,04315020220131749
-0,016381164106235975
0,11512141854588996
-0,00698810773213883
-0,24591199292147423
-0,31245502641624406
0,364333615327675
0,5683585044135564
-0,013479997699224849
-0,20731699416060073
-0,2179336132743915
-0,20513750875756884
0,3874188020725875
0,4982895215392397
0,21189665061960408
-0,4781061035552572
-0,3192679207714657
-0,42597387037735357
-0,32785339610569586
0,374894026479562
0,3054621607085278
-0,36426742252137523
-0,19558822063817116
-0,2940645958645705
-0,43582417791647604
-0,014471256185123682
0,21692734018426682
0,1286960818862937
0,5317164150612669
0,4118254596642967
0,41403472268360425
0,2531696114468157
-0,3227343928239522
0,5573380261985744
-0,09111552098185105
0,04977233178680312
-0,0822700348926191
0,12178645783060796
-0,12599520799689273
-0,4352211525850705
0,20442741091268932
0,21186437403688682
-0,2933754838051389
0,04220648639240783
-0,4528596904635836
0,3891523662835676
-0,44742672888452795
-0,34129466270495684
0,27548927996567785
0,35941255387153853
0,00783539485005205
-0,12711582532645166
0,026539798896205998
0,2613974289494462
-0,21000191208485297
0,41091690720403984
0,3043156183025589
0,1352340491955613
0,4685252971188647
-0,24729855571590478
-0,15673363386393266
0,3489725891313661
-0,03358988091299811
0,4053683656549424
-0,4204825813507953
0,005699752057737846
0,1482368878074991
-0,17039579192004534
0,1919771318193479
-0,14658609082832855
0,4157770920030133
0,4194449272601218
-0,005289346867843059
-0,5484648390468452
-0,12205057916329429
-0,38299170256142584
-0,1629664747291767
-0,27431108202232496
-0,3689972348958989
-0,17478380359476142
0,18471350299820397
-0,3072363943726175
-0,39373743940715983
-0,05942032479166661
-0,3438210808277272
0,44186463132218223
-0,1314613598566669
-0,27710501699201584
0,5547716178289676
-0,015690041282934938
0,011469344487121225
-0,09988295888744458
0,02026383235458109
0,24219055975494008
0,015569087171124298
0,3348364857222862
-0,02608387797799511
-0,15195925329692522
-0,313339580498377
-0,3152353970828006
-0,22201671666735567
0,37897981761040384
0,11478230468623923
0,10766828353695454
0,15650151071111934
-0,388482670725461
0,19968528507862657
-0,41728570714958996
0,3606960095496367
-0,3385835993728408
-0,120394608739799
0,11367458725385979
0,043656288798784054
0,16973545492522174
0,07617888672191328
0,2515135021296828
0,24649880576289576
-0,0046849332935873815
0,4427729165977804
-0,49328942223420474
0,010823592936477382
-0,29509605203829986
-0,0876365035840047
-0,3495947697405212
0,23907108467512944
-0,1686282110871755
-0,10291791835695015
0,6095369011985248
0,4273082121192363
0,49256131125213876
0,4153155461611289
0,012265963529982254
-0,4333969828113914
-0,2941298733848417
-0,3506478411618896
0,3323635088940709
-0,11385564129922537
0,22543835645954413
0,1383464457560709
0,24089677794508227
-0,45607649081678325
-0,2800246641906115
0,11346191870523152
-0,03307792478752634
-0,12128651540357312
-0,22264727093609715
-0,3800606856974711
-0,06777609104700304
0,30141656009303497
-0,026981988220061252
0,04944403811288167
0,29184884239402265
0,526290852036939
-0,39339546194265657
0,22081027355104302
0,5545604837049779
0,5422744426302967
-0,0776831565863499
0,4448991112292038
0,3533352717123805
0,573050830499429
0,3127843152365897
-0,3049307324445701
-0,3686695778503457
-0,21961455291818524
0,0042013766203780325
-0,3889568574397657
-0,15529822622436848
-0,38942301465230905
-0,31444269168462197
-0,4153597501237067
0,2826224392686714
0,49533761880065236
0,008940380051758415
-0,4262267222517362
0,04018635414495896
-0,11349332585646607
-0,33248701741195263
-0,18195439559515728
-0,23622048392475475
-0,0239133855863145
-0,5214029571232631
0,3143954706624455
0,3842761559354328
-0,019960782858420185
-0,07052537360870456
-0,316487106202721
0,26988001808779094
0,49267687823296014
-0,2375972698813647
0,5250537371571471
-0,31884154464448605
-0,43806189543212093
-0,3569535233498353
-0,45033331141458977
0,42209752739189105
-0,4178822743487913
0,5475331737090271
-0,47230602567359214
-0,08532736818614915
0,3239219210297723
-0,07724908126255368
0,47985756321731204
0,46283438216053474
-0,08926629547862017
0,173209623545695
0,30104864376723256
0,03219654315096231
0,37689375102168365
-0,06403101935395057
-0,3876841133922859
-0,409271107463135
-0,028547423648459247
-0,044721824420576595
-0,00999566419276502
-0,32693543878985126
0,15620666707992212
-0,4221250654048929
0,22588219811587826
0,0853608051155298
0,20032789776889273
0,3848166163409208
0,1866573914462716
-0,07031668707995146
-0,47064821339564167
0,17295796427610322
-0,4094446765841995
0,00245026797162222
-0,29889221075844563
-0,25325847367114185
-0,2387316694493221
-0,04042741536089037
-0,5012799582829347
0,06154231035857232
-0,15033215248329532
-0,11309648887044235
0,24388721113706108
0,22571017327535697
0,13505775797013625
0,06488707539890123
-0,08675204126455384
0,38916709647704895
0,21022548500907084
0,08910858920034552
0,42740415898646517
-0,2890995866304687
-0,08640239445756524
-0,3001525992373868
-0,28667055889661697
0,2586237920089231
-0,05808721409046908
-0,48799788240944786
0,01476120585067633
-0,6068014767996462
-0,45099723083737364
-0,250886631975455
-0,34310903010732463
-0,39918831738842925
0,2178265500599882
-0,07588672897628423
0,3015455485592978
0,29082886516494016
-0,23466840511700326
-0,44364992785230456
-0,4180626058701678
0,43612187999274543
0,31085850345711613
-0,4801475113408642
-0,3657152826242752
-0,18481395650279897
0,4995778304753361
-0,35390096638535323
0,03702716865120084
0,062400245566696745
-0,2614125854311801
-0,05758051578278806
0,3213801826120395
-0,14460146849031882
-0,5401604763458048
0,2893780215554922
-0,2779806451375261
0,1430846398596868
0,2588643057410793
0,3570300545382235
-0,06765027062487272
0,008085192118665345
-0,4111981524558681
-0,08634369381666218
-0,4172241421461856
-0,44336953950807606
0,3721835165443884
-0,27610074735720375
0,29626517159936505
0,4327217456847506
0,35465363304716196
0,15314058867983932
0,4613140091770894
-0,30127018333514743
-0,04665044687637575
0,14855336005757688
-0,22738397734303073
-0,21999066085077845
0,3904343220971579
0,5897593869337446
0,5274648484858808
0,1442542349205305
-0,22983551818744663
0,34435536909877335
0,05447492549091778
-0,03841910801256243
0,3000108822282658
0,1237179440736379
0,12383378690034014
0,19852178527293
0,07703284253192563
-0,3507132299603585
0,33601336865825826
0,11582422699120043
0,19423204544505618
-0,5582588606901707
-0,3841925227663569
-0,30101429708677496
0,4831525392770554
-0,07976157457657672
0,13920433323919698
0,17150648975517108
-0,27615846747349027
0,12667844987360596
-0,5105051269497376
-0,3395191301853418
-0,3261061986429033
0,33857128623846755
0,282326858557645
-0,2938526636342676
-0,3055044915376828
-0,308546709305121
0,41985177326745066
-0,3626563150132016
-0,13503374590412281
-0,48519708542894463
-0,15634577486942547
0,02351364740972906
0,4016003528223776
-0,19146975789438503
-0,2525393284923682
-0,24523631700645906
-0,2420922319298163
-0,05549899907315938
-0,38749991821494206
0,01722218527774004
-0,051080021837056636
-0,36052558687129527
0,4819227910320927
-0,37840304890491744
0,41043506122774004
-0,13896142711423343
0,24461274398986985
-0,4071202981202113
0,587921693244243
-0,1360724478681231
0,26568562376853144
0,5768050223562133
0,10482752946337379
0,11062384202055053
0,08864434430874663
0,47070196779835977
-0,4487786300930362
0,1034096400167332
-0,15954004570424776
0,23478040122900384
0,4293167772823704
-0,16255521865000538
-0,5324092571112471
-0,00022333279298099009
-0,335360506016487
0,3488675171459786
0,2436905815924103
0,5243629391649933
0,046284511468045145
0,09086342700869685
0,6059936258116151
0,13305359727999863
0,2553764225902231
-0,05866150785063245
-0,22877119879180172
0,18711746117006045
-0,08633428180573591
0,3983411781235299
-0,3221978685672968
-0,3643498240413054
-0,051465217060075515
-0,40277078650666664
0,11607976377402192
0,5814018067902159
-0,09349499467657953
0,5354587425639608
-0,37783516154177516
0,14721458891397743
0,1616082398521806
0,4552370116714094
-0,40304296593693284
0,3162378075898227
0,3056264979028803
-0,23673719086034803
0,4280204236077265
0,4218583993448941
-0,279375680077256
-0,188262010913537
-0,23863997549193164
0,3213501568603655
-0,49778842038945337
-0,23538127059874803
0,13387010128060142
0,1641137769352017
-0,056841426429516756
-0,13124540156912454
0,02977604962736196
0,22603120290390397
-0,3433141655389635
-0,17119553086758008
0,33475244348594596
-0,4332345937711134
-0,09962571656301204
0,32043687792837405
0,4488485609359592
-0,26990323345125594
-0,41741466701802
0,3117063190487554
-0,2843262842093443
0,5325383161142699
-0,33750775999402666
-0,23400044423684865
-0,22672669411565488
0,4927651957147702
0,101662362457136
0,05855521493660628
0,005466020271334449
0,34965580272302893
-0,229718991860323
0,05246051721185944
0,4623257561664
0,06298835842961154
-0,4743864894599171
0,23867014595380542
0,3330061389902722
-0,3731501958678135
-0,42733303339041145
-0,002707502722004753
0,1633634328963303
-0,06880487020242561
0,015709436749447952
-0,07186544288629375
0,20681073081350745
0,14525864025072607
0,33074668460092455
0,3048388165555183
0,41664454776161286
-0,13500814296708014
0,44627056093270495
0,15047781292123266
0,3904351202854813
0,5515199545689061
-0,3837910044370017
0,37559439340627737
0,23003021096958526
0,4863345147098461
-0,3103012571696067
0,009434649809614988
-0,04689619200787587
-0,3503830169354043
0,5808670334445838
0,43865342870899693
-0,32450654726482203
0,08970092805723254
0,4073432415778971
0,5660525171841032
-0,4446437815599213
-0,1082893020039298
-0,04668526418173496
0,34578869525472705
0,4299843058570352
-0,29112566707744036
-0,1315724779949222
-0,23662732484994353
-0,15648852018058146
0,11841314870392461
0,030817470605704302
-0,019531497258850755
-0,33027119734382754
-0,06656258348694834
-0,06471806243633982
0,44315654510529684
0,11694310419132439
-0,3664534714330836
-0,03692255165280701
-0,16136148472406267
0,25694062800768364
-0,09483505455020035
0,2663374842794672
-0,2706856877602549
0,26290180882893316
0,3930053768214345
-0,10731793873271651
-0,2715590713285128
-0,39176704628099823
-0,5116540416306603
0,14279484252148256
0,12669326341029408
-0,17604427518006238
-0,07065932442867481
-0,5395427255672006
-0,04009945827579326
0,5104614567364119
-0,18288610171755665
-0,029578379666741636
-0,08864503684465619
0,4869962928145301
0,11323093953179693
-0,0015067906081836096
0,19705912956955793
-0,18876549911894003
0,0784136948819101
-0,47522934690530105
0,5178690750026007
-0,40655288176935256
0,14570602467062202
0,5455998396823224
-0,19217077320187825
0,4312792899313989
0,3066042218561228
0,45703705781908416
0,5020839371074279
0,016450634798850537
0,11550926150739649
-0,2881759634207082
-0,2701786450788295
-0,33401977662710086
0,43498675769843775
-0,09467798379737137
-0,3796939789097987
-0,38628968685513093
-0,28002131645002154
0,27424913801018314
0,16485053327526472
-0,16997227149951633
-0,05358166560725221
0,1977631431713577
0,3379130584573116
-0,1498682798138925
0,14086241756509613
0,06069114715465739
-0,3819134431989785
0,14490530281669414
-0,347518592698747
-0,39465411323402144
0,09419977872368325
-0,5140048741541976
0,3387119859435392
-0,21338602485091368
-0,39734157643745616
-0,3018204556676952
0,35619700944892396
-0,39514715020300434
0,5272275736916611
0,19876169342474512
-0,3526954502402404
-0,0353818951982704
-0,16248868844510275
0,14119097693645388
0,008313746298190504
-0,06858799189496857
0,45010386449809303
0,39024913778662845
0,1824470306702605
0,041175124833121926
-0,3658058345352092
0,0222069838490251
-0,033892400418038565
-0,3677518530355059
-0,22650067008497027
-0,08825381006433777
0,2596972205680005
-0,006343901498514925
-0,3849189509970666
0,14017574330745436
0,4191326158876871
-0,2621342826158453
0,01594544856755612
0,19050134776446803
0,05954030065573576
-0,4034110866366058
0,398540790446862
-0,16342147699239387
-0,3484641328384766
0,35914666397176404
-0,11709461703072464
0,10162460654303433
-0,44705085793614024
-0,22893653725504287
-0,3917556291345782
-0,06797097641165636
-0,41396490810266817
0,25284713584056623
0,09675195750487167
0,2451633989063398
-0,09656728166180878
-0,3274652223326489
-0,2664840950184239
0,1560037798190542
0,041934617111942726
0,26568878985092476
0,2508369455842336
-0,3079475959016126
0,3319841778784589
-0,40128087504216026
-0,12979444095763554
0,4416980123930563
-0,16927100243255555
-0,04258058131889177
-0,35180424616105527
-0,08119208621097458
0,4241040830257748
-0,4622380086362155
-0,4524502534240039
0,05349438333927778
-0,38280902684747137
-0,4739619264491132
-0,0020913985672156685
-0,17737545449181133
0,14462769185192806
0,05352556666917547
0,0627708604680618
0,4112227252301927
-0,15669033606571045
-0,4928809707906537
-0,3424379438230921
0,31128427451901564
0,20844950701151396
0,11216013953368473
-0,224524009189967
0,4003635164288287
-0,47482311583115516
-0,2469276498816241
-0,03128688697967662
-0,13106760276108584
-0,2313748691633664
0,4567257575254618
0,4438944747756859
0,47003795938758186
0,22212046022092566
0,21726738736053247
-0,3647336962643914
0,4235790279221787
-0,11153083077956112
-0,4284996025283339
0,446671822384629
0,25997673733254695
0,0561210711106015
0,4870612358040744
0,42524466168998587
0,3196091373395321
0,3111342000350064
-0,04654691222202671
0,029994621194434752
-0,38633860176648044
0,25230110314454773
0,22020827508600327
-0,16480196900157185
0,06884551489234723
0,4608370329109315
0,4665930545230913
0,16512309156321367
0,2538325663905531
0,21207082112523093
0,08498436985329988
0,12054055649698385
0,09041205583878482
0,15433113934468606
0,3443357363853171
0,5065007729688185
0,45949085946401647
0,36328515690167534
0,2965236671735864
0,10548349610482534
0,011615423388881807
-0,12901261806319733
0,14523447279884824
0,46213956140106366
-0,05737955077615435
0,11179069995332355
0,0990311169447783
-0,4544684406556689
-0,11234574993248281
-0,36409931714591026
-0,06582404910389501
0,2858878497741183
-0,4806857117320663
0,02662632233535184
0,2965094618409211
0,04265713392855708
-0,36916053529312975
0,25655806726847163
0,0998831377852351
-0,12236428320242698
0,5131780788761525
-0,005227665898819994
-0,19639731322485918
0,2586532308360806
-0,18860435836771755
-0,45369632778464
-0,11036507712388997
-0,04097415903705528
0,5187368226885748
-0,23096928373604744
-0,16972433181759802
-0,2135003175616812
0,5319955268144875
-0,03144348216209457
0,1220536697948503
-0,23429321919852564
0,36002556020160986
-0,24864659539620068
-0,3758961114119871
-0,1035808923240665
0,22676027598043422
0,49158315389406443
0,0540552840831982
-0,33219675424848955
0,31117332786278296
-0,2801148789399471
-0,18498364445084742
0,17645177002759854
-0,45035441347259164
0,30562601093057723
0,3881233664368651
-0,08874652394818178
0,13162632454386236
-0,24150351097700395
-0,3246176174506964
-0,05611523290317263
0,2903294090580663
-0,4146216857883226
-0,26893073723099253
-0,23364565204373797
-0,28287370881165796
-0,269491091374458
0,4615576675193949
-0,038612585365822655
0,28624019341158946
0,46906206569897846
-0,46479503197911415
-0,09510705908034396
0,2924223680205289
-0,09780389346318509
-0,3886450006568431
-0,05059920889322664
0,12360952158647365
0,49564440184977043
-0,11369800269261593
-0,07286064519806182
0,3199209661865133
0,0006340935593155088
-0,4424782242834328
-0,11309779488099474
0,2153965910141084
0,24448271739957983
-0,38485045312852745
-0,3685136376537339
-0,15169551049698274
0,14739598874603915
0,14801568841726814
-0,23374965087019728
-0,03195502731658511
0,13334713640643034
0,13943473793837613
-0,26446383160971976
-0,2919447483490385
0,0492880937367383
0,052386468553770056
-0,12452837741199621
0,20349640327947277
-0,0004336711668926553
0,10587372646198784
0,12138125142359596
-0,05965207885549536
0,022972159312903927
0,23103047819804384
0,04830677753582835
0,06740004976625967
-0,4645751540940756
-0,12804759370313348
-0,016825460114934944
-0,20441330013046713
0,4306650643900282
-0,34006880901223513
0,12055235435853687
0,42015521995001176
0,015038827149692006
0,04624300971291639
-0,07815078969508314
0,017850184149997533
0,43485397085472427
0,16336165435746336
0,004333120138257024
0,18086708629472742
-0,24527173109408956
-0,11418338869647836
-0,49404974801894536
-0,3722072594437955
0,32345646617220714
0,3427419941200612
0,04041534084032539
0,0007904151898966567
0,355648726547244
0,2722649995834767
0,22480251954657723
-0,3116162788031523
-0,22402447261163794
-0,3255411923130653
-0,24961607734994856
0,20448336990300708
-0,31829943287893764
0,4837299561942308
0,22968058509084524
-0,24831693965290524
-0,38823067805549494
-0,24576178554448153
0,021232978588701906
-0,22720859412082167
-0,4348567474401021
0,052677631816325815
0,18357992230444573
-0,4680053716267012
0,18586056637398582
0,22861012577311665
0,3769218688885778
-0,37070940464372737
-0,36530238834531603
0,40100374804893235
-0,4853919982038374
0,3632147284147676
0,32859483887690644
-0,04271815230168821
-0,2247204452565476
0,2979417965141528
-0,37408633316768947
0,43214570696860727
0,07340823371316504
0,16334722582059374
-0,04253617607119925
0,4355589857117658
-0,2283104375619177
0,24411167798903463
-0,08820640155745856
-0,12848140783503958
0,25081464325635605
-0,3862449817184268
0,040420979059599106
0,004267485075346477
-0,4101267829033102
0,49820890650549515
0,3893476264195588
-0,3942380060912693
-0,0034724228479475973
0,3461548814775183
0,018762068680503917
-0,10002239982263457
0,11492543928966506
0,21455242434286678
-0,05699634653100665
0,39631696426477814
0,058103667707513636
-0,017908121640501474
0,4347092503285043
-0,305480656568789
-0,358873193674713
0,3930550844064084
-0,03247863835127562
-0,21136029648372398
-0,07323423641775019
0,3227524398761209
-0,18760452736576713
0,013225316896135346
-0,3746858804242522
0,2806975374720819
-0,30861380185332066
-0,3854565975498338
-0,10249490523812345
0,345328453200289
0,026002803647573302
0,2553942405788229
0,055480253164220214
-0,31404722537494534
-0,29121494962077776
0,40450513510459807
0,4227559680816436
-0,15610534598727285
0,14501896104011802
-0,0159776709650783
-0,34253780974070197
-0,2324464092268518
-0,1376187541824411
0,0431388234111304
0,1851076365936467
-0,1408407993818154
0,43914687575617994
-0,30408090752865674
0,001057308203404658
0,36409396213731215
0,27881840547655995
0,008331235024838702
-0,1734879636700029
-0,4889562887511856
-0,36303769706936
0,4342372650764964
-0,38397935590193927
-0,09656635085637552
-0,09668945695037548
0,41559876537118906
-0,2964577245307595
-0,38876282330329903
-0,02943147779681916
-0,019640682444718664
0,261202956865331
0,45549816441545715
0,3410026750935801
-0,45956564474191625
-0,30883912658990453
-0,08250615774213832
0,23255733798364997
0,2650839337156366
-0,38983546339066366
0,03652064115363213
0,21324539488763222
0,3504127667041073
-0,020264604195058114
-0,47583421881536386
-0,47204025471112937
0,4911326222593057
-0,14708723953500652
-0,08453084293439557
-0,10447171499053999
0,3871921625281994
-0,4782364617651297
-0,39594757191009017
-0,35585848745620263
0,4265756487125975
-0,127954617796864
-0,12393719824176141
0,10422857413577308
-0,41088422077162373
0,0257485427268834
0,1610462813757176
-0,07647287035451213
-0,4678283506212121
-0,48979181004611066
-0,4516287728828236
-0,22525713702150896
0,40047628365512583
0,2532352906028915
-0,47471831534080555
-0,16156107835712544
-0,3353308709090873
0,08352005409896855
-0,43012301035697376
0,43861271388116074
0,3168599966164624
0,16166820732771386
0,3748846602048941
-0,3180150167214386
-0,12565265284282576
0,15338009240137176
0,2505074200332799
0,2186588740108997
0,1728700566522985
-0,3997627201302098
0,23224993408804878
0,16511182220576537
-0,23077674685323113
0,3606316211834313
0,3130519725979378
0,3305074886939282
0,25578810097529353
0,18546154972010265
0,3510496698795201
-0,1216887104509257
0,4993374324118708
-0,19764696182366184
-0,3218256294260059
-0,3411669021043979
0,35772300989918715
0,44841955929996385
-0,09450736455997392
0,10784281939720554
0,3405582496385173
0,06307715257934222
-0,19687207432314333
-0,3730542874923141
0,38044647431359585
0,3121871606805675
0,05216667361298948
-0,4957441288069898
-0,4272859566021744
-0,20136085833294226
0,16895935821988461
-0,2674548786968845
0,3142785133166258
-0,02268015992665918
0,39980059782127336
-0,4014085500668486
-0,32206345300451317
-0,46581274915785664
-0,20789301076415873
-0,22694996140186138
0,22947222179622878
0,23293719026407597
0,08355522535343733
0,3071763344613047
-0,24150139996026518
0,4032965057767881
-0,27315263974878523
-0,29669601682069585
0,08290780033359992
0,37805527322100646
0,15563325047011442
0,04578372854131575
0,04305936469777894
-0,1784352168951636
0,13744101760395463
-0,040704496454039646
0,15475430785294153
0,37174444301114906
-0,01495397378357661
0,059065145509104335
-0,35353588177651085
0,5006018205487698
0,13569422856458563
-0,13310797400222066
-0,19461494879253152
-0,14039913255998096
0,2171515186211719
-0,2703071797612194
0,03422873379555303
0,16021205951701983
-0,3902552037891377
-0,3266205733022509
0,27687765252831614
-0,006800010079735827
0,40695745292189933
-0,41710981014451237
0,20298977760168718
0,370046014836979
0,28309809050613627
-0,44234343058621406
0,1142794267877021
-0,40330454383078573
0,25623393352416535
0,09892006473845034
-0,19260067429781338
-0,4970438715660964
-0,2574054045177295
-0,025318619197494743
0,46913353505551586
-0,08349357956446256
0,05519489387007519
-0,06372888007676832
-0,24888266933847775
0,09549853497686069
0,2396556512180445
-0,11374009212044546
0,42501390981099785
-0,3552418971476691
-0,03131975088813125
0,11583124153798502
0,08221330227518196
-0,18425105880280943
-0,4874129432121767
-0,28547303673768004
0,31072574825028537
0,35561590987646197
0,10178355493728139
-0,13826004526700336
-0,3054861063070802
-0,4839302736381767
0,27408619821899105
-0,29025681130854336
-0,03369524128499463
-0,37084640074063346
-0,4559444523115903
0,10816039883076387
0,07689049230988342
0,22683815699510804
-0,22705698541886551
0,16313067515267884
-0,10214215395387308
0,25458407931180027
-0,10121080755228763
-0,4174832119983768
-0,4162463156829093
0,023345541668085452
-0,06253268497415099
0,002602487687686301
-0,27420188815236396
0,27674792003292703
0,033912656093878744
-0,4144293713914084
-0,007323683305214901
-0,12565600419406459
0,16337211535660068
0,4701040916831558
0,39422410362883825
-0,14872577161252812
-0,2408162093939515
0,05166119834037139
0,3075449038761488
-0,2889727533904758
0,5238676406379411
0,09927652695647052
-0,44716090406317927
0,288216387761779
-0,11168122073014272
0,029387596577715044
-0,4178182858271487
0,1074117658399466
-0,4833819437407531
0,038620134437896414
0,07390346810868237
0,2835785236006506
0,14170080986335237
0,25959871863428946
-0,38266390337926676
-0,2809963176313686
-0,250197370198791
0,33481524638331195
0,10554630501461486
-0,2520663575308392
-0,2991741370480021
0,027827919566283218
-0,2935546304966514
0,26345630884667687
0,15735225850712561
0,0007393577194337673
0,34854467058355093
0,1303425946137148
0,044909983166163125
0,11140805155990137
-0,29486149285112123
0,12409815490956645
-0,4847192331913331
-0,3338324016828825
0,4636595764417664
0,46063321667836576
0,029720176585336176
-0,16978904209126044
-0,3961886319541332
-0,1931264441494041
0,16444870387003482
-0,16167173040605842
0,22084663720829587
-0,054511205882652264
0,03890728592536611
-0,10717609606648712
0,36340627493020167
0,03640631705180271
-0,13550904606958925
0,03689461301959705
-0,07575913543231809
0,44830781777292056
0,3524597532369307
0,2750539694563157
-0,2290288978311885
0,06748000913890498
-0,38360199300172365
-0,32166305479414226
0,470810326743028
-0,2863257994086256
-0,4061251648667495
0,34505186660337356
0,1346807422797493
0,04333816644298069
0,21971749624893408
0,21888703787391908
-0,14527994951322376
0,03052141350180508
0,09500993762816308
0,1074728642344197
-0,06567565662690653
-0,47180961068253346
-0,35501028966005005
-0,021736109787297377
0,13753756914355383
-0,029408103523493396
0,26994717161268367
0,38406628981202995
0,18731549943707188
0,2730733029968497
0,3324842138556265
0,21912512880377766
0,08771618982108749
-0,2667256102147933
-0,1971841572919634
-0,13196480058955012
0,40482067099017804
-0,03069016821898846
-0,4067416248594364
-0,07044301121169656
-0,20390480451718324
0,29227834950126796
0,4435868858773548
0,4958397462868367
0,29324285965482977
0,08624388058657793
-0,3096964832967417
0,43558182970095616
0,42788831162361546
0,0020487938748147503
-0,2271672228793996
-0,42995516449877136
0,2031799046293638
0,45896716501830537
-0,1561809720596953
0,3802647315830595
-0,1593584441165552
0,4084655753099068
-0,340617925337262
-0,43094077832051253
0,17237868489664968
-0,44960429316779016
-0,14348984687213506
-0,10423299159589497
-0,21631281429386404
-0,1292670042924811
-0,2731630439463642
0,46453833318981924
0,3992396383023218
0,2567436742215974
0,32902093940402716
-0,2577500058559039
0,1883044019124418
0,1605171603925978
-0,17816063145406555
-0,15634910217431974
-0,041802162396025196
0,2552907256064798
-0,49499005967763077
-0,07892885732755298
0,3877877890739972
0,2290534643001194
0,4991138325872225
0,18973783171521347
-0,3482588666579731
-0,1916756466581472
-0,3942781824341869
-0,275189451628923
0,07065436975739457
-0,1710132730470149
-0,4567231370684136
-0,3249312732511924
0,39483378182487056
-0,2420334298265662
-0,4778037436699627
-0,027098586461485587
-0,16168480744653527
0,29538943693687614
0,18473077701552193
0,2467062818277281
0,037714494415391084
-0,03842190510363584
-0,01712375508533347
-0,2907275514389749
0,2517334541661567
-0,4508315615026035
0,2610852488933528
-0,047989200057200775
0,27208621465718275
-0,053722301618644205
-0,0522608164613098
-0,4160401251341832
0,1392150339815645
-0,5205046508182523
0,094979616519168
-0,0961047791603617
-0,12584141692193787
0,1803068421221047
0,4308709540926525
0,37701116685964714
-0,46917176992075776
0,13869817991844213
-0,4290589805529255
-0,2478291622228647
0,4630468860392739
-0,28273537041717534
-0,4317035939756941
0,23684952125913147
-0,06679687726633372
-0,0338509634462211
0,06088067336826943
-0,36282270816245404
0,10559924014103575
-0,05597614173121067
-0,47727315073145443
-0,3844278153906647
-0,31275981109972545
0,05717946129247916
-0,45565091859254353
0,4278002335154705
0,27981373196539744
0,1725053033287276
-0,349188498023563
-0,38737010973975766
-0,12247376636208022
0,3837909737473927
-0,18618524577475376
-0,36033294577425806
-0,22424746069899024
-0,28963258268040915
0,0901204580088901
0,25411465224641755
0,4191748970560864
0,24036155704580714
-0,43669935654059067
0,4701907793538526
-0,07630548985100179
-0,3339052303797503
-0,30838887672101445
-0,2706772653271585
-0,33884015893638836
-0,4153622023882116
0,16713093769805118
-0,1510867695653944
-0,0704377189439299
0,14021788501796087
-0,33067447019202884
0,3499223721926083
-0,4522818251908693
0,15831344465537897
0,3985050189859562
-0,33321239938731717
-0,033870430641165926
0,17928063656797447
0,04862834392236692
-0,31155208371212423
0,24202544807180956
0,012996999219408927
0,15391391893743955
0,1529339583451373
-0,00609031868851225
-0,4805820073266687
-0,42611732651997486
0,2578502300685865
-0,4627212107978682
0,3751480825191683
0,5157886586867582
0,34499135001470066
-0,051783184687096015
-0,4493139184522904
0,4790675712120055
0,23656330966367262
-0,17715505969857556
0,028332546031892822
0,1298467008760269
-0,20141617992565525
0,22599321683744303
0,17275814044933108
-0,20125345693932495
-0,3527261954459985
0,17890558073390259
0,41717535285590224
0,4552072674450069
-0,008589317719375803
-0,2906697585698079
-0,32682065462436094
0,3838269688743656
0,19205220811502377
-0,14242121353049852
-0,18908191639339125
-0,45364167909788056
-0,26676573671825604
0,37460033533198145
0,21472957470678636
-0,4509427227504253
-0,4354848980764775
-0,030398665196500533
0,21967612957426164
-0,21033353163840254
0,36581949168557093
-0,44601415266435396
-0,21712192114502904
-0,10689456136773202
-0,2998440418907319
0,11956290066584359
0,16761396696469638
0,3820387116597558
-0,48613691950548543
0,17774879456288528
-0,39717145254408226
0,2962600378999044
-0,21772172625755212
-0,21853855727667704
0,30321919301447264
0,05907517660155176
-0,014014004356017263
-0,45913362500723903
0,006631089651692313
-0,22820616896878143
0,2088519627441551
0,37915895038015496
0,2244899604209686
-0,4158589175297156
0,37033928561451046
0,19141757456100875
-0,4809116241690049
-0,3329399552943558
-0,1753739930428605
0,3945133181421099
-0,37996842815491105
-0,19949546527989812
-0,4792378545211669
-0,00755287306866096
-0,45605278109960046
0,3181256119589693
-0,3987963757145331
-0,33085092170007924
0,33296507079266724
-0,06131084617084023
-0,1252306325690858
0,13858900988255562
0,07717778589162069
-0,44806677588695415
0,2045895237937596
0,1595143535212927
0,23576147308562065
0,2597977308158826
-0,03018523409545805
0,5127730013772547
-0,1807126474686876
0,1466787977228767
0,25211975954812876
-0,07279739161328995
0,44373279923763753
0,49966639878439906
-0,33693394335214305
-0,22230101406569072
-0,45412980209620585
-0,11060153424883201
0,32215465709297747
0,2697956993379054
0,40403878426690376
0,1296226143988056
-0,3610087840020306
0,48727715362794755
0,495054894723851
-0,38477275192710914
0,20611539076748425
-0,34275039409489066
-0,47737343331268994
0,31950439909064393
-0,2048334225375046
0,33442190613782885
-0,0002936124975216749
-0,21357899731141783
-0,3926377913148812
-0,060392246183755695
-0,20767308599618606
-0,08918974406430553
0,24669254887361883
-0,19714033992996685
0,33687282067766294
0,4215641772412215
-0,19474883511369043
0,20633603115438012
0,13888427421293267
-0,17842608863664908
-0,3385019970746006
-0,4369031504519259
-0,25787110374107347
-0,030462233759977586
-0,3604132498392987
0,12635174770912103
-0,35850671895541136
-0,27854134853253304
0,35949185051939914
-0,4237028680572715
0,08645754420223004
-0,037554237776556275
0,07737038705468027
0,07507418161484693
0,2800121115696328
0,27678748667287606
0,02066462686598426
-0,47371432674315656
0,08504323007050915
-0,466997674179862
0,02779532953446073
0,21207306806000165
-0,3131976552212236
0,2235057460849046
0,3653039508008227
-0,2989927515433283
0,41834106502341456
-0,3566689346891927
0,34376393391219484
-0,4606289834235437
-0,2826196385453631
0,1517322984582341
-0,4327228751452116
-0,42380276058203925
0,2332866291083605
0,259618246687603
0,2910582586931491
-0,25722816941253124
0,3753549336688759
0,4087004856654683
-0,4233213302028029
-0,17669319719022258
-0,1985928933969204
0,02228829879589193
0,33654200283123703
-0,12551100354009082
-0,40746357013129075
-0,44837037791120643
-0,16839407048259789
0,4007073781957999
-0,20657482447836714
0,1743911389084099
0,00023365842028165646
-0,3204832936300695
0,4693029572046868
-0,249648036468675
0,340474832219999
-0,1369517119890283
0,14821853475823493
0,15772055509240115
-0,11260893376825995
0,32199088587837826
0,42178253898722806
0,17497594632827074
0,35924929812070955
-0,03453104913415859
-0,39034802366139665
0,30055481631437736
-0,23419039824602542
-0,3827008867079009
0,25387900187675017
-0,28595247291595915
-0,3742667876066359
-0,24987280451997088
0,17616367242938516
-0,054845352880137074
-0,0758323932456527
-0,14691666928341168
0,24014942116139382
0,13613498787881514
-0,2723388185144066
-0,2974306224311817
-0,4351245826308061
-0,4779757269380412
-0,08902605802877961
0,022534900175621778
0,49555890439466116
-0,16881537940409042
-0,1645316444522132
-0,0227543758326919
0,3510980514322495
-0,06252045096888151
0,3767473207698498
0,11584516170879883
0,31294070022808707
0,2751600146638675
0,2280638236791379
-0,18398146108930988
0,3901302736222604
0,28868468895891863
-0,3232323354414967
0,306737635213021
0,2090510568953408
-0,4356755605522885
-0,03103634378127485
0,41102264246859965
0,14013020736570064
-0,061592373703205215
0,2832836231765078
-0,38662225493546637
0,3852380054178068
0,29828476494498246
0,161771513789239
0,2715135391633352
-0,19464378906015617
0,3991047234877873
0,43460106801093285
0,31173878806881833
-0,3519317509718223
0,12261590176044582
0,1171908669112597
0,43913020394011787
-0,19229532755348933
-0,2695508489940947
-0,19811939979804613
0,3318983848034025
-0,40827110825058116
0,462341900216696
-0,4944355422409622
0,20655637449934003
-0,2597663192327973
0,08968046478315078
0,2786639896672839
-0,3234316959138782
-0,4061654511047131
-0,375769094377784
0,12233794946933338
0,2711192354708437
-0,1883304185559196
0,30827983691170424
-0,0484586836019438
0,12048318176257918
-0,23082931656410685
0,10709525622892836
0,06208438012547633
-0,0982816572435519
0,42664120382064635
-0,15576486955464236
-0,28228507347544013
-0,12396402125108838
-0,13375909489272234
-0,0009798641928642085
0,2671410291473684
0,3577089720319723
-0,22311820457139736
-0,2357806953698662
-0,125857563138002
-0,41092192832158825
0,06334992920367716
0,24863595951003542
0,4834747265660455
0,41798058534092764
0,07600399507422032
-0,3666198150776098
-0,24289409314120605
0,23366442574744423
0,11780298608027168
0,16345740028324407
0,42349296836981426
-0,38878974441876457
-0,34411869990075333
0,059713988963633405
0,3553419883166692
-0,14896614519513576
0,38309585420125264
0,3845623616074191
-0,02065922552983352
-0,12228959823685447
-0,4546920716894596
-0,45654165883803166
0,035306343523761025
-0,4070979603351679
-0,05994308551071578
-0,23654433421630433
-0,0539138250459796
0,17085889180463792
-0,12030556879531361
-0,1400609434458348
-0,006075708244700689
0,4412099048693183
0,5120838582912487
-0,2863100109523275
0,045311866364640525
-0,4135715086366414
0,05973485067844244
0,2678306681276986
-2,092655214645387E-05
0,04006691571845084
-0,2893512486081417
-0,4741620294662719
-0,38392482785400445
-0,009356594701345138
0,09298363221188695
-0,12600498740576255
-0,09830104467697458
0,45096233807344516
0,26967542389514826
0,36760344349802604
0,31421464007197725
0,13730143975494263
0,23552640827806995
-0,096089011646109
0,22987760914168698
0,25376125335843736
-0,09769061809058151
0,10756967192746603
0,45022392915342707
-0,3280423476835083
-0,2225287735343528
0,34367339175979533
0,372684751846631
-0,21664545137229033
0,3232215576346126
-0,39255003143560163
-0,4788397172627408
0,005860297856468196
0,12118824929283656
-0,2886649990644972
-0,4569658669443276
-0,08098751200727575
-0,16701761900891632
-0,31656105139162904
0,31040728157065345
-0,4632794849346993
-0,15363266308137996
-0,020110237042001603
-0,32105041937182655
-0,459060144212179
-0,16962010961660456
0,0600540153861048
0,4747970228999248
-0,10282739781254033
0,07969114341821401
-0,06970380076457118
0,4039564953101418
-0,11522654191053346
-0,14020334736400128
0,3075746019511535
0,2153919927182073
-0,475696876310992
-0,11051277207668099
0,3107468951135671
0,18134847721246236
-0,22121193950055076
-0,19975538575865578
0,015764264423541452
0,28210353584043074
-0,39158362664263024
-0,09099215419191807
0,238909022332062
0,27125884572583225
-0,24245426494685934
-0,3076148221962915
0,11540803254403605
-0,14251356117585776
0,4147129819809642
-0,07631791989038236
-0,447625002060709
0,12471344622748402
-0,033017250546001284
0,5051592939456869
0,21549112820487268
-0,3474533970291145
-0,15498568980225663
0,3030226681178775
-0,2849233826319832
-0,07090770999943068
-0,391395063208078
0,05296111993438493
0,320443074879324
-0,061679123547634336
-0,4081117176441103
-0,39674276149454957
0,18484631891240585
0,14859880880157933
0,3730978957922253
-0,32125677186132034
-0,49197798198406195
-0,28007595306760996
-0,4645265044272021
0,06640406526284254
-0,3343662766832438
0,18775111317038365
-0,09293958747968445
-0,015858595155771867
-0,36862076527848797
0,1355742964330481
0,4638605543736765
0,19902481223731142
-0,2765066107856638
0,28465608206376525
-0,2720259265851663
-0,42242064711117
0,2048760856205966
-0,3892603484306616
0,13916001204782025
-0,23995185299020977
-0,3693744618894015
0,043881975726290094
0,3912852950524324
0,012337243621680528
-0,3372736574006026
0,4480624256049553
-0,014250384702206876
0,2128750132618213
-0,42468411995686567
0,26337975578833794
0,10415232460932207
0,3143980095291047
-0,39573915422930467
0,05115980659820816
-0,21825858798957157
-0,10690439580459843
0,4705017328493546
0,16323236739027
0,1924006976598968
0,31336129590162687
0,3622559857901714
0,021059673796142993
0,23779166861348944
0,008408932381336083
-0,1186311255215252
-0,45440197849326247
0,1260019364924712
0,31958181124751045
-0,14374393852168238
0,4058403260035035
-0,34620610009072417
0,22238905473130452
0,10020527653582237
-0,42373010032944736
-0,23735148393636982
-0,04014362590706675
0,11506672903445353
0,1987220795193275
0,47134668176734723
-0,25051883081188464
0,36640829200014347
-0,5158228610995103
-0,3810607970092046
-0,015944387736610728
0,09979312239314782
0,3811603916690666
0,3640248094935176
-0,4339753317781669
-0,09145779901151893
-0,09501285203493234
-0,10297136785337246
-0,45526834431768515
0,18443496895840067
0,32194423712770454
